tree
version=v4
num_class=1
num_tree_per_iteration=1
label_index=0
max_feature_idx=105
objective=binary sigmoid:1
feature_names=Column_0 Column_1 Column_2 Column_3 Column_4 Column_5 Column_6 Column_7 Column_8 Column_9 Column_10 Column_11 Column_12 Column_13 Column_14 Column_15 Column_16 Column_17 Column_18 Column_19 Column_20 Column_21 Column_22 Column_23 Column_24 Column_25 Column_26 Column_27 Column_28 Column_29 Column_30 Column_31 Column_32 Column_33 Column_34 Column_35 Column_36 Column_37 Column_38 Column_39 Column_40 Column_41 Column_42 Column_43 Column_44 Column_45 Column_46 Column_47 Column_48 Column_49 Column_50 Column_51 Column_52 Column_53 Column_54 Column_55 Column_56 Column_57 Column_58 Column_59 Column_60 Column_61 Column_62 Column_63 Column_64 Column_65 Column_66 Column_67 Column_68 Column_69 Column_70 Column_71 Column_72 Column_73 Column_74 Column_75 Column_76 Column_77 Column_78 Column_79 Column_80 Column_81 Column_82 Column_83 Column_84 Column_85 Column_86 Column_87 Column_88 Column_89 Column_90 Column_91 Column_92 Column_93 Column_94 Column_95 Column_96 Column_97 Column_98 Column_99 Column_100 Column_101 Column_102 Column_103 Column_104 Column_105
feature_infos=none [0:1] [0:1] none none [0:0.3333333432674408] none [0:0.40000000596046448] [0:1] none [0:1] [0:1] [0:1] none none none none none none none none none none none none none none none none none [0:0.25] [0:0.8571428656578064] [0:1] none [0:0.5] [0:1] [0:1] [0:1] [0:0.5] [0:0.5] [0:0.40000000596046448] [0:0.66666668653488159] [-0.68531358242034912:0.49871912598609924] [-0.6062961220741272:0.55432140827178955] [-0.66141492128372192:0.50217568874359131] [-0.51164728403091431:0.32910570502281189] [-0.46063551306724548:0.42616927623748779] [-0.5205647349357605:0.45597794651985168] [-0.5525936484336853:0.39987361431121826] [-0.42717471718788147:0.45109105110168457] [-0.37728062272071838:0.48861628770828247] [-0.52527141571044922:0.3483729362487793] [-0.3137543797492981:0.51599949598312378] [-0.37998959422111511:0.28747040033340454] [-0.36622843146324158:0.30840525031089783] [-0.55447947978973389:0.27589839696884155] [-0.3278251588344574:0.32142460346221924] [-0.45150867104530334:0.34108257293701172] [-0.34905225038528442:0.41551056504249573] [-0.26675760746002197:0.35489955544471741] [-0.42754334211349487:0.31825634837150574] [-0.29052701592445374:0.34717121720314026] [-0.26632106304168701:0.36728239059448242] [-0.32929897308349609:0.35983797907829285] [-0.40022096037864685:0.33502963185310364] [-0.26449704170227051:0.43115183711051941] [-0.35336995124816895:0.38526028394699097] [-0.30641871690750122:0.27318719029426575] [-0.31892302632331848:0.24976718425750732] [-0.30005699396133423:0.28881850838661194] [-0.32221439480781555:0.28424409031867981] [-0.28774845600128174:0.29364880919456482] [-0.31467819213867188:0.25091210007667542] [-0.23979435861110687:0.25027173757553101] [-0.34732803702354431:0.32910352945327759] [-0.25686442852020264:0.28323107957839966] [-0.27324369549751282:0.26694077253341675] [-0.29166263341903687:0.27955973148345947] [-0.25658801198005676:0.24850191175937653] [-0.24146373569965363:0.3151506781578064] [-0.27363350987434387:0.2768993079662323] [-0.35269495844841003:0.28917437791824341] [-0.28936800360679626:0.30758893489837646] [-0.23016160726547241:0.25454443693161011] [-0.28255385160446167:0.25462675094604492] [-0.23150405287742615:0.26402842998504639] [-0.38753470778465271:0.25847452878952026] [-0.2331450879573822:0.26503476500511169] [-0.23784911632537842:0.23459967970848083] [-0.21934473514556885:0.2337663322687149] [-0.23349075019359589:0.21593646705150604] [-0.19675007462501526:0.19979482889175415] [-0.24955172836780548:0.24477387964725494] [-0.25816190242767334:0.29116371273994446] [-0.2385353147983551:0.25027385354042053] [-0.22065772116184235:0.23515418171882629] [-0.21297635138034821:0.21516083180904388] [-0.25359690189361572:0.20157803595066071] [-0.27738675475120544:0.25494623184204102] [-0.26429009437561035:0.22223187983036041] [-0.20894868671894073:0.2123233824968338] [-0.22732353210449219:0.24209408462047577] [-0.2165866494178772:0.195794478058815] [-0.21660852432250977:0.2022266685962677] [-0.23231489956378937:0.20155419409275055] [-0.19388073682785034:0.270072340965271]
tree_sizes=842 885 884 876 876 888 877 885 882 879 882 883 985 885 994 990 882 992 988 984 994 883 995 1099 984 993 1092 994 1092 996 1096 1204 1101 992 1200 1205 987 1092 1096 986 1200 1093 991 1092 992 780 990 994 782 994 989 991 993 1098 995 892 884 885 983 887 1096 888 885 985 1096 884 1095 891 883 1094 889 1097 996 999 994 987 996 988 892 892 993 890 992 995 887 1098 894 894 1106 890 1093 888 886 884 893 888 991 888 892 999 999 999 892 1000 1001 999 892 889 999 1100 1003 992 1002 999 1010 994 995 1001 897 1004 895 1107 890 1004 892 999

Tree=0
num_leaves=7
num_cat=0
split_feature=42 44 43 43 68 55
split_gain=112.906 86.2129 18.665 7.65643 2.52732 2.42776
threshold=0.23647930473089221 -0.07539681717753409 0.27731232345104223 0.13313263654708865 -0.13075692206621167 0.11611664295196535
decision_type=2 2 2 2 2 2
left_child=1 3 4 -1 -3 -2
right_child=5 2 -4 -5 -6 -7
leaf_value=-0.011764705882352943 -0.059654178674351563 0.035294117647058851 -0.0058823529411764714 -0.059259259259259262 0.059786476868327387 -0.037226277372262771
leaf_weight=4.9999999999999991 17.250000000000004 4.9999999999999956 4.9999999999999991 7.9999999999999991 28.000000000000004 6.7499999999999991
leaf_count=20 69 20 20 32 112 27
internal_value=0 0.0252446 0.0480315 -0.0412214 0.0561934 -0.053527
internal_weight=75 51 38 13 33 24
internal_count=300 204 152 52 132 96
is_linear=0
shrinkage=0.03


Tree=1
num_leaves=7
num_cat=0
split_feature=42 44 43 84 68 55
split_gain=106.347 81.2173 17.5928 7.47427 2.38245 2.29032
threshold=0.23647930473089221 -0.07539681717753409 0.27731232345104223 -0.011473430320620535 -0.13075692206621167 0.11611664295196535
decision_type=2 2 2 2 2 2
left_child=1 3 4 -1 -3 -2
right_child=5 2 -4 -5 -6 -7
leaf_value=-0.010933485764472946 -0.057926603240218602 0.034266622910200578 -0.0057093916489674244 -0.057851265254413295 0.058051456291797227 -0.036138253019421619
leaf_weight=4.9983520358800888 17.234662637114528 4.9984431266784624 4.999956786632537 7.9944557696580869 27.974994421005253 6.747662052512168
leaf_count=20 69 20 20 32 112 27
internal_value=-3.12927e-06 0.0245048 0.0466305 -0.0400233 0.0545604 -0.0519718
internal_weight=74.9485 50.9662 37.9734 12.9928 32.9734 23.9823
internal_count=300 204 152 52 132 96
is_linear=0
shrinkage=0.03


Tree=2
num_leaves=7
num_cat=0
split_feature=42 44 43 84 68 55
split_gain=100.307 76.6092 16.6248 7.06911 2.26002 2.1743
threshold=0.23647930473089221 -0.07539681717753409 0.27731232345104223 -0.011473430320620535 -0.13075692206621167 0.11611664295196535
decision_type=2 2 2 2 2 2
left_child=1 3 4 -1 -3 -2
right_child=5 2 -4 -5 -6 -7
leaf_value=-0.010613866007430285 -0.05634429814554337 0.033288484998034239 -0.0055416040247953397 -0.056263657669727588 0.056462849991782332 -0.035104951085480444
leaf_weight=4.9974276274442673 17.190515667200092 4.9939563870429948 4.9998319149017325 7.9765008389949781 27.903023481369022 6.7409254163503638
leaf_count=20 69 20 20 32 112 27
internal_value=-6.00594e-06 0.0238161 0.0453312 -0.0388955 0.0530564 -0.0505326
internal_weight=74.8022 50.8707 37.8968 12.9739 32.897 23.9314
internal_count=300 204 152 52 132 96
is_linear=0
shrinkage=0.03


Tree=3
num_leaves=7
num_cat=0
split_feature=42 44 43 50 68 55
split_gain=94.7301 72.544 22.9784 3.96957 2.20981 2.076
threshold=0.23647930473089221 -0.09221568331122397 0.30362138152122503 0.048858951777219779 -0.13075692206621167 0.11611664295196535
decision_type=2 2 2 2 2 2
left_child=1 3 4 -1 -3 -2
right_child=5 2 -4 -5 -6 -7
leaf_value=-0.055757371288802392 -0.054890176054321477 0.032355542898143991 -0.016698211392411701 -0.020176247714119265 0.055202880657563937 -0.03412154479347123
leaf_weight=6.9686172008514387 17.120202541351322 4.9868008494377092 4.995931237936019 4.9778584241867065 28.788230985403064 6.7301843762397757
leaf_count=28 69 20 20 20 116 27
internal_value=-8.69452e-06 0.0231737 0.0430709 -0.041222 0.051935 -0.0491965
internal_weight=74.5678 50.7174 38.771 11.9465 33.775 23.8504
internal_count=300 204 156 48 136 96
is_linear=0
shrinkage=0.03


Tree=4
num_leaves=7
num_cat=0
split_feature=42 44 43 61 68 42
split_gain=89.5617 68.5785 21.7764 3.849 2.11716 2.02058
threshold=0.23647930473089221 -0.09221568331122397 0.30362138152122503 0.054727448150515563 -0.13075692206621167 0.31722204387187963
decision_type=2 2 2 2 2 2
left_child=1 3 4 -1 -3 -2
right_child=5 2 -4 -5 -6 -7
leaf_value=-0.05446298942875881 -0.034404482855568679 0.031464098698045631 -0.016212606136393127 -0.019396318629289373 0.05384370156608409 -0.054159105972422322
leaf_weight=6.9445294886827451 7.6652577072382 4.9772191047668413 4.9942236542701712 4.9663612842559814 28.63426831364632 16.076716020703316
leaf_count=28 31 20 20 20 116 65
internal_value=-1.19986e-05 0.0225694 0.0419659 -0.0401248 0.0506329 -0.0479522
internal_weight=74.2586 50.5166 38.6057 11.9109 33.6115 23.742
internal_count=300 204 156 48 136 96
is_linear=0
shrinkage=0.03


Tree=5
num_leaves=7
num_cat=0
split_feature=42 44 43 84 90 84
split_gain=84.8073 62.6368 19.1236 5.05955 4.89904 0.424884
threshold=0.27434256672859197 -0.09221568331122397 0.30362138152122503 -1.0000000180025095e-35 0.089644569903612151 -0.075667995959520326
decision_type=2 2 2 2 2 2
left_child=1 3 4 -1 -3 -2
right_child=5 2 -4 -5 -6 -7
leaf_value=-0.01364814377606683 -0.040144154838225296 0.052219442876982228 -0.015743055624391999 -0.052793341298064046 0.023065521560451118 -0.05297127959922103
leaf_weight=4.9722258895635605 4.9148135036230114 28.252752929925919 4.991901993751525 7.6330555081367475 6.6376622021198264 16.477491155266762
leaf_count=20 20 115 20 31 27 67
internal_value=-1.50868e-05 0.0205054 0.0389125 -0.0375812 0.0467549 -0.0502248
internal_weight=73.8799 52.4876 39.8823 12.6053 34.8904 21.3923
internal_count=300 213 162 51 142 87
is_linear=0
shrinkage=0.03


Tree=6
num_leaves=7
num_cat=0
split_feature=42 44 43 43 55 68
split_gain=80.5263 61.7125 13.372 6.60102 2.0236 2.0151
threshold=0.23647930473089221 -0.07539681717753409 0.27731232345104223 0.13313263654708865 0.11611664295196535 -0.13075692206621167
decision_type=2 2 2 2 2 2
left_child=1 3 5 -1 -2 -3
right_child=4 2 -4 -5 -6 -7
leaf_value=-0.0077933575620033153 -0.051413168874469263 0.029454075724149462 -0.0045714233493086096 -0.05208441771637045 -0.030912117360270538 0.051361843911254708
leaf_weight=4.959851920604704 16.805566474795345 4.9449903368949846 4.9925466477870932 7.84270378947258 6.6602871567010871 27.246672451496128
leaf_count=20 69 20 20 32 27 112
internal_value=-1.87214e-05 0.021498 0.0410332 -0.035119 -0.0457502 0.0480982
internal_weight=73.4526 49.9868 37.1842 12.8026 23.4659 32.1917
internal_count=300 204 152 52 96 132
is_linear=0
shrinkage=0.03


Tree=7
num_leaves=7
num_cat=0
split_feature=42 44 43 84 90 84
split_gain=76.4936 56.3055 17.4275 4.78433 4.65507 0.424238
threshold=0.27434256672859197 -0.09221568331122397 0.30362138152122503 -1.0000000180025095e-35 0.089644569903612151 -0.075667995959520326
decision_type=2 2 2 2 2 2
left_child=1 3 4 -1 -3 -2
right_child=5 2 -4 -5 -6 -7
leaf_value=-0.012514217727010984 -0.03810830451382255 0.050098231986351244 -0.015027917640116607 -0.050703506488200267 0.021556546705189132 -0.050798809007791629
leaf_weight=4.953385978937149 4.8506062030792263 27.829754292964935 4.9851596653461447 7.5266674011945707 6.5754246711730948 16.2315933406353
leaf_count=20 20 115 20 31 27 67
internal_value=-2.06919e-05 0.0195645 0.037141 -0.035766 0.0447217 -0.0480727
internal_weight=72.9526 51.8704 39.3903 12.4801 34.4052 21.0822
internal_count=300 213 162 51 142 87
is_linear=0
shrinkage=0.03


Tree=8
num_leaves=7
num_cat=0
split_feature=42 44 43 84 45 42
split_gain=72.7643 53.9553 11.9303 8.12927 1.51944 1.25024
threshold=0.25471086800098425 -0.07539681717753409 0.17046450823545459 -0.016630064696073529 0.12320867553353311 0.13209066540002826
decision_type=2 2 2 2 2 2
left_child=1 3 5 -1 -2 -3
right_child=4 2 -4 -5 -6 -7
leaf_value=-0.0014687923498576461 -0.049911731301836022 0.04980727082013383 0.003794130482975154 -0.050067804693525522 -0.031401025504339694 0.031693395175634395
leaf_weight=4.9518778771162024 16.09566052258015 24.936611101031307 7.1491932570934287 8.2006051391363126 6.278519168496131 4.8033347576856604
leaf_count=20 67 104 29 34 26 20
internal_value=-2.40741e-05 0.0200811 0.0386576 -0.0319195 -0.0448802 0.0469977
internal_weight=72.4158 50.0416 36.8891 13.1525 22.3742 29.7399
internal_count=300 207 153 54 93 124
is_linear=0
shrinkage=0.03


Tree=9
num_leaves=7
num_cat=0
split_feature=42 44 43 90 43 84
split_gain=69.1449 50.8102 16.0821 4.50873 4.42328 0.425174
threshold=0.27434256672859197 -0.09221568331122397 0.30362138152122503 0.089644569903612151 0.13313263654708865 -0.075667995959520326
decision_type=2 2 2 2 2 2
left_child=1 4 3 -3 -1 -2
right_child=5 2 -4 -5 -6 -7
leaf_value=-0.01260308937336569 -0.036261785923233092 0.048281735169623911 -0.014561895828978561 0.02005947143998086 -0.049256704586296648 -0.048875309964978318
leaf_weight=5.1487314105033857 4.7744258642196682 27.326923042535782 4.978407382965087 6.5084415823221198 7.177241176366806 15.92648686468601
leaf_count=21 20 115 20 27 30 67
internal_value=-2.541e-05 0.0187009 0.0355357 0.0429281 -0.0341706 -0.0461545
internal_weight=71.8407 51.1397 38.8138 33.8354 12.326 20.7009
internal_count=300 213 162 142 51 87
is_linear=0
shrinkage=0.03


Tree=10
num_leaves=7
num_cat=0
split_feature=42 44 43 84 45 47
split_gain=65.9194 48.719 11.0572 7.70249 1.46707 1.23611
threshold=0.25471086800098425 -0.07539681717753409 0.17046450823545459 -0.016630064696073529 0.12320867553353311 0.13866996765136722
decision_type=2 2 2 2 2 2
left_child=1 3 5 -1 -2 -3
right_child=4 2 -4 -5 -6 -7
leaf_value=-0.00086478607387509147 -0.048139473115622458 0.048042816198983422 0.0034941229796374229 -0.048373539131836271 -0.02985623695291895 0.02997665714557235
leaf_weight=4.9343673884868613 15.767985865473749 24.426526620984081 7.1231065988540641 8.05077415704727 6.1895883679389945 4.7267806828021994
leaf_count=20 67 104 29 34 26 20
internal_value=-2.86428e-05 0.019238 0.0370639 -0.0304647 -0.0431444 0.0452261
internal_weight=71.2191 49.2616 36.2764 12.9851 21.9576 29.1533
internal_count=300 207 153 54 93 124
is_linear=0
shrinkage=0.03


Tree=11
num_leaves=7
num_cat=0
split_feature=42 44 43 90 8 100
split_gain=62.6923 45.9632 14.8955 4.39035 4.35346 0.454881
threshold=0.27434256672859197 -0.09221568331122397 0.30362138152122503 0.089644569903612151 1.0000000180025095e-35 -0.05208733677864074
decision_type=2 2 2 2 2 2
left_child=1 4 3 -3 -1 -2
right_child=5 2 -4 -5 -6 -7
leaf_value=-0.013285150053769167 -0.034652609094645813 0.046682038131612542 -0.014110094581543024 0.018677984232852021 -0.04944968116169042 -0.047328823784844806
leaf_weight=5.7079931646585447 4.8873259127140072 26.7481649518013 4.9706724584102622 6.4347855895757666 6.4435311704874039 15.374448895454405
leaf_count=24 21 115 20 27 27 66
internal_value=-2.98711e-05 0.0179168 0.034084 0.041324 -0.032709 -0.0444564
internal_weight=70.5669 50.3051 38.1536 33.183 12.1515 20.2618
internal_count=300 213 162 142 51 87
is_linear=0
shrinkage=0.03


Tree=12
num_leaves=8
num_cat=0
split_feature=42 44 42 43 45 62 59
split_gain=59.878 44.1437 14.1633 6.81376 1.43651 0.791275 0.433916
threshold=0.25471086800098425 -0.029146257787942883 -0.28983367979526514 0.19245424866676333 0.12320867553353311 -0.022281283512711521 0.10266840085387231
decision_type=2 2 2 2 2 2 2
left_child=1 2 -1 6 -2 -4 -3
right_child=4 3 5 -5 -6 -7 -8
leaf_value=0.019286212149232495 -0.046593861969514157 0.04648438954448212 -0.031964609689753759 0.0092650915168012767 -0.028394053609388799 -0.05021445625542869 0.03420180309693889
leaf_weight=4.7775814533233634 15.400814041495325 22.246054336428646 4.7160201519727698 6.1190675199031821 6.0890329629182807 5.9192209243774405 4.6198797076940528
leaf_count=20 67 97 20 25 26 25 20
internal_value=-3.29664e-05 0.0184682 -0.0233435 0.038017 -0.0415924 -0.042495 0.0445069
internal_weight=69.8877 48.3978 15.4128 32.985 21.4898 10.6352 26.8659
internal_count=300 207 65 142 93 45 117
is_linear=0
shrinkage=0.03


Tree=13
num_leaves=7
num_cat=0
split_feature=42 44 43 43 90 45
split_gain=56.9994 42.0465 14.8351 4.53638 2.60014 1.40784
threshold=0.25471086800098425 -0.09221568331122397 0.30362138152122503 0.13313263654708865 0.089644569903612151 0.12320867553353311
decision_type=2 2 2 2 2 2
left_child=1 3 4 -1 -3 -2
right_child=5 2 -4 -5 -6 -7
leaf_value=-0.0084959876911950179 -0.045828266728914366 0.045904586242785213 -0.013861483846329218 -0.046468733656103989 0.023119327955750703 -0.027749321063731871
leaf_weight=4.8376497179269773 15.193158939480783 25.364844039082531 4.9667527526617041 6.9138483852148056 5.8779586255550376 6.0465619564056388
leaf_count=20 67 112 20 30 25 26
internal_value=-3.4198e-05 0.0180822 0.0340662 -0.0310404 0.0417053 -0.0408357
internal_weight=69.2008 47.9611 36.2096 11.7515 31.2428 21.2397
internal_count=300 207 157 50 137 93
is_linear=0
shrinkage=0.03


Tree=14
num_leaves=8
num_cat=0
split_feature=42 44 43 47 84 87 100
split_gain=54.4426 39.7033 13.3856 4.24441 4.23232 0.489422 0.483891
threshold=0.27434256672859197 -0.09221568331122397 0.30362138152122503 0.16299919784069064 -1.0000000180025095e-35 -0.098117884248495088 -0.05208733677864074
decision_type=2 2 2 2 2 2 2
left_child=1 4 3 5 -1 -3 -2
right_child=6 2 -4 -5 -6 -7 -8
leaf_value=-0.0088729033037883379 -0.032235623970214386 0.032857413390132359 -0.01346660704487492 0.01240819653387561 -0.045411518075561139 0.045700898641748505 -0.045213102245619169
leaf_weight=4.8570875376462936 4.7171683460474041 4.4867947548627845 4.9620237648487082 4.6501412093639365 7.023262605071066 22.938634127378467 14.809675350785254
leaf_count=20 21 20 20 20 31 102 66
internal_value=-3.63286e-05 0.0168695 0.0321606 0.039239 -0.0306721 0.0437267 -0.0422583
internal_weight=68.4448 48.9179 37.0376 32.0756 11.8804 27.4254 19.5268
internal_count=300 213 162 142 51 122 87
is_linear=0
shrinkage=0.03


Tree=15
num_leaves=8
num_cat=0
split_feature=42 44 43 90 8 44 85
split_gain=51.9278 37.7826 12.811 4.22518 4.20638 0.493443 0.0112653
threshold=0.27434256672859197 -0.09221568331122397 0.30362138152122503 0.089644569903612151 1.0000000180025095e-35 0.077713545411825194 0.089812912046909346
decision_type=2 2 2 2 2 2 2
left_child=1 4 3 6 -1 -2 -3
right_child=5 2 -4 -5 -6 -7 -8
leaf_value=-0.01077733229728709 -0.044479009933446133 0.045109812081173685 -0.013083816239755264 0.016145206867920259 -0.046811206805705538 -0.031201064307525426 0.037705318429557495
leaf_weight=5.5575706958770734 14.793920591473581 21.031215876340873 4.9569833427667609 6.2698845267295829 6.216765433549881 4.4655883014202109 4.3852097988128653
leaf_count=24 67 95 20 27 27 20 20
internal_value=-3.78754e-05 0.0165373 0.0315437 0.0385444 -0.030037 -0.0415774 0.0439851
internal_weight=67.6771 48.4176 36.6433 31.6863 11.7743 19.2595 25.4164
internal_count=300 213 162 142 51 87 115
is_linear=0
shrinkage=0.03


Tree=16
num_leaves=7
num_cat=0
split_feature=42 44 43 48 47 45
split_gain=49.6805 37.1483 13.0306 6.03576 2.05122 1.39757
threshold=0.25471086800098425 -0.029146257787942883 0.089738607406616225 0.15642163157463077 0.14371442794799807 0.12320867553353311
decision_type=2 2 2 2 2 2
left_child=1 2 -1 4 -3 -2
right_child=5 3 -4 -5 -6 -7
leaf_value=0.0088200088869266544 -0.04398524488954144 0.045118601199708605 -0.047145409243857385 0.005366237883295653 0.022254985668423689 -0.025767272824772626
leaf_weight=6.8170195072889319 14.569808781147005 21.886738955974586 8.1346493512392026 5.0494259148836127 4.5761438310146323 5.870807781815528
leaf_count=29 67 100 36 22 20 26
internal_value=-3.89949e-05 0.0171054 -0.0217396 0.0355466 0.0412635 -0.0389037
internal_weight=66.9046 46.464 14.9517 31.5123 26.4629 20.4406
internal_count=300 207 65 142 120 93
is_linear=0
shrinkage=0.03


Tree=17
num_leaves=8
num_cat=0
split_feature=42 44 43 42 84 84 81
split_gain=47.4023 34.4804 12.1089 4.15065 4.13773 0.512528 0.0671916
threshold=0.27434256672859197 -0.09221568331122397 0.30362138152122503 0.13209066540002826 -1.0000000180025095e-35 -0.075667995959520326 0.10500038415193559
decision_type=2 2 2 2 2 2 2
left_child=1 4 3 6 -1 -2 -3
right_child=5 2 -4 -5 -6 -7 -8
leaf_value=-0.0073810247353049436 -0.029787863367936814 0.043944762335098426 -0.012919842318358972 0.01432241361788821 -0.043853698829168966 -0.043317022934661484 0.035758092875975062
leaf_weight=4.8009303510189056 4.3530644774436977 20.792113035917289 4.948950767517089 5.8506204783916465 6.7781007140874845 14.361721977591513 4.2666778415441504
leaf_count=20 20 96 20 26 31 67 20
internal_value=-4.00206e-05 0.0159124 0.0304307 0.0373909 -0.028924 -0.0403452 0.0426985
internal_weight=66.1522 47.4374 35.8584 30.9094 11.579 18.7148 25.0588
internal_count=300 213 162 142 51 87 116
is_linear=0
shrinkage=0.03


Tree=18
num_leaves=8
num_cat=0
split_feature=42 44 43 84 47 92 102
split_gain=45.3248 33.7069 10.0072 5.30203 2.95306 1.26559 0.0546612
threshold=0.25902089476585394 -0.085528291761875139 0.2843694686889649 -0.011473430320620535 0.1529025807976723 0.047474643215537078 0.062668357044458403
decision_type=2 2 2 2 2 2 2
left_child=1 3 4 -1 6 -2 -3
right_child=5 2 -4 -5 -6 -7 -8
leaf_value=-0.0027208733567931358 -0.042959153630325979 0.04321695850043232 -0.0081652639042525555 -0.043436528580969164 0.01569202330588083 -0.023559930658468613 0.035264878516729554
leaf_weight=4.8064384758472443 14.821334645152094 20.348885804414756 4.944866567850112 7.1289866864681226 4.7387700080871573 4.3416651338338843 4.2056181579828253
leaf_count=20 70 96 20 33 21 20 20
internal_value=-4.11381e-05 0.0160558 0.0311698 -0.027199 0.037815 -0.0387091 0.0420035
internal_weight=65.3366 46.1736 34.2381 11.9354 29.2933 19.163 24.5545
internal_count=300 210 157 53 137 90 116
is_linear=0
shrinkage=0.03


Tree=19
num_leaves=8
num_cat=0
split_feature=42 44 42 48 47 45 65
split_gain=43.3146 32.733 12.2935 5.6923 2.02118 1.41119 0.777232
threshold=0.25471086800098425 -0.029146257787942883 -0.28983367979526514 0.15642163157463077 0.14371442794799807 0.12320867553353311 -0.019310378469526764
decision_type=2 2 2 2 2 2 2
left_child=1 2 -1 4 -3 -2 -4
right_child=5 3 6 -5 -6 -7 -8
leaf_value=0.019695462996966662 -0.042394728618634706 0.043563086726715633 -0.028601420053237906 0.0044122554138214419 0.02063449154942542 -0.023855537904555357 -0.047014436841379945
leaf_weight=4.5834793895483008 13.89846207201481 20.914347633719451 4.4138726890087119 4.9654536396265021 4.475691393017768 5.6882154345512381 5.568414866924285
leaf_count=20 67 100 20 22 20 26 25
internal_value=-4.15152e-05 0.0161892 -0.0206847 0.0338926 0.0396181 -0.0371592 -0.0392372
internal_weight=64.5079 44.9213 14.5658 30.3555 25.39 19.5867 9.98229
internal_count=300 207 65 142 120 93 45
is_linear=0
shrinkage=0.03


Tree=20
num_leaves=8
num_cat=0
split_feature=42 44 43 90 8 100 51
split_gain=41.4821 29.9556 11.1747 4.23984 4.1507 0.553111 0.0359191
threshold=0.27434256672859197 -0.09221568331122397 0.30362138152122503 0.089644569903612151 1.0000000180025095e-35 -0.05208733677864074 -0.12461514398455618
decision_type=2 2 2 2 2 2 2
left_child=1 4 3 6 -1 -2 -3
right_child=5 2 -4 -5 -6 -7 -8
leaf_value=-0.0079061767805430772 -0.027990574653149972 0.034985147605586339 -0.012692665631017922 0.013006575460799313 -0.044438049609031173 -0.041893521796526965 0.04268053639582195
leaf_weight=5.3427647948265058 4.3339784443378475 4.0725494325161007 4.9402153193950644 5.9996859133243552 5.9025508910417557 13.532096177339552 19.601691171526912
leaf_count=24 21 20 20 27 27 66 95
internal_value=-4.32582e-05 0.0150664 0.0288706 0.0358096 -0.0273041 -0.0386955 0.0415095
internal_weight=63.7255 45.8595 34.6141 29.6739 11.2453 17.8661 23.6742
internal_count=300 213 162 142 51 87 115
is_linear=0
shrinkage=0.03


Tree=21
num_leaves=7
num_cat=0
split_feature=42 44 43 48 47 45
split_gain=39.6736 30.0308 11.893 5.48549 2.02032 1.41265
threshold=0.25471086800098425 -0.029146257787942883 0.089738607406616225 0.15642163157463077 0.14371442794799807 0.12320867553353311
decision_type=2 2 2 2 2 2
left_child=1 2 -1 4 -3 -2
right_child=5 3 -4 -5 -6 -7
leaf_value=0.0095122186182818817 -0.041477526346983165 0.042648948194402986 -0.045024734121850249 0.0038352519095882971 0.019553045716014936 -0.022748995203023432
leaf_weight=6.6243425309658033 13.439909145236017 20.248978078365333 7.703938364982605 4.9138852059841147 4.4031710326671591 5.5672980695962897
leaf_count=29 67 100 36 22 20 26
internal_value=-4.43065e-05 0.0156324 -0.0199197 0.0328707 0.0386194 -0.0361396
internal_weight=62.9015 43.8943 14.3283 29.566 24.6521 19.0072
internal_count=300 207 65 142 120 93
is_linear=0
shrinkage=0.03


Tree=22
num_leaves=8
num_cat=0
split_feature=42 44 43 48 57 45 44
split_gain=38.0217 27.4287 14.3975 5.01493 3.3602 0.615721 0.582176
threshold=0.27434256672859197 -0.10336585342884062 0.31655474007129675 -0.16069808602333066 -0.025983107276260849 -0.26790799200534815 0.077713545411825194
decision_type=2 2 2 2 2 2 2
left_child=1 4 3 -3 -1 -5 -2
right_child=6 2 -4 5 -6 -7 -8
leaf_value=-0.0088545677555350224 -0.040932202960125313 0.0068789308980955269 -0.021472468220081753 0.029168710324056671 -0.043225675936538373 0.042854319945743319 -0.026429844047143693
leaf_weight=4.6877098381519318 13.242662355303766 4.8196278214454642 4.6216846704483023 4.6105722784996059 5.7134002298116666 20.358735188841823 4.0466799587011328
leaf_count=21 67 23 19 23 27 100 20
internal_value=-4.53347e-05 0.0145379 0.0274293 0.0350628 -0.0279667 0.0404537 -0.0377093
internal_weight=62.1011 44.8117 34.4106 29.7889 10.4011 24.9693 17.2893
internal_count=300 213 165 146 48 123 87
is_linear=0
shrinkage=0.03


Tree=23
num_leaves=9
num_cat=0
split_feature=42 44 43 53 44 89 54 49
split_gain=36.4101 26.5661 13.5487 4.19724 3.80404 0.821493 0.519198 0.0440185
threshold=0.20119031518697741 -0.029146257787942883 0.089738607406616225 0.13757424056530002 0.085330896079540267 -0.041383266448974602 -0.068732120096683488 -0.10509069263935088
decision_type=2 2 2 2 2 2 2 2
left_child=1 2 -1 5 6 -3 -2 -7
right_child=4 3 -4 -5 -6 7 -8 -9
leaf_value=0.018476809471913117 -0.027575216413716928 0.02954797721686498 -0.044120502227944065 0.0069053876288623682 -0.0090940534143847049 0.048926384698045972 -0.041626398432958941 0.040545005022712778
leaf_weight=5.1940203458070737 4.0456630587577882 6.8186442106962231 7.5014169365167618 4.376829430460929 5.3918209820985785 4.3516749739646938 12.295076936483381 11.288149431347845
leaf_count=23 20 34 36 21 26 20 62 58
internal_value=-4.72837e-05 0.0170908 -0.0185661 0.033966 -0.0311563 0.0391857 -0.0383365 0.0431731
internal_weight=61.2633 39.5307 12.6954 26.8353 21.7326 22.4585 16.3407 15.6398
internal_count=300 192 59 133 108 112 82 78
is_linear=0
shrinkage=0.03


Tree=24
num_leaves=8
num_cat=0
split_feature=42 44 43 48 57 42 56
split_gain=35.0156 25.0828 13.6751 4.84354 3.27036 0.59561 0.58787
threshold=0.27434256672859197 -0.10336585342884062 0.31655474007129675 -0.16069808602333066 -0.025983107276260849 0.31722204387187963 0.1023957207798958
decision_type=2 2 2 2 2 2 2
left_child=1 4 3 -3 -1 -2 -5
right_child=5 2 -4 6 -6 -7 -8
leaf_value=-0.0081155977471114409 -0.025857365625065357 0.0063384684084516561 -0.021131758720945623 0.042044514626208583 -0.042334539643577571 -0.040297691137597888 0.028695700558378976
leaf_weight=4.6331064105033875 4.2193273156881359 4.754511982202529 4.5999408066272727 19.546339660882957 5.54877722263336 12.511583745479582 4.6811770200729361
leaf_count=21 22 23 19 99 27 65 24
internal_value=-4.59166e-05 0.014069 0.0265623 0.0341788 -0.0269941 -0.0368313 0.0395938
internal_weight=60.4948 43.7639 33.582 28.982 10.1819 16.7309 24.2275
internal_count=300 213 165 146 48 87 123
is_linear=0
shrinkage=0.03


Tree=25
num_leaves=8
num_cat=0
split_feature=42 44 43 47 8 100 81
split_gain=33.5217 23.9309 12.3667 4.09824 3.95056 0.612049 0.608651
threshold=0.27434256672859197 -0.09221568331122397 0.31655474007129675 0.16299919784069064 1.0000000180025095e-35 -0.05208733677864074 0.11543354764580728
decision_type=2 2 2 2 2 2 2
left_child=1 4 3 6 -1 -2 -3
right_child=5 2 -4 -5 -6 -7 -8
leaf_value=-0.0058363907590196894 -0.024986010114474752 0.040939510322963078 -0.019779422672409893 0.0068193608601866632 -0.042291609236133981 -0.039835201925343282 0.026087053787715225
leaf_weight=5.1592231988906843 4.0106558203697231 20.157354012131698 4.4033930003643027 4.3091285675764075 5.5409224033355713 12.425680503249167 3.6471422165632239
leaf_count=24 21 105 18 20 27 66 19
internal_value=-4.78547e-05 0.0138239 0.0266141 0.0339249 -0.024931 -0.0363848 0.0387826
internal_weight=59.6535 43.2172 32.517 28.1136 10.7001 16.4363 23.8045
internal_count=300 213 162 144 51 87 124
is_linear=0
shrinkage=0.03


Tree=26
num_leaves=9
num_cat=0
split_feature=42 43 46 44 61 82 52 44
split_gain=32.2162 25.9137 18.1432 6.30032 2.30123 2.53734 1.51778 0.0353254
threshold=0.16452504694461825 0.17046450823545459 0.055351959541440017 0.099124167114496245 -0.049690769985318177 -0.0093402210623025877 0.040273491293191917 1.0000000180025095e-35
decision_type=2 2 2 2 2 2 2 2
left_child=1 4 -3 6 5 -1 -2 -6
right_child=3 2 -4 -5 7 -7 -8 -9
leaf_value=0.039075568596438098 -0.040915153148548399 0.028256991541058932 -0.04631026255193707 0.0025122611413629595 0.047548933052386964 0.0047195942740479845 -0.018999773669428524 0.039581838947141609
leaf_weight=3.7242465913295746 13.918079808354383 4.6668366342782956 7.5880273282527924 4.766263782978057 4.3885481655597713 3.979178503155711 3.9068767726421347 11.869059830904005
leaf_count=20 73 22 36 24 21 20 20 64
internal_value=-4.96486e-05 0.0174726 -0.0179151 -0.0280926 0.0355708 0.021617 -0.0362445 0.04201
internal_weight=58.8071 36.2159 12.2549 22.5912 23.961 7.70343 17.825 16.2576
internal_count=300 183 58 117 125 40 93 85
is_linear=0
shrinkage=0.03


Tree=27
num_leaves=8
num_cat=0
split_feature=42 44 43 47 57 95 102
split_gain=30.9165 22.1905 12.3741 4.81471 3.11146 1.01701 0.643295
threshold=0.27434256672859197 -0.10336585342884062 0.32761134207248693 0.16299919784069064 -0.025983107276260849 -0.071430880576372133 -0.051474470645189278
decision_type=2 2 2 2 2 2 2
left_child=1 4 3 5 -1 -3 -2
right_child=6 2 -4 -5 -6 -7 -8
leaf_value=-0.0073061536472419008 -0.023822166855549998 0.022579796162705584 -0.022963749162388643 0.003900192963507596 -0.041121557797549682 0.040649789837355545 -0.039166417824792348
leaf_weight=4.5604866147041321 3.8778698146343222 3.7668801397085181 4.0784283727407447 4.4841736555099478 5.3224199116229993 19.91900438070298 11.999906450510023
leaf_count=21 21 20 17 21 27 107 66
internal_value=-4.63195e-05 0.0134019 0.0254419 0.0325065 -0.0257469 0.037883 -0.0355914
internal_weight=58.0092 42.1314 32.2485 28.1701 9.88291 23.6859 15.8778
internal_count=300 213 165 148 48 127 87
is_linear=0
shrinkage=0.03


Tree=28
num_leaves=9
num_cat=0
split_feature=42 43 46 44 61 43 52 44
split_gain=29.6469 24.077 17.1258 5.91398 2.2449 2.42626 1.516 0.0240642
threshold=0.16452504694461825 0.17046450823545459 -1.0000000180025095e-35 0.099124167114496245 -0.049690769985318177 -0.13429783284664151 0.040273491293191917 1.0000000180025095e-35
decision_type=2 2 2 2 2 2 2 2
left_child=1 4 -3 6 5 -1 -2 -6
right_child=3 2 -4 -5 7 -7 -8 -9
leaf_value=0.038333790045737032 -0.040204601305075457 0.027632860786943429 -0.045393814777997379 0.0024585866083473326 0.046644633026307787 0.004299740847987555 -0.018058179770951931 0.038883843134168011
leaf_weight=3.5860258340835571 13.429690584540372 4.6137259602546692 7.4087534099817258 4.6976004987955085 4.2748559415340432 3.9171769618988046 3.8151013255119315 11.422359466552733
leaf_count=20 73 22 36 24 21 20 20 64
internal_value=-4.86857e-05 0.0169882 -0.0173725 -0.02735 0.0347921 0.020856 -0.0354375 0.0412792
internal_weight=57.1653 35.2229 12.0225 21.9424 23.2004 7.5032 17.2448 15.6972
internal_count=300 183 58 117 125 40 93 85
is_linear=0
shrinkage=0.03


Tree=29
num_leaves=8
num_cat=0
split_feature=42 44 43 90 8 104 95
split_gain=28.5451 20.5554 13.1971 4.72032 3.00225 0.668669 0.341551
threshold=0.27434256672859197 -0.10336585342884062 0.33597236871719366 0.089644569903612151 1.0000000180025095e-35 0.047435246407985694 -0.062841784209012971
decision_type=2 2 2 2 2 2 2
left_child=1 4 3 6 -1 -2 -3
right_child=5 2 -4 -5 -6 -7 -8
leaf_value=-0.0077102266214257769 -0.038625033057861941 0.028213184597140072 -0.027158441710185662 0.0081394293300286365 -0.04117455619833256 -0.02298940108085647 0.040368580220740191
leaf_weight=4.7372036874294263 11.453676968812941 3.6076667606830624 3.7911398857831946 5.9385240226984015 4.9399100244045258 3.8709222078323355 18.026031360030181
leaf_count=23 65 20 16 29 25 22 100
internal_value=-4.53766e-05 0.0130039 0.0247844 0.0319988 -0.0250393 -0.0348502 0.0384807
internal_weight=56.3651 41.0405 31.3634 27.5722 9.67711 15.3246 21.6337
internal_count=300 213 165 149 48 87 120
is_linear=0
shrinkage=0.03


Tree=30
num_leaves=9
num_cat=0
split_feature=42 44 42 46 43 45 62 43
split_gain=27.3666 21.5426 9.70601 4.85796 14.0655 1.55379 0.732229 0.061532
threshold=0.25471086800098425 -0.029146257787942883 -0.28983367979526514 -1.0000000180025095e-35 -0.23515231162309644 0.12320867553353311 -0.022281283512711521 0.13313263654708865
decision_type=2 2 2 2 2 2 2 2
left_child=1 2 -1 7 -5 -2 -4 -3
right_child=5 3 6 4 -6 -7 -8 -9
leaf_value=0.019442617480678485 -0.03848265339261607 0.038383466892098185 -0.024521617081896419 0.037906390292420489 -0.030567754071101138 -0.017803389824930821 -0.043246550747525703 0.047033896345231314
leaf_weight=4.2182822972536078 11.495792031288149 9.8774342238903028 3.8856782466173163 7.9788326770067215 3.9659427106380463 4.9424989819526663 4.9782662987709037 4.1912986934185037
leaf_count=20 67 57 20 47 18 26 25 20
internal_value=-4.75756e-05 0.0136077 -0.0177052 0.0293625 0.0151064 -0.0324103 -0.0354033 0.0412743
internal_weight=55.534 39.0957 13.0822 26.0135 11.9448 16.4383 8.86394 14.0687
internal_count=300 207 65 142 65 93 45 77
is_linear=0
shrinkage=0.03


Tree=31
num_leaves=10
num_cat=0
split_feature=42 8 43 51 47 42 50 45 42
split_gain=26.2952 19.0193 13.9329 4.12685 4.02567 0.721996 0.694214 0.0484625 0.0205121
threshold=0.27434256672859197 1.0000000180025095e-35 0.33597236871719366 0.11178680136799814 -1.0000000180025095e-35 0.15632095932960513 0.07873192057013513 -0.24277379363775251 -0.21683450788259503
decision_type=2 2 2 2 2 2 2 2 2
left_child=1 2 3 5 -3 7 -2 -1 -9
right_child=6 4 -4 -5 -6 -7 -8 8 -10
leaf_value=0.03290852950274805 -0.037870612836887113 -0.0014996607673659322 -0.025714940570480585 0.0033443031073181529 -0.040985058236060017 0.024670798762535289 -0.021444669253580136 0.045801726319892461 0.038384706740294997
leaf_weight=3.4980485439300599 11.241824209690092 4.0186897367238998 4.2647982835769644 3.8142032027244559 5.4357685148715955 4.1039104759693137 3.520372509956359 5.1320770680904451 9.6708852648735029
leaf_count=21 67 22 20 20 27 21 20 26 56
internal_value=-4.66995e-05 0.0126029 0.0241192 0.0322922 -0.0243928 0.0371835 -0.0341241 0.0398401 0.0412462
internal_weight=54.7006 39.9384 30.4839 26.2191 9.45446 22.4049 14.7622 18.301 14.803
internal_count=300 213 164 144 49 124 87 103 82
is_linear=0
shrinkage=0.03


Tree=32
num_leaves=9
num_cat=0
split_feature=42 43 46 44 61 44 52 44
split_gain=25.2417 21.2891 15.4414 5.29377 2.04079 2.23923 1.55402 0.000871756
threshold=0.16452504694461825 0.17046450823545459 -1.0000000180025095e-35 0.099124167114496245 -0.049690769985318177 0.056840494275093086 0.040273491293191917 1.0000000180025095e-35
decision_type=2 2 2 2 2 2 2 2
left_child=1 4 -3 6 5 -1 -2 -6
right_child=3 2 -4 -5 7 -7 -8 -9
leaf_value=0.0036997906509477806 -0.039046127889136466 0.026743256872645289 -0.043915686121124731 0.0026575156804466943 0.044957136372106223 0.037263295881681653 -0.016086782775870077 0.037660800634664364
leaf_weight=3.7379813790321359 12.51306645572186 4.4504949897527695 7.1053478866815549 4.5101477652788153 4.0715072005987176 3.3749521821737289 3.6180534958839408 10.551068201661108
leaf_count=20 73 22 36 24 21 20 20 64
internal_value=-4.49627e-05 0.0161006 -0.0167069 -0.0260375 0.0335396 0.0199209 -0.0340274 0.039984
internal_weight=53.9326 33.2914 11.5558 20.6413 21.7355 7.11293 16.1311 14.6226
internal_count=300 183 58 117 125 40 93 85
is_linear=0
shrinkage=0.03


Tree=33
num_leaves=8
num_cat=0
split_feature=42 44 43 47 84 68 49
split_gain=24.3708 19.8687 12.256 4.79237 2.8706 1.01401 0.162626
threshold=0.29556223750114446 -0.10336585342884062 0.33597236871719366 0.16299919784069064 -0.011473430320620535 -0.12401617318391799 -0.034147189930081361
decision_type=2 2 2 2 2 2 2
left_child=1 4 3 5 -1 -3 -2
right_child=6 2 -4 -5 -6 -7 -8
leaf_value=-0.0061352200500259663 -0.027082964274219593 0.021143938988515076 -0.025570814066966086 0.0019963125724033527 -0.038682756009251043 0.039719491944638259 -0.037555836787804033
leaf_weight=4.2935762852430344 3.1504765152931222 3.5346287637949017 3.8618427067995063 4.2554627805948249 5.6826368421316129 18.338661178946502 10.022318780422207
leaf_count=20 20 20 17 21 32 109 61
internal_value=-4.16351e-05 0.0116298 0.0238151 0.0311841 -0.0248748 0.0368276 -0.035274
internal_weight=53.1396 39.9668 29.9906 26.1288 9.97621 21.8733 13.1728
internal_count=300 219 167 150 52 129 81
is_linear=0
shrinkage=0.03


Tree=34
num_leaves=10
num_cat=0
split_feature=42 44 42 99 43 46 62 49 45
split_gain=23.4014 19.0303 8.26472 6.37281 5.78516 1.50131 1.38134 0.163446 0.121058
threshold=0.29556223750114446 -0.029146257787942883 -0.28983367979526514 -0.034442229196429246 0.064142305403947844 0.18065991997718814 -0.042820580303668969 -0.034147189930081361 0.12320867553353311
decision_type=2 2 2 2 2 2 2 2 2
left_child=1 2 -1 4 -3 8 -4 -2 -5
right_child=7 3 6 5 -6 -7 -8 -9 -10
leaf_value=0.018273733209515756 -0.026724510747726537 0.027442943555720484 -0.017545367366277969 0.037251696112790077 -0.022278248987142906 0.017645971735145895 -0.041533404494825794 -0.037259186189282555 0.046219690595223649
leaf_weight=4.0875898748636237 3.0990745425224313 4.5264854133129102 3.7944207191467276 8.6576111018657738 3.7691152989864349 3.2458002716302863 5.7614444047212592 9.8031616061925853 5.5543094575405112
leaf_count=20 20 28 20 54 18 19 31 61 29
internal_value=-4.47693e-05 0.0114473 -0.0171174 0.0265878 0.00485579 0.036828 -0.0322886 -0.0349538 0.041055
internal_weight=52.299 39.3968 13.6435 25.7533 8.2956 17.4577 9.55587 12.9022 14.2119
internal_count=300 219 71 148 46 102 51 81 83
is_linear=0
shrinkage=0.03


Tree=35
num_leaves=10
num_cat=0
split_feature=42 8 43 51 43 105 62 49 55
split_gain=22.4712 18.3767 11.861 4.46818 4.32981 0.910634 1.43973 0.164555 0.0924095
threshold=0.29556223750114446 1.0000000180025095e-35 0.33597236871719366 0.11178680136799814 -1.0000000180025095e-35 0.019058342091739181 -0.069915566593408571 -0.034147189930081361 0.033425446599721916
decision_type=2 2 2 2 2 2 2 2 2
left_child=1 2 3 5 -3 8 -7 -2 -1
right_child=7 4 -4 -5 -6 6 -8 -9 -10
leaf_value=0.038086248928589063 -0.026371108694300302 0.0018515575183142914 -0.023922009893783788 0.0008381552426536354 -0.039913403820892528 0.041373418517556264 0.016438832693772637 -0.036975103009157573 0.047718514235708033
leaf_weight=8.8712311983108609 3.0484967678785315 3.4976707100868225 4.0949827134609214 3.8400710076093665 6.0420041382312757 3.8805732876062393 4.8559470474719983 9.5861753821372968 3.8102843165397635
leaf_count=55 20 20 20 21 32 22 29 61 20
internal_value=-4.41683e-05 0.0112558 0.0229987 0.0306701 -0.0247401 0.03599 0.0278571 -0.0346437 0.0413311
internal_weight=51.5274 38.8928 29.3531 25.2581 9.53967 21.418 8.73652 12.6347 12.6815
internal_count=300 219 167 147 52 126 51 81 75
is_linear=0
shrinkage=0.03


Tree=36
num_leaves=8
num_cat=0
split_feature=44 43 1 42 46 50 42
split_gain=21.9077 26.3922 12.6927 3.23966 2.83066 1.13327 0.14232
threshold=0.1545294523239136 -0.17891298234462735 1.0000000180025095e-35 0.087855789810419097 0.026638343930244449 0.11925382539629938 0.27434256672859197
decision_type=2 2 2 2 2 2 2
left_child=1 3 -3 -1 -2 6 -4
right_child=4 2 5 -5 -6 -7 -8
leaf_value=0.038771433790737352 0.041058333959589931 0.01853254821379019 -0.044600830466886794 0.0030557278946581161 0.0084656694684676678 -0.022949906910941165 -0.036486015138406984
leaf_weight=7.4294029623270017 9.905622869729994 4.4314132630825069 7.7091435045003953 3.3081686496734619 3.2344260513782492 4.8162851780652991 9.9420767277479154
leaf_count=46 57 25 39 19 20 28 66
internal_value=-4.23921e-05 -0.0116916 -0.0275396 0.0278974 0.0331602 -0.0366686 -0.0402614
internal_weight=50.7765 37.6365 26.8989 10.7376 13.14 22.4675 17.6512
internal_count=300 223 158 65 77 133 105
is_linear=0
shrinkage=0.03


Tree=37
num_leaves=9
num_cat=0
split_feature=42 43 44 44 55 61 68 44
split_gain=21.0633 16.8531 15.2774 8.91359 2.65073 2.22869 0.099141 0.000706212
threshold=0.13209066540002826 0.17503529787063601 0.13091229647397998 0.1545294523239136 0.1316553205251694 -0.11029182747006415 -0.063906513154506669 -0.02015014179050922
decision_type=2 2 2 2 2 2 2 2
left_child=1 5 -3 4 6 -1 -2 -7
right_child=3 2 -4 -5 -6 7 -8 -9
leaf_value=0.01290418925782128 -0.044067991284540156 -0.040676351463712637 0.034381589396585137 0.018703172450715275 -0.010072666655094334 0.043859147553925761 -0.035245615864836835 0.036542541593047789
leaf_weight=3.9852401614189192 4.6127641350030926 6.7705774158239347 3.6936411708593369 3.6980665922164908 3.8587639629840842 3.5737233459949538 8.551373630762102 11.244582086801524
leaf_count=24 26 38 18 22 22 19 56 75
internal_value=-4.15286e-05 0.0163228 -0.0141079 -0.0231231 -0.0322656 0.0332426 -0.0386459 0.0385893
internal_weight=49.9887 29.2678 10.4642 20.721 17.0229 18.8035 13.1641 14.8183
internal_count=300 174 56 126 104 118 82 94
is_linear=0
shrinkage=0.03


Tree=38
num_leaves=9
num_cat=0
split_feature=42 44 1 46 100 88 49 45
split_gain=20.1673 16.7398 10.7824 5.65876 1.63294 1.30156 0.185381 0.0717091
threshold=0.29556223750114446 -0.01426986278966069 1.0000000180025095e-35 0.14466577023267749 0.028981075622141365 0.080219946801662459 -0.034147189930081361 0.12800417095422748
decision_type=2 2 2 2 2 2 2 2
left_child=1 2 -1 5 -4 7 -2 -3
right_child=6 3 4 -5 -6 -7 -8 -9
leaf_value=0.025128118432227502 -0.025138902398037861 0.03677372197138546 -0.040543923510426565 0.0019799828027420655 -0.015017797217186777 0.017804623323062797 -0.036324952138882184 0.045443818612558917
leaf_weight=4.2529380917549124 2.8709522038698188 9.3668576031923347 6.3560539186000806 6.1409878879785529 3.7322100400924683 3.2531853914260855 9.039148807525633 4.1778683215379706
leaf_count=23 20 62 36 36 20 19 61 23
internal_value=-4.04963e-05 0.0108258 -0.0145365 0.0266763 -0.0313405 0.0356397 -0.0338603 0.0397615
internal_weight=49.1902 37.2801 14.3412 22.9389 10.0883 16.7979 11.9101 13.5447
internal_count=300 219 79 140 56 104 81 85
is_linear=0
shrinkage=0.03


Tree=39
num_leaves=8
num_cat=0
split_feature=42 43 44 44 8 55 68
split_gain=19.4378 15.9773 14.1373 8.28268 2.8956 2.65612 0.0868044
threshold=0.13209066540002826 0.17503529787063601 0.13091229647397998 0.1545294523239136 1.0000000180025095e-35 0.1316553205251694 -0.063906513154506669
decision_type=2 2 2 2 2 2 2
left_child=1 4 -3 5 -1 6 -2
right_child=3 2 -4 -5 -6 -7 -8
leaf_value=0.038009017705982258 -0.04340698417352442 -0.040159558896339487 0.032925704560343771 0.018139078024639127 0.0056653472498835776 -0.0092003245615982082 -0.034729036233414765
leaf_weight=15.174358084797865 4.4763218760490444 6.5547251254320127 3.6189675033092499 3.6209112405776969 3.0229089111089698 3.7845817357301703 8.2071759700775164
leaf_count=100 26 38 18 22 18 22 56
internal_value=-3.9859e-05 0.0159269 -0.0140944 -0.0225564 0.0326965 -0.0315597 -0.0381073
internal_weight=48.46 28.371 10.1737 20.089 18.1973 16.4681 12.6835
internal_count=300 174 56 126 118 104 82
is_linear=0
shrinkage=0.03


Tree=40
num_leaves=10
num_cat=0
split_feature=42 8 43 51 43 105 62 49 55
split_gain=18.7759 15.5391 10.1846 4.01184 3.83294 0.869437 1.35195 0.196745 0.151053
threshold=0.29556223750114446 1.0000000180025095e-35 0.33597236871719366 0.11178680136799814 -1.0000000180025095e-35 0.019058342091739181 -0.069915566593408571 -0.034147189930081361 0.093577828258276
decision_type=2 2 2 2 2 2 2 2 2
left_child=1 2 3 5 -3 8 -7 -2 -1
right_child=7 4 -4 -5 -6 6 -8 -9 -10
leaf_value=0.036839196181829487 -0.024386601421962764 0.0020006300878711264 -0.022681470605281522 0.00038245713445358856 -0.038527796621309056 0.039960208897331789 0.014973042437328053 -0.035924035953872016 0.048439632252961495
leaf_weight=8.7880969494581311 2.7644696831703177 3.306289866566658 3.8988279402256003 3.6621373593807212 5.6122099459171277 3.6032744646072388 4.5371487736701948 8.6780023425817472 2.8085265159606925
leaf_count=60 20 20 20 21 32 22 29 61 15
internal_value=-4.15918e-05 0.0105519 0.0217707 0.0292424 -0.0236474 0.0345684 0.0263841 -0.033372 0.0400388
internal_weight=47.659 36.2165 27.298 23.3992 8.9185 19.737 8.14042 11.4425 11.5966
internal_count=300 219 167 147 52 126 51 81 75
is_linear=0
shrinkage=0.03


Tree=41
num_leaves=9
num_cat=0
split_feature=44 43 1 42 46 50 49 42
split_gain=18.2429 22.3526 10.7079 2.83877 2.74042 1.28547 0.00915898 0.0569907
threshold=0.1545294523239136 -0.17891298234462735 1.0000000180025095e-35 0.087855789810419097 0.026638343930244449 0.14982748776674273 0.127194419503212 0.28352494537830358
decision_type=2 2 2 2 2 2 2 2
left_child=1 3 -3 -1 -2 6 7 -4
right_child=4 2 5 -5 -6 -7 -8 -9
leaf_value=0.037476041570624195 0.03960132757847256 0.017086646365121201 -0.042853439555666263 0.0029504377292968744 0.0066142054310051809 -0.016594679620017969 -0.031721571641277105 -0.035368616285109233
leaf_weight=6.8052727803587896 9.1081820204853994 4.1915757060050991 7.4501194655895286 3.1343864351511002 3.0670241490006438 3.1010742038488379 3.0138392820954314 7.072365790605545
leaf_count=46 57 25 40 19 20 19 22 52
internal_value=-3.96344e-05 -0.0111122 -0.0263065 0.0267265 0.0314132 -0.0351598 -0.03833 -0.0394752
internal_weight=46.9438 34.7686 24.829 9.93966 12.1752 20.6374 17.5363 14.5225
internal_count=300 223 158 65 77 133 114 92
is_linear=0
shrinkage=0.03


Tree=42
num_leaves=8
num_cat=0
split_feature=42 43 44 44 8 55 68
split_gain=17.5368 14.478 12.9176 7.32467 2.64255 2.61892 0.0644133
threshold=0.13209066540002826 0.17503529787063601 0.13091229647397998 0.1545294523239136 1.0000000180025095e-35 0.1316553205251694 -0.063906513154506669
decision_type=2 2 2 2 2 2 2
left_child=1 4 -3 5 -1 6 -2
right_child=3 2 -4 -5 -6 -7 -8
leaf_value=0.037273779846402809 -0.042404490946679675 -0.039319027907049449 0.031784164835279322 0.017033237744693633 0.0058770307994311117 -0.0081748743017084208 -0.034047073852453813
leaf_weight=14.300851285457616 4.2803770452737808 6.2348652333021146 3.5189334750175476 3.4894626587629309 2.9482829272747031 3.6755805760622016 7.7432854399085063
leaf_count=100 26 38 18 22 18 22 56
internal_value=-4.06176e-05 0.0155198 -0.0136045 -0.0219047 0.0319721 -0.0306124 -0.0373475
internal_weight=46.1916 27.0029 9.7538 19.1887 17.2491 15.6992 12.0237
internal_count=300 174 56 126 118 104 82
is_linear=0
shrinkage=0.03


Tree=43
num_leaves=9
num_cat=0
split_feature=42 44 42 43 90 62 67 66
split_gain=16.9106 14.2107 11.5168 5.49873 2.19709 1.54987 0.220474 0.092006
threshold=0.29556223750114446 -0.01426986278966069 -0.3237325251102447 0.32761134207248693 0.10794029384851457 -0.042820580303668969 -0.055061558261513703 -0.10625670105218886
decision_type=2 2 2 2 2 2 2 2
left_child=1 2 -1 4 7 -4 -2 -3
right_child=6 3 5 -5 -6 -7 -8 -9
leaf_value=0.032315628194841753 -0.023174120728543871 0.027921654322731734 -0.01460608167455359 -0.01235830725556269 0.006738340071824704 -0.039576011932421995 -0.035403712078774741 0.037390470718631261
leaf_weight=3.4880957454442969 2.5985229164361945 2.7780508026480666 3.7462581396102896 2.937972053885459 2.7978441119194022 6.169217810034751 8.1742499023675901 12.725186258554464
leaf_count=20 20 21 22 13 16 37 61 90
internal_value=-4.24193e-05 0.0101761 -0.0139473 0.0253939 0.0314887 -0.0303819 -0.0326941 0.0358836
internal_weight=45.4154 34.6426 13.4036 21.2391 18.3011 9.91548 10.7728 15.5032
internal_count=300 219 79 140 127 59 81 111
is_linear=0
shrinkage=0.03


Tree=44
num_leaves=8
num_cat=0
split_feature=44 43 1 46 42 50 49
split_gain=16.3277 20.1832 9.65152 2.70946 2.56251 1.30393 0.00239282
threshold=0.1545294523239136 -0.17891298234462735 1.0000000180025095e-35 0.026638343930244449 0.087855789810419097 0.14982748776674273 0.13463881611824038
decision_type=2 2 2 2 2 2 2
left_child=1 4 -3 -2 -1 6 -4
right_child=3 2 5 -5 -6 -7 -8
leaf_value=0.036760032060657637 0.038879418734055829 0.016258172577022119 -0.038640269212754784 0.0055148568115932165 0.0032542648466564487 -0.015368056170937866 -0.030682546813792802
leaf_weight=6.3948655575513822 8.6174257770180684 4.048980005085471 13.987586885690694 2.9748380407690993 3.0351744890213013 2.9984105676412574 2.5809284001588813
leaf_count=46 57 25 94 20 19 19 20
internal_value=-4.30881e-05 -0.0107951 -0.0255848 0.0304377 0.0261231 -0.034282 -0.0375922
internal_weight=44.6382 33.0459 23.6159 11.5923 9.43004 19.5669 16.5685
internal_count=300 223 158 77 65 133 114
is_linear=0
shrinkage=0.03


Tree=45
num_leaves=6
num_cat=0
split_feature=44 43 1 42 44
split_gain=15.6848 22.924 8.86044 2.45408 1.67823
threshold=0.23991566151380542 -0.17891298234462735 1.0000000180025095e-35 0.13061144202947619 0.085330896079540267
decision_type=2 2 2 2 2
left_child=1 3 -3 -1 -4
right_child=-2 2 4 -5 -6
leaf_value=0.036294748968014989 0.038957967165962087 0.01362913208988383 -0.036938185062993345 0.0052514714744351688 -0.015669384215876582
leaf_weight=7.9091352820396406 7.5676085129380217 4.5343209803104427 16.153479963541034 3.2637654542922974 4.4751506745815268
leaf_count=59 50 28 115 21 27
internal_value=-4.1664e-05 -0.00824868 -0.0241026 0.0273536 -0.032422
internal_weight=43.9035 36.3359 25.163 11.1729 20.6286
internal_count=300 250 170 80 142
is_linear=0
shrinkage=0.03


Tree=46
num_leaves=8
num_cat=0
split_feature=42 8 43 44 42 43 49
split_gain=15.1013 12.7992 8.3554 3.73491 6.20559 3.39565 0.247208
threshold=0.29556223750114446 1.0000000180025095e-35 0.33597236871719366 0.014589389786124231 -0.3237325251102447 -1.0000000180025095e-35 -0.034147189930081361
decision_type=2 2 2 2 2 2 2
left_child=1 2 3 4 -1 -3 -2
right_child=6 5 -4 -5 -6 -7 -8
leaf_value=0.039906707752206533 -0.021843742563123218 0.0024169633882657848 -0.021007546848680163 0.036876145584310488 -0.014323736066594418 -0.037330502518311527 -0.034883064929605391
leaf_weight=3.3799060881137848 2.4243993684649467 3.0560608506202698 3.6562590152025214 13.769127696752546 4.097999766469008 5.1166417300701124 7.6594574302434904
leaf_count=21 20 20 20 104 22 32 61
internal_value=-3.83039e-05 0.00977089 0.0204481 0.027647 0.0103908 -0.022618 -0.0319934
internal_weight=43.1599 33.076 24.9033 21.247 7.47791 8.1727 10.0839
internal_count=300 219 167 147 43 52 81
is_linear=0
shrinkage=0.03


Tree=47
num_leaves=8
num_cat=0
split_feature=44 43 42 42 97 77 81
split_gain=14.6963 21.2889 9.81716 2.36366 2.23354 0.720792 0.0542453
threshold=0.23991566151380542 -0.17891298234462735 -0.3237325251102447 0.13061144202947619 0.07224817201495172 0.072844408452510848 0.030496029183268551
decision_type=2 2 2 2 2 2 2
left_child=1 3 -3 -1 5 6 -4
right_child=-2 2 4 -5 -6 -7 -8
leaf_value=0.035885104311452948 0.03851373717878686 0.023131763819431356 -0.034435546558433713 0.0050673869900808039 -0.0055357949380479303 -0.021132620818255374 -0.041571230677658985
leaf_weight=7.5737855583429319 7.2612927109003058 3.4043678119778624 8.3113983049988835 3.2151004299521446 2.6945335343480101 3.2626594901084891 6.6900833547115317
leaf_count=59 50 22 64 21 19 24 41
internal_value=-4.01851e-05 -0.00809088 -0.0236027 0.0268323 -0.0312676 -0.0350131 -0.037872
internal_weight=42.4132 35.1519 24.363 10.7889 20.9587 18.2641 15.0015
internal_count=300 250 170 80 148 129 105
is_linear=0
shrinkage=0.03


Tree=48
num_leaves=6
num_cat=0
split_feature=44 43 42 42 44
split_gain=14.1418 20.3902 9.41301 2.33756 2.19899
threshold=0.23991566151380542 -0.17891298234462735 -0.3237325251102447 0.13061144202947619 0.085330896079540267
decision_type=2 2 2 2 2
left_child=1 3 -3 -1 -4
right_child=-2 2 4 -5 -6
leaf_value=0.035670362680657423 0.038216030064616276 0.022664639757837418 -0.036323597302847295 0.0049200158368113544 -0.012905781075524548
leaf_weight=7.3941176980733854 7.1015193462371817 3.3728403300046912 15.731923051178461 3.2150581106543541 4.8688686415553084
leaf_count=59 50 22 118 21 30
internal_value=-3.94248e-05 -0.00798265 -0.0232823 0.0264846 -0.030878
internal_weight=41.6843 34.5828 23.9736 10.6092 20.6008
internal_count=300 250 170 80 148
is_linear=0
shrinkage=0.03


Tree=49
num_leaves=8
num_cat=0
split_feature=44 43 42 50 42 49 46
split_gain=13.6095 19.5338 9.03141 2.32469 2.31178 0.737514 0.09452
threshold=0.23991566151380542 -0.17891298234462735 -0.3237325251102447 0.17435927689075473 0.13061144202947619 0.15580333769321444 -0.043650709092617028
decision_type=2 2 2 2 2 2 2
left_child=1 4 -3 5 -1 6 -4
right_child=-2 2 3 -5 -6 -7 -8
leaf_value=0.035462982021987874 0.037928826771411774 0.022204792856209698 -0.030493331294862806 -0.0038522700745176677 0.0047769255480955815 -0.018226486229656183 -0.039024416399980083
leaf_weight=7.2174910828471166 6.9437778592109671 3.3419528901576987 4.0639352053403899 2.5980368554592124 3.2150183245539665 2.5124165788292876 11.056773550808433
leaf_count=59 50 22 32 18 21 21 77
internal_value=-3.51246e-05 -0.00787565 -0.0229771 -0.0305131 0.0261415 -0.0343974 -0.036947
internal_weight=40.9494 34.0056 23.5731 20.2312 10.4325 17.6331 15.1207
internal_count=300 250 170 148 80 130 109
is_linear=0
shrinkage=0.03


Tree=50
num_leaves=8
num_cat=0
split_feature=44 43 42 42 50 46 49
split_gain=13.1605 15.7688 8.66991 2.74035 2.6412 2.38416 0.0287095
threshold=0.1545294523239136 -0.17891298234462735 -0.3237325251102447 0.13061144202947619 0.17435927689075473 0.026638343930244449 0.13463881611824038
decision_type=2 2 2 2 2 2 2
left_child=1 3 -3 -1 6 -2 -4
right_child=5 2 4 -5 -6 -7 -8
leaf_value=0.035448808873701367 0.037385987488325757 0.021216192222539121 -0.037707905261189133 -0.00093374832678270634 -0.0037475617352612151 0.0046001332414971211 -0.028871394814735156
leaf_weight=5.8488392457366007 7.6553909704089147 3.1826693937182453 13.234236508607866 2.7055808156728745 2.5933743342757216 2.7295179888606071 2.3012245073914519
leaf_count=48 57 21 99 17 18 20 20
internal_value=-3.3754e-05 -0.0101556 -0.0239395 0.024064 -0.0319399 0.0288948 -0.036592
internal_weight=40.2508 29.8659 21.3115 8.55442 18.1288 10.3849 15.5355
internal_count=300 223 158 65 137 77 119
is_linear=0
shrinkage=0.03


Tree=51
num_leaves=8
num_cat=0
split_feature=44 43 42 97 42 86 42
split_gain=12.6441 18.0279 11.4097 2.74063 2.24914 0.796876 0.0250068
threshold=0.23991566151380542 -0.17891298234462735 -0.37544332444667811 0.07224817201495172 0.13061144202947619 -0.046118794009089463 0.28352494537830358
decision_type=2 2 2 2 2 2 2
left_child=1 4 -3 5 -1 -4 -7
right_child=-2 2 3 -5 -6 6 -8
leaf_value=0.035080575838573991 0.037391016611912763 0.036795080633060223 -0.022110202850297224 -0.0018119505717108402 0.0045781499447645341 -0.041052603413423455 -0.034033215226868752
leaf_weight=6.8896640837192518 6.6467439085245124 2.5160740911960593 4.3072296604514184 2.7196959778666487 3.2073258757591248 6.912285543978216 6.3551947474479675
leaf_count=59 50 18 33 20 21 42 57
internal_value=-3.1481e-05 -0.00768056 -0.022429 -0.0299159 0.0255313 -0.0342302 -0.03797
internal_weight=39.5542 32.9075 22.8105 20.2944 10.097 17.5747 13.2675
internal_count=300 250 170 152 80 132 99
is_linear=0
shrinkage=0.03


Tree=52
num_leaves=8
num_cat=0
split_feature=44 43 42 50 42 46 49
split_gain=12.2078 14.4984 8.01358 2.75994 2.6569 2.28223 0.0274266
threshold=0.1545294523239136 -0.17891298234462735 -0.3237325251102447 0.19092524051666263 0.13061144202947619 0.026638343930244449 0.13463881611824038
decision_type=2 2 2 2 2 2 2
left_child=1 4 -3 6 -1 -2 -4
right_child=5 2 3 -5 -6 -7 -8
leaf_value=0.035047961404206796 0.036900553400037756 0.020574669449542629 -0.037192954860053855 -0.0016250465914884953 -0.0010387384619215808 0.0044261057224617949 -0.028338268499676474
leaf_weight=5.5721619576215762 7.3343632966279966 3.0914758443832424 12.792942792177202 2.4397488608956328 2.7068496197462082 2.6794801652431488 2.2173755392432204
leaf_count=48 57 21 100 17 17 20 20
internal_value=-2.93873e-05 -0.00995066 -0.0234314 -0.0313004 0.0233777 0.0283408 -0.0360811
internal_weight=38.8344 28.8206 20.5415 17.4501 8.27901 10.0138 15.0103
internal_count=300 223 158 137 65 77 120
is_linear=0
shrinkage=0.03


Tree=53
num_leaves=9
num_cat=0
split_feature=42 44 1 43 90 100 49 61
split_gain=11.7785 10.4003 6.07294 5.18115 2.00601 1.53121 0.308657 0.0751177
threshold=0.29556223750114446 -0.01426986278966069 1.0000000180025095e-35 0.33597236871719366 0.10794029384851457 0.034218864515423782 -0.034147189930081361 0.10312706977128984
decision_type=2 2 2 2 2 2 2 2
left_child=1 2 -1 4 7 -4 -2 -3
right_child=6 3 5 -5 -6 -7 -8 -9
leaf_value=0.019428539095097987 -0.018872582195299147 0.036026778862968373 -0.036554312658778898 -0.016066061933693976 0.0046841598926582635 -0.0087642612829244206 -0.033891945441158304 0.026131425192444917
leaf_weight=3.5367278456687918 2.0729278847575188 10.70338134467602 5.3099218904972094 2.5142114385962477 2.4376797452568999 2.7795701995491982 6.5989201217889768 2.2057681903243056
leaf_count=23 20 92 39 12 16 17 61 20
internal_value=-2.70344e-05 0.00902462 -0.0129911 0.0233478 0.029867 -0.0272292 -0.0305578 0.0345498
internal_weight=38.1591 29.4873 11.6262 17.861 15.3468 8.08949 8.67185 12.9091
internal_count=300 219 79 140 128 56 81 112
is_linear=0
shrinkage=0.03


Tree=54
num_leaves=8
num_cat=0
split_feature=44 43 42 42 97 86 42
split_gain=11.5016 16.2526 10.4342 3.00632 2.65677 0.786052 0.0026555
threshold=0.23991566151380542 -0.17891298234462735 -0.37544332444667811 0.14452788978815082 0.07224817201495172 -0.046118794009089463 0.28352494537830358
decision_type=2 2 2 2 2 2 2
left_child=1 3 -3 -1 5 -4 -7
right_child=-2 2 4 -5 -6 6 -8
leaf_value=0.034604262368557084 0.036807619780181974 0.036188968562190046 -0.021304727370512595 -0.0036235936579562555 -0.0011115552353590367 -0.040292797254325767 -0.033621609343458175
leaf_weight=7.1322973966598529 6.2448610067367545 2.3907891362905529 4.1005892157554724 2.4646982774138451 2.6265708804130545 6.6109741106629318 5.9321927353739738
leaf_count=65 50 18 33 15 20 42 57
internal_value=-2.88774e-05 -0.00748212 -0.0218555 0.0248505 -0.0292065 -0.0336071 -0.0374286
internal_weight=37.503 31.2581 21.6611 9.597 19.2703 16.6438 12.5432
internal_count=300 250 170 80 152 132 99
is_linear=0
shrinkage=0.03


Tree=55
num_leaves=7
num_cat=0
split_feature=44 43 42 42 44 49
split_gain=11.0834 15.5945 10.022 2.94277 2.67117 0.0214661
threshold=0.23991566151380542 -0.17891298234462735 -0.37544332444667811 0.14452788978815082 0.085330896079540267 0.12214329466223718
decision_type=2 2 2 2 2 2
left_child=1 3 -3 -1 5 -4
right_child=-2 2 4 -5 -6 -7
leaf_value=0.034433223794077671 0.036569145996366272 0.035923693170772417 -0.036328230165697376 -0.0035217298865444237 -0.0088982667133233051 -0.027497684462304463
leaf_weight=6.9558565989136714 6.0998621210455886 2.3377315774560001 12.223520375788214 2.4628293961286545 4.6647846624255171 2.0506407991051665
leaf_count=65 50 18 101 15 31 20
internal_value=-2.71409e-05 -0.00739478 -0.0215962 0.0245759 -0.0288476 -0.0352597
internal_weight=36.7952 30.6954 21.2767 9.41869 18.9389 14.2742
internal_count=300 250 170 80 152 121
is_linear=0
shrinkage=0.03


Tree=56
num_leaves=7
num_cat=0
split_feature=44 43 42 70 46 82
split_gain=10.6818 15.1066 11.4455 2.56667 2.24782 0.206696
threshold=0.23991566151380542 0.037784110754728324 0.16452504694461825 0.071355786174535765 -0.039855435490608208 0.061097607016563422
decision_type=2 2 2 2 2 2
left_child=1 2 5 -4 -3 -1
right_child=-2 4 3 -5 -6 -7
leaf_value=0.034715497693408641 0.036338214016862228 -0.0081479737938218808 -0.031983530632464868 0.005562546570257421 -0.03767819195631749 0.022055186656195769
leaf_weight=7.6765699610114151 5.9572602882981291 3.07107087224722 4.2848136201500884 2.5747408494353294 10.285147272050377 2.2376964837312698
leaf_count=70 50 25 36 19 80 20
internal_value=-2.37369e-05 -0.00730958 0.0116252 -0.0180131 -0.0309992 0.0321068
internal_weight=36.0873 30.13 16.7738 6.85955 13.3562 9.91427
internal_count=300 250 145 55 105 90
is_linear=0
shrinkage=0.03


Tree=57
num_leaves=7
num_cat=0
split_feature=44 43 42 70 46 52
split_gain=10.2963 14.499 11.0131 2.48602 2.22317 0.218409
threshold=0.23991566151380542 0.037784110754728324 0.16452504694461825 0.071355786174535765 -0.039855435490608208 0.11066474020481111
decision_type=2 2 2 2 2 2
left_child=1 2 5 -4 -3 -1
right_child=-2 4 3 -5 -6 -7
leaf_value=0.03437419558873242 0.036114474680990903 -0.0079400629526997571 -0.031678255941177715 0.0053921898032826274 -0.037420012098867465 0.02095524208972185
leaf_weight=7.7060387283563667 5.8170813396573058 3.0597353726625451 4.1985938772559157 2.5794891938567162 10.049677692353722 1.9916931539773939
leaf_count=72 50 25 36 19 80 18
internal_value=-2.14825e-05 -0.0072243 0.0114887 -0.0176973 -0.0306516 0.0318603
internal_weight=35.4023 29.5852 16.4758 6.77808 13.1094 9.69773
internal_count=300 250 145 55 105 90
is_linear=0
shrinkage=0.03


Tree=58
num_leaves=8
num_cat=0
split_feature=42 8 43 44 51 84 42
split_gain=9.9631 9.11051 5.44773 3.10096 3.99533 2.24443 0.36354
threshold=0.29556223750114446 1.0000000180025095e-35 0.33597236871719366 0.014589389786124231 0.053813129663467414 0.02008695621043444 0.33027875423431402
decision_type=2 2 2 2 2 2 2
left_child=1 2 3 4 -1 -3 -2
right_child=6 5 -4 -5 -6 -7 -8
leaf_value=0.02961810089875368 -0.01637733350513618 -0.034336424260441235 -0.017707131161640823 0.035274062934341176 -0.016999704758544357 0.0012150523188352758 -0.033263305878598229
leaf_weight=3.595151826739321 1.8035006970167149 4.242881052196025 3.0556570813059798 10.595055341720579 2.9078403785824776 2.5183226093649864 6.0103819146752357
leaf_count=23 19 29 20 104 20 23 62
internal_value=-1.92936e-05 0.00865277 0.0187468 0.0253267 0.00883099 -0.02127 -0.0296221
internal_weight=34.7288 26.9149 20.1537 17.098 6.50299 6.7612 7.81388
internal_count=300 219 167 147 43 52 81
is_linear=0
shrinkage=0.03


Tree=59
num_leaves=7
num_cat=0
split_feature=44 43 42 44 46 62
split_gain=9.68482 13.5098 10.3951 2.42501 2.18858 0.222793
threshold=0.23991566151380542 0.037784110754728324 0.16452504694461825 -0.17411286383867261 -0.039855435490608208 0.067982122302055373
decision_type=2 2 2 2 2 2
left_child=1 2 5 -4 -3 -1
right_child=-2 4 3 -5 -6 -7
leaf_value=0.034128502194538661 0.035832563395241886 -0.0074157954714735991 -0.034010859461793524 0.0021029973953701178 -0.037009908660799229 0.020463583889455735
leaf_weight=7.3826741501688975 5.5624562576413146 2.9982027485966691 3.52215975522995 3.0899978801608077 9.6612920388579333 1.936516687273979
leaf_count=72 50 25 33 22 80 18
internal_value=-2.26886e-05 -0.00709904 0.0112631 -0.0173542 -0.0301141 0.0315363
internal_weight=34.1533 28.5908 15.9313 6.61216 12.6595 9.31919
internal_count=300 250 145 55 105 90
is_linear=0
shrinkage=0.03


Tree=60
num_leaves=9
num_cat=0
split_feature=44 42 42 43 12 56 55 49
split_gain=9.36409 12.3545 7.99118 3.8281 2.35868 1.47972 0.295246 0.217013
threshold=0.03521228954195977 -0.37544332444667811 0.31722204387187963 0.33597236871719366 1.0000000180025095e-35 0.17196154594421389 0.10887129604816438 0.092211239039897933
decision_type=2 2 2 2 2 2 2 2
left_child=1 -1 3 5 7 6 -2 -3
right_child=2 4 -4 -5 -6 -7 -8 -9
leaf_value=0.036076743348642692 0.033197117429350088 -0.03568442030841619 -0.032576537262242571 -0.01141556329954649 -0.00086841770381724062 0.0091481610452926396 0.048724299771490662 -0.023156926992072068
leaf_weight=3.3025603443384197 7.4237397834658641 9.1518445536494237 2.4623855501413336 2.1228968352079383 2.4431341737508765 2.1859368458390227 2.0374776273965836 2.365082621574401
leaf_count=27 81 82 25 11 16 19 14 25
internal_value=-2.11111e-05 -0.0153598 0.0162852 0.0251946 -0.0276982 0.0319078 0.0370155 -0.0333333
internal_weight=33.4951 17.2626 16.2324 13.7701 13.9601 11.6472 9.46122 11.5169
internal_count=300 150 150 125 123 114 95 107
is_linear=0
shrinkage=0.03


Tree=61
num_leaves=7
num_cat=0
split_feature=44 43 42 42 44 49
split_gain=9.09216 12.6669 7.58568 2.911 2.32399 0.00779087
threshold=0.23991566151380542 -0.17891298234462735 -0.3548073917627334 0.16452504694461825 0.085330896079540267 0.12214329466223718
decision_type=2 2 2 2 2 2
left_child=1 3 -3 -1 5 -4
right_child=-2 2 4 -5 -6 -7
leaf_value=0.033626683983866396 0.035542441530192377 0.028429102274691892 -0.035185432858993289 -0.0064870499960623957 -0.0082009187836144248 -0.026517766661787016
leaf_weight=6.2887121886014956 5.3116032853722563 2.410293877124789 10.643133297562601 2.1463560983538628 4.2329551205039015 1.8247384950518597
leaf_count=67 50 20 100 13 30 20
internal_value=-1.85024e-05 -0.00697931 -0.0204679 0.0234631 -0.027652 -0.034138
internal_weight=32.8578 27.5462 19.1111 8.43507 16.7008 12.4679
internal_count=300 250 170 80 150 120
is_linear=0
shrinkage=0.03


Tree=62
num_leaves=7
num_cat=0
split_feature=44 43 42 55 8 90
split_gain=8.76974 12.2937 10.8723 3.93818 1.11789 0.302127
threshold=0.23991566151380542 0.089738607406616225 0.16452504694461825 0.12291369587183 1.0000000180025095e-35 -0.010829106438904999
decision_type=2 2 2 2 2 2
left_child=1 2 4 5 -1 -4
right_child=-2 -3 3 -5 -6 -7
leaf_value=0.034305553873261334 0.035345287518175617 -0.034882669410084881 -0.019647619595185854 0.016343982415058946 0.0087996172109227732 -0.035436811686229516
leaf_weight=7.6157450824976021 5.1834887862205496 9.195416681468485 2.1985743343830109 2.1776690632104874 2.0395345836877823 3.8111136704683286
leaf_count=79 50 82 22 14 17 36
internal_value=-1.59415e-05 -0.00690034 0.00763473 -0.0176815 0.0290632 -0.0300766
internal_weight=32.2215 27.0381 17.8426 8.18736 9.65528 6.00969
internal_count=300 250 168 72 96 58
is_linear=0
shrinkage=0.03


Tree=63
num_leaves=8
num_cat=0
split_feature=44 43 42 50 42 46 49
split_gain=8.46289 9.777 5.54612 2.92942 2.12155 1.78882 0.0188452
threshold=0.1545294523239136 -0.17891298234462735 -0.3237325251102447 0.19092524051666263 0.13061144202947619 0.026638343930244449 0.13463881611824038
decision_type=2 2 2 2 2 2 2
left_child=1 4 -3 6 -1 -2 -4
right_child=5 2 3 -5 -6 -7 -8
leaf_value=0.033405802748925226 0.035061835512690744 0.018580888319326354 -0.035415063340202058 0.0039029136782029084 -0.0013391978281509526 0.0032982873241475014 -0.026239598760041248
leaf_weight=4.351907052099711 5.797766659408806 2.5788775756955209 10.33238230273127 2.0980721712112418 2.4416264891624451 2.2180908843874931 1.7722230255603779
leaf_count=48 57 21 100 17 17 20 20
internal_value=-1.53674e-05 -0.00907787 -0.021339 -0.0286667 0.02108 0.0264214 -0.0342977
internal_weight=31.5909 23.5751 16.7816 14.2027 6.79353 8.01586 12.1046
internal_count=300 223 158 137 65 77 120
is_linear=0
shrinkage=0.03


Tree=64
num_leaves=9
num_cat=0
split_feature=44 42 42 43 12 56 55 49
split_gain=8.22542 10.8585 7.11926 3.51943 2.13903 1.42996 0.279186 0.212436
threshold=0.03521228954195977 -0.37544332444667811 0.31722204387187963 0.33597236871719366 1.0000000180025095e-35 0.17196154594421389 0.11377433314919473 0.092211239039897933
decision_type=2 2 2 2 2 2 2 2
left_child=1 -1 3 5 7 6 -2 -3
right_child=2 4 -4 -5 -6 -7 -8 -9
leaf_value=0.035257193031214669 0.032939659503152398 -0.035064528561262728 -0.03212502409433967 -0.011084508731521458 -0.0011288444033473604 0.0085198392014517073 0.049182815112998247 -0.022248343487741646
leaf_weight=3.0448228195309683 6.9097742252051813 8.3852016702294332 2.2684883698821059 2.0406267121434203 2.3779839798808107 2.071284480392932 1.7408798635005949 2.1951972246170035
leaf_count=27 82 82 25 11 16 19 13 25
internal_value=-1.25547e-05 -0.0149358 0.0158695 0.0245838 -0.0269092 0.031412 0.0367332 -0.0326387
internal_weight=31.0343 16.0032 15.0311 12.7626 12.9584 10.7219 8.65065 10.5804
internal_count=300 150 150 125 123 114 95 107
is_linear=0
shrinkage=0.03


Tree=65
num_leaves=7
num_cat=0
split_feature=44 43 42 55 8 67
split_gain=7.9652 11.3116 9.84933 3.74843 1.04704 0.273346
threshold=0.23991566151380542 0.089738607406616225 0.16452504694461825 0.12291369587183 1.0000000180025095e-35 0.011644465383142235
decision_type=2 2 2 2 2 2
left_child=1 2 4 5 -1 -4
right_child=-2 -3 3 -5 -6 -7
leaf_value=0.033928896297475711 0.034903691474105804 -0.034397941998795305 -0.034642790067159125 0.016115881642370006 0.0086155180758391778 -0.018922679901755446
leaf_weight=7.1480647325515836 4.8340643569827071 8.6599426753818971 3.7094559818506232 2.1650407910346985 1.9490182027220724 1.9766974598169325
leaf_count=79 50 82 38 14 17 20
internal_value=-9.77287e-06 -0.00671052 0.00755551 -0.0169489 0.0286582 -0.0295994
internal_weight=30.4423 25.6082 16.9483 7.85119 9.09708 5.68615
internal_count=300 250 168 72 96 58
is_linear=0
shrinkage=0.03


Tree=66
num_leaves=9
num_cat=0
split_feature=44 42 42 43 43 56 55 49
split_gain=7.71355 10.1285 6.64495 3.31239 2.45442 1.41828 0.249318 0.012256
threshold=0.03521228954195977 -0.37544332444667811 0.31722204387187963 0.33597236871719366 -0.15832330286502835 0.17196154594421389 0.11377433314919473 0.11130380630493165
decision_type=2 2 2 2 2 2 2 2
left_child=1 -1 3 5 -3 6 -2 -6
right_child=2 4 -4 -5 7 -7 -8 -9
leaf_value=0.034837929153774191 0.032743213722149944 -0.0012390393473155584 -0.031849642889540383 -0.010632547170332868 -0.034739393010122792 0.0080947710050934957 0.04866020219285136 -0.025610755226457296
leaf_weight=2.9117638170719156 6.5717804357409459 2.7264456599950782 2.1581614390015593 2.0037366673350325 8.0819787904620153 2.0292577221989623 1.6816719099879263 1.6788674071431167
leaf_count=27 82 20 25 11 83 19 13 20
internal_value=-9.19695e-06 -0.0147347 0.0156827 0.0242216 -0.0264789 0.0310505 0.0365301 -0.0334449
internal_weight=29.8437 15.3991 14.4446 12.2864 12.4873 10.2827 8.25345 9.76085
internal_count=300 150 150 125 123 114 95 103
is_linear=0
shrinkage=0.03


Tree=67
num_leaves=7
num_cat=0
split_feature=44 43 44 42 46 78
split_gain=7.49099 10.603 9.16094 3.12417 0.267738 0.24668
threshold=0.23991566151380542 0.084909152239561095 -0.17411286383867261 0.20119031518697741 0.052799459546804435 -0.0048812618479132644
decision_type=2 2 2 2 2 2
left_child=1 2 5 -4 -3 -1
right_child=-2 4 3 -5 -6 -7
leaf_value=-0.033796424558345542 0.034668130378737214 -0.02255733805586136 0.033275469000467225 -5.8660067834925039e-06 -0.036317091432222087 -0.017355282645536787
leaf_weight=2.7424486950039864 4.6109094247221938 2.4607412852346879 7.6023414656519908 3.7863255441188812 6.3593160472810268 1.7083984985947633
leaf_count=27 50 27 89 31 58 18
internal_value=-6.88782e-06 -0.00660434 0.0080822 0.0223069 -0.0327741 -0.0280057
internal_weight=29.2705 24.6596 15.8395 11.3887 8.82006 4.45085
internal_count=300 250 165 120 85 45
is_linear=0
shrinkage=0.03


Tree=68
num_leaves=7
num_cat=0
split_feature=44 43 42 55 8 67
split_gain=7.23275 10.2192 8.93596 3.54882 1.00417 0.270214
threshold=0.23991566151380542 0.089738607406616225 0.16452504694461825 0.12291369587183 1.0000000180025095e-35 0.011644465383142235
decision_type=2 2 2 2 2 2
left_child=1 2 4 5 -1 -4
right_child=-2 -3 3 -5 -6 -7
leaf_value=0.033595544497726594 0.034496709288563479 -0.033798487765756162 -0.03431086872156331 0.015668027991733429 0.0081560441035174649 -0.018367942091489581
leaf_weight=6.6706020571291536 4.4970255345106116 8.1032170280814153 3.5085529275238505 2.1615010127425194 1.8568136245012281 1.8961027227342127
leaf_count=79 50 82 38 14 17 20
internal_value=-1.02723e-05 -0.00653905 0.0073102 -0.0163111 0.0282149 -0.0291529
internal_weight=28.6938 24.1968 16.0936 7.56616 8.52742 5.40466
internal_count=300 250 168 72 96 58
is_linear=0
shrinkage=0.03


Tree=69
num_leaves=9
num_cat=0
split_feature=42 44 43 44 47 82 42 59
split_gain=7.01749 7.88981 6.52522 5.53021 2.23181 0.572121 0.440885 0.236259
threshold=0.31722204387187963 -0.17411286383867261 0.17046450823545459 0.20868683606386187 0.16299919784069064 0.081696495413780226 0.20522684603929522 0.034447534009814269
decision_type=2 2 2 2 2 2 2 2
left_child=1 7 4 -4 5 6 -3 -1
right_child=-2 2 3 -5 -6 -7 -8 -9
leaf_value=-0.034101082884578117 -0.032176567899837048 0.031807054612486479 -0.035267018529619713 0.023256450058063059 -0.0006756341904709406 0.015214885387331409 0.050855850687392783 -0.018205442536148125
leaf_weight=2.6874868385493818 4.9218560121953479 7.4367855116724986 3.3604575507342807 2.4152580201625824 2.1311659216880789 1.6374674439430226 1.6858425363898275 1.8531568199396131
leaf_count=24 65 95 30 18 17 18 11 22
internal_value=-9.6756e-06 0.00692104 0.0155554 -0.0108147 0.0273623 0.0328707 0.0358405 -0.0281458
internal_weight=28.1295 23.2076 18.667 5.77572 12.8913 10.7601 9.12263 4.54064
internal_count=300 235 189 48 141 124 106 46
is_linear=0
shrinkage=0.03


Tree=70
num_leaves=7
num_cat=0
split_feature=44 43 44 42 97 46
split_gain=6.83383 9.55509 8.22729 3.00095 0.277751 0.271754
threshold=0.23991566151380542 0.084909152239561095 -0.17411286383867261 0.20119031518697741 0.024690586142241958 0.042044734582304961
decision_type=2 2 2 2 2 2
left_child=1 2 4 -4 -1 -3
right_child=-2 5 3 -5 -6 -7
leaf_value=-0.033680111068673454 0.034229461283443244 -0.02148523615369154 0.032960348424175778 -0.00018945353384964062 -0.016195445703653097 -0.035765466531780268
leaf_weight=2.5594426840543774 4.3134542666375628 2.2568310312926751 7.0766726396977919 3.7361032031476498 1.6537850387394426 6.0113835744559765
leaf_count=25 50 26 89 31 20 59
internal_value=-1.07617e-05 -0.00647033 0.0077909 0.0216094 -0.0273516 -0.032171
internal_weight=27.6077 23.2942 15.026 10.8128 4.21323 8.26821
internal_count=300 250 165 120 45 85
is_linear=0
shrinkage=0.03


Tree=71
num_leaves=9
num_cat=0
split_feature=42 44 46 43 78 59 68 67
split_gain=6.64611 7.31143 6.0459 11.792 1.00883 0.246054 0.00822151 0.00693703
threshold=0.31722204387187963 -0.17411286383867261 -0.026621706783771511 -1.0000000180025095e-35 -0.038693677634000771 0.034447534009814269 0.10002510622143747 -0.04511564411222934
decision_type=2 2 2 2 2 2 2 2
left_child=1 5 7 4 -4 -1 -6 -3
right_child=-2 2 3 -5 6 -7 -8 -9
leaf_value=-0.033729533918717677 -0.032006960790713808 0.041419333121649027 0.010978474648197015 -0.033983470545872786 0.031477914950909472 -0.017419251667356354 0.043282429703604207 0.032536614588702634
leaf_weight=2.5688964203000131 4.712425995618104 2.891239944845438 2.1313259899616304 4.73559424653648 2.4393062107264996 1.8042134046554563 1.5948225036263464 4.1871006339788517
leaf_count=24 65 25 23 40 34 22 14 53
internal_value=-1.41524e-05 0.00684319 0.0153123 0.00122301 0.0283754 -0.0275403 0.0370787 0.0366913
internal_weight=27.0649 22.3525 17.9794 10.901 6.16545 4.37311 4.03413 7.07834
internal_count=300 235 189 111 71 46 48 78
is_linear=0
shrinkage=0.03


Tree=72
num_leaves=8
num_cat=0
split_feature=42 44 46 43 78 59 77
split_gain=6.42818 7.03571 5.85739 11.3218 1.00689 0.248901 0.00543326
threshold=0.31722204387187963 -0.17411286383867261 -0.026621706783771511 -1.0000000180025095e-35 -0.038693677634000771 0.034447534009814269 0.04498619586229325
decision_type=2 2 2 2 2 2 2
left_child=1 5 -3 4 -4 -1 -5
right_child=-2 2 3 6 -6 -7 -8
leaf_value=-0.033543339786398743 -0.031906707288343369 0.03651637706396129 0.010701499580541673 -0.037411017106089836 0.036891371077057061 -0.017083470308305249 -0.027615792640365629
leaf_weight=2.5071498639881673 4.5876147262752047 6.9049872048199257 2.1236013211309972 2.521642733365284 3.9379397071897984 1.7867192924022672 2.1258627511560917
leaf_count=24 65 78 23 20 48 22 20
internal_value=-9.02815e-06 0.00678512 0.0151863 0.00122247 0.0280386 -0.0272389 -0.0336066
internal_weight=26.4955 21.9079 17.614 10.709 6.06154 4.29387 4.64751
internal_count=300 235 189 111 71 46 40
is_linear=0
shrinkage=0.03


Tree=73
num_leaves=8
num_cat=0
split_feature=42 44 46 43 78 46 77
split_gain=6.21388 6.76701 5.68329 10.8747 1.00648 0.256219 0.00835056
threshold=0.31722204387187963 -0.17411286383867261 -0.026621706783771511 -1.0000000180025095e-35 -0.038693677634000771 -0.02844006102532148 0.04498619586229325
decision_type=2 2 2 2 2 2 2
left_child=1 5 -3 4 -4 -1 -5
right_child=-2 2 3 6 -6 -7 -8
leaf_value=-0.033105728480638912 -0.031808830834291736 0.036363661612667318 0.010430459844703928 -0.037102456158319405 0.036737597729225059 -0.016253972122832333 -0.027213759165320133
leaf_weight=2.5404811874032021 4.4658257290720931 6.7290444411337456 2.1161340251565042 2.4679792746901379 3.8377234861254692 1.675899151712662 2.0945061855018139
leaf_count=26 65 78 23 20 48 20 20
internal_value=-1.56099e-05 0.00671686 0.0150534 0.00120368 0.0277142 -0.0269393 -0.0332439
internal_weight=25.9276 21.4618 17.2454 10.5163 5.95386 4.21638 4.56249
internal_count=300 235 189 111 71 46 40
is_linear=0
shrinkage=0.03


Tree=74
num_leaves=8
num_cat=0
split_feature=42 44 46 43 78 46 77
split_gain=6.00718 6.50895 5.51528 10.4449 1.03737 0.259706 0.0114254
threshold=0.31722204387187963 -0.17411286383867261 -0.026621706783771511 -1.0000000180025095e-35 -0.050554281100630753 -0.02844006102532148 0.04498619586229325
decision_type=2 2 2 2 2 2 2
left_child=1 5 -3 4 -4 -1 -5
right_child=-2 2 3 6 -6 -7 -8
leaf_value=-0.032940908506894538 -0.031713210337966258 0.036214949826390667 0.0095489633158724191 -0.036803784063891891 0.03651525042285373 -0.015922734102443773 -0.026812380355242693
leaf_weight=2.4780408143997192 4.347007803618907 6.5569860450923523 2.0484704785049024 2.414980877190815 3.8004382699728012 1.6617372557520926 2.0640467591583729
leaf_count=26 65 78 22 20 49 20 20
internal_value=-2.2145e-05 0.00664932 0.0149214 0.001185 0.0273901 -0.0266464 -0.0328856
internal_weight=25.3717 21.0247 16.8849 10.3279 5.84891 4.13978 4.47903
internal_count=300 235 189 111 71 46 40
is_linear=0
shrinkage=0.03


Tree=75
num_leaves=8
num_cat=0
split_feature=42 44 42 99 62 48 55
split_gain=5.80775 6.2827 6.68398 3.08997 2.26293 1.63574 0.130126
threshold=0.31722204387187963 0.014589389786124231 -0.37544332444667811 -0.070328328758478151 -0.069915566593408571 0.15642163157463077 0.10432070493698122
decision_type=2 2 2 2 2 2 2
left_child=1 2 -1 -3 -4 6 -5
right_child=-2 3 4 5 -6 -7 -8
leaf_value=0.033934319153530332 -0.031619730192930656 -0.011626169951126924 0.0027759607777327923 0.032508221727075841 -0.033678604509865338 0.00234031927607025 0.046650384217702928
leaf_weight=2.247601430863142 4.2311091162264338 1.9120899364352251 2.0781215764582157 5.7190474458038754 5.5869352929294163 1.6033055968582628 1.4495878890156744
leaf_count=24 65 18 19 85 61 15 13
internal_value=-2.87541e-05 0.0065823 -0.0105684 0.0224451 -0.0238867 0.0299193 0.0359704
internal_weight=24.8278 20.5967 9.91266 10.684 7.66506 8.77194 7.16864
internal_count=300 235 104 131 80 113 98
is_linear=0
shrinkage=0.03


Tree=76
num_leaves=8
num_cat=0
split_feature=44 43 42 50 44 49 84
split_gain=5.62357 8.00537 4.50821 2.05459 1.99473 0.396711 0.0569639
threshold=0.23991566151380542 -0.17891298234462735 -0.3548073917627334 0.19092524051666263 -0.085528291761875139 0.14942338317632678 0.038350746035575874
decision_type=2 2 2 2 2 2 2
left_child=1 4 -3 5 -1 6 -4
right_child=-2 2 3 -5 -6 -7 -8
leaf_value=-0.0035928360396193866 0.033319624044331593 0.025416079783443547 -0.034248186616322993 0.0032192394301298558 0.032621357336539807 -0.014927933752780067 -0.023669838300335918
leaf_weight=1.9420749098062513 3.7403095513582221 1.7501317672431511 7.3562509529292495 1.9498199298977859 4.3937794826924863 1.5943597145378579 1.6215759217739103
leaf_count=13 50 20 89 18 67 22 21
internal_value=-2.33069e-05 -0.00620666 -0.0186321 -0.0249411 0.0216376 -0.0301162 -0.0326193
internal_weight=24.3483 20.608 14.2721 12.522 6.33585 10.5722 8.97783
internal_count=300 250 170 150 80 132 110
is_linear=0
shrinkage=0.03


Tree=77
num_leaves=8
num_cat=0
split_feature=42 44 42 99 62 46 55
split_gain=5.47723 5.8882 6.29209 2.61975 2.1823 1.19433 0.152191
threshold=0.31722204387187963 0.014589389786124231 -0.37544332444667811 -0.048991287127137177 -0.069915566593408571 0.18522042781114581 0.11611664295196535
decision_type=2 2 2 2 2 2 2
left_child=1 2 -1 -3 -4 6 -5
right_child=-2 3 4 5 -6 -7 -8
leaf_value=0.033673607037252799 -0.031460738014075833 -0.0034839435425696179 0.0027418674013908149 0.032355107069512945 -0.033397473502196379 0.0050773910913458299 0.04764107338279043
leaf_weight=2.158346563577652 4.0316109061241141 2.6467942446470287 2.0551136955618858 4.8853962309658483 5.3635398894548469 1.3630072027444837 1.3870542794466016
leaf_count=24 65 26 19 75 61 19 11
internal_value=-2.04149e-05 0.00648791 -0.0103868 0.0221538 -0.0234828 0.0309712 0.0364299
internal_weight=23.8909 19.8593 9.577 10.2823 7.41865 7.63546 6.27245
internal_count=300 235 104 131 80 105 86
is_linear=0
shrinkage=0.03


Tree=78
num_leaves=7
num_cat=0
split_feature=42 44 46 43 78 59
split_gain=5.29763 5.69007 5.02314 9.4892 0.993221 0.268852
threshold=0.31722204387187963 -0.17411286383867261 -0.026621706783771511 -1.0000000180025095e-35 -0.050554281100630753 0.036915283650159843
decision_type=2 2 2 2 2 2
left_child=1 5 -3 4 -4 -1
right_child=-2 2 3 -5 -6 -7
leaf_value=-0.032624862358448505 -0.031372562411649499 0.035732644660840439 0.0090405234400611038 -0.032388694240869931 0.036186464874208402 -0.01486765666236132
leaf_weight=2.2668906711041994 3.9235663078725329 6.0057408325374171 1.9501928649842764 4.2215240523219011 3.5218639150261879 1.559792675077915
leaf_count=25 65 78 22 40 49 21
internal_value=-1.37277e-05 0.00641528 0.0144185 0.000983169 0.0268478 -0.0259498
internal_weight=23.4496 19.526 15.6993 9.69358 5.47206 3.82668
internal_count=300 235 189 111 71 46
is_linear=0
shrinkage=0.03


Tree=79
num_leaves=7
num_cat=0
split_feature=42 44 46 43 78 59
split_gain=5.12428 5.47509 4.87361 9.11046 0.990534 0.271506
threshold=0.31722204387187963 -0.17411286383867261 -0.026621706783771511 -1.0000000180025095e-35 -0.050554281100630753 0.036915283650159843
decision_type=2 2 2 2 2 2
left_child=1 5 -3 4 -4 -1
right_child=-2 2 3 -5 -6 -7
leaf_value=-0.032469053648110702 -0.031286127644189601 0.035598012812829115 0.0088052611047359629 -0.032037631291614729 0.036039637978472414 -0.014557926709419343
leaf_weight=2.2107638567686148 3.8182403668761244 5.8503268808126494 1.944982018321755 4.1420527100562952 3.43189312890172 1.5475051365792749
leaf_count=25 65 78 22 40 49 21
internal_value=-1.69185e-05 0.0063553 0.0142999 0.000976141 0.0265288 -0.0256624
internal_weight=22.9458 19.1275 15.3693 9.51893 5.37688 3.75827
internal_count=300 235 189 111 71 46
is_linear=0
shrinkage=0.03


Tree=80
num_leaves=8
num_cat=0
split_feature=42 44 42 99 62 46 55
split_gain=4.95686 5.30126 5.7577 2.45581 2.04403 1.15616 0.106595
threshold=0.31722204387187963 0.014589389786124231 -0.37544332444667811 -0.048991287127137177 -0.06769323348999022 0.18843746185302737 0.11611664295196535
decision_type=2 2 2 2 2 2 2
left_child=1 2 -1 -3 -4 6 -5
right_child=-2 3 4 5 -6 -7 -8
leaf_value=0.033315127954474222 -0.031201337311399218 -0.0036192820483914945 0.00093000922747056352 0.032053664276340078 -0.033772508856082122 0.0038900379162748241 0.046356584100837546
leaf_weight=2.0260511972010136 3.7155797816812983 2.5427033007144955 2.2090664356946945 4.5768097080290273 4.8139940537512356 1.2462721914052961 1.3236850686371324
leaf_count=24 65 26 21 76 59 18 11
internal_value=-2.01095e-05 0.00629547 -0.0101628 0.0216129 -0.0229972 0.0305161 0.0359814
internal_weight=22.4542 18.7386 9.04911 9.68947 7.02306 7.14677 5.90049
internal_count=300 235 104 131 80 105 87
is_linear=0
shrinkage=0.03


Tree=81
num_leaves=7
num_cat=0
split_feature=42 44 46 43 78 59
split_gain=4.79535 5.10999 4.6129 8.62243 0.968398 0.260966
threshold=0.31722204387187963 -0.17411286383867261 -0.026621706783771511 -1.0000000180025095e-35 -0.050554281100630753 0.036915283650159843
decision_type=2 2 2 2 2 2
left_child=1 5 -3 4 -4 -1
right_child=-2 2 3 -5 -6 -7
leaf_value=-0.03218165349329629 -0.031118097143455769 0.035327146144433531 0.0085642490613600953 -0.031685119984750647 0.03579764882139181 -0.014312222746525135
leaf_weight=2.1042917333543367 3.6155313141643992 5.5747810825705573 1.914525263011458 4.0126490592956445 3.3050443567335606 1.5109313800930975
leaf_count=25 65 78 22 40 49 21
internal_value=-1.37551e-05 0.00622581 0.014041 0.000946795 0.0261573 -0.0252996
internal_weight=22.0378 18.4222 14.807 9.23222 5.21957 3.61522
internal_count=300 235 189 111 71 46
is_linear=0
shrinkage=0.03


Tree=82
num_leaves=8
num_cat=0
split_feature=42 44 42 99 62 48 55
split_gain=4.63919 4.92505 5.40824 2.6427 1.96032 1.61325 0.0777054
threshold=0.31722204387187963 0.014589389786124231 -0.37544332444667811 -0.070328328758478151 -0.06769323348999022 0.16213830560445788 0.12291369587183
decision_type=2 2 2 2 2 2 2
left_child=1 2 -1 -3 -4 6 -5
right_child=-2 3 4 5 -6 -7 -8
leaf_value=0.033061108792986078 -0.031036316612579034 -0.011257203118789905 0.00085782683975855513 0.031953095173464494 -0.033539083080429972 -0.0011981138840820419 0.045832790802874002
leaf_weight=1.9391534328460691 3.5180418677628031 1.7734736055135751 2.1778273582458496 5.1117266267538026 4.5960866250097805 1.3218427225947378 1.1287045702338216
leaf_count=24 65 18 21 89 59 13 11
internal_value=-1.70917e-05 0.00616681 -0.0100001 0.0212015 -0.0226288 0.0288612 0.0351468
internal_weight=21.5669 18.0488 8.71307 9.33575 6.77391 7.56227 6.24043
internal_count=300 235 104 131 80 113 100
is_linear=0
shrinkage=0.03


Tree=83
num_leaves=8
num_cat=0
split_feature=44 43 42 50 44 49 84
split_gain=4.51502 6.78607 3.43927 1.90458 1.61486 0.33805 0.0406685
threshold=0.23991566151380542 -0.17891298234462735 -0.3548073917627334 0.19092524051666263 -0.085528291761875139 0.14942338317632678 0.038350746035575874
decision_type=2 2 2 2 2 2 2
left_child=1 4 -3 5 -1 6 -4
right_child=-2 2 3 -5 -6 -7 -8
leaf_value=-0.0021139165591719696 0.032423470661302745 0.023550601305725366 -0.033598319944805249 0.0040810002229497112 0.032248213552652449 -0.014334236405493266 -0.022934278158968622
leaf_weight=1.7848681062459943 3.1707262732088557 1.4812961444258714 6.3588366173207707 1.7921625263988961 3.7834149263799253 1.3876405023038385 1.3905187584459779
leaf_count=13 50 20 89 18 67 22 21
internal_value=-1.19906e-05 -0.00588001 -0.0181889 -0.0240084 0.0213907 -0.0295025 -0.0320014
internal_weight=21.1495 17.9787 12.4105 10.9292 5.56828 9.137 7.74936
internal_count=300 250 170 150 80 132 110
is_linear=0
shrinkage=0.03


Tree=84
num_leaves=7
num_cat=0
split_feature=44 42 43 46 43 72
split_gain=4.38864 5.92998 5.01602 2.24982 3.8125 0.228181
threshold=0.085330896079540267 -0.37544332444667811 -0.23515231162309644 0.026638343930244449 0.064142305403947844 0.072486985474824919
decision_type=2 2 2 2 2 2
left_child=1 -1 -3 5 -5 -2
right_child=3 2 -4 4 -6 -7
leaf_value=0.032640575044175002 0.035689346428121334 0.014705151724288977 -0.031832617732928635 0.028341852831689295 -0.034747588431510511 0.018040416500832875
leaf_weight=2.2543592229485521 3.2353821396827689 2.7392579950392255 8.0045326091349107 1.7373137921094897 1.5242226906120775 1.2598602212965486
leaf_count=32 49 35 123 28 13 20
internal_value=-8.82386e-06 -0.0106419 -0.0199411 0.0177178 -0.0012985 0.0312432
internal_weight=20.7549 12.9981 10.7438 7.75678 3.26154 4.49524
internal_count=300 190 158 110 41 69
is_linear=0
shrinkage=0.03


Tree=85
num_leaves=9
num_cat=0
split_feature=42 8 44 42 43 62 84 50
split_gain=4.27694 4.53559 2.70566 2.43742 1.97002 1.90713 1.00917 0.0724069
threshold=0.31722204387187963 1.0000000180025095e-35 0.014589389786124231 -0.28983367979526514 0.32761134207248693 -0.034145502373576157 0.02008695621043444 0.20746777951717379
decision_type=2 2 2 2 2 2 2 2
left_child=1 2 3 -1 7 -5 -3 -4
right_child=-2 6 4 5 -6 -7 -8 -9
leaf_value=0.027042380037539438 -0.030839662831249861 -0.030609084880892194 0.031325648549831955 0.0094035677362145128 -0.0041165451712570338 -0.032601846554014699 0.00036729394294615744 0.045234957817724908
leaf_weight=1.8060975745320318 3.2809243872761717 2.8227812051773062 4.7061593793332577 1.665727034211159 1.4512884989380834 2.1235377155244404 1.396443363279104 1.0791564658284185
leaf_count=23 65 31 92 14 11 29 23 12
internal_value=-6.49703e-07 0.00607849 0.0149372 -0.000762355 0.0269211 -0.0143696 -0.0205856 0.0346447
internal_weight=20.3321 17.0512 12.832 5.59536 7.2366 3.78926 4.21922 5.78532
internal_count=300 235 181 66 115 43 54 104
is_linear=0
shrinkage=0.03


Tree=86
num_leaves=7
num_cat=0
split_feature=42 44 46 43 78 46
split_gain=4.13746 4.41722 4.09631 7.56546 0.913007 0.252119
threshold=0.31722204387187963 -0.17411286383867261 -0.026621706783771511 -1.0000000180025095e-35 -0.050554281100630753 -0.02844006102532148
decision_type=2 2 2 2 2 2
left_child=1 5 -3 4 -4 -1
right_child=-2 2 3 -5 -6 -7
leaf_value=-0.031589215904110388 -0.030762208713675212 0.034842589679818327 0.0079247650193784453 -0.031031000347893658 0.035395765630690371 -0.013228534444872661
leaf_weight=1.9406517185270789 3.192102435976266 5.0081562772393253 1.7905371002852941 3.6843220889568249 2.9917904585599899 1.3519546873867572
leaf_count=26 65 78 22 40 49 20
internal_value=1.31027e-06 0.00600558 0.0136259 0.000815611 0.0254834 -0.0246624
internal_weight=19.9595 16.7674 13.4748 8.46665 4.78233 3.29261
internal_count=300 235 189 111 71 46
is_linear=0
shrinkage=0.03


Tree=87
num_leaves=7
num_cat=0
split_feature=42 44 46 43 78 78
split_gain=4.0037 4.25087 3.97603 7.26408 0.908839 0.260516
threshold=0.31722204387187963 -0.17411286383867261 -0.026621706783771511 -1.0000000180025095e-35 -0.050554281100630753 -0.014671856071799992
decision_type=2 2 2 2 2 2
left_child=1 5 -3 4 -4 -1
right_child=-2 2 3 -5 -6 -7
leaf_value=-0.031492410788765517 -0.03068584230173441 0.034721933363631739 0.0077156283821199993 -0.030705839361550299 0.035252293658306462 -0.012791708435434665
leaf_weight=1.8990944214165213 3.1055999249219886 4.8771193958818939 1.7866688035428548 3.6137684062123219 2.9154092445969582 1.3355388529598773
leaf_count=27 65 78 22 40 49 19
internal_value=-2.44848e-06 0.00594874 0.0135137 0.000810679 0.0251676 -0.0243863
internal_weight=19.5332 16.4276 13.193 8.31585 4.70208 3.23463
internal_count=300 235 189 111 71 46
is_linear=0
shrinkage=0.03


Tree=88
num_leaves=9
num_cat=0
split_feature=8 42 44 84 43 44 47 42
split_gain=3.89236 4.02175 2.47818 2.21065 1.83626 1.5137 0.838395 0.0610533
threshold=1.0000000180025095e-35 0.31722204387187963 0.014589389786124231 -0.028249368071556088 0.32761134207248693 -0.085528291761875139 -1.0000000180025095e-35 0.21227932721376422
decision_type=2 2 2 2 2 2 2 2
left_child=1 2 3 -1 7 -5 -2 -4
right_child=6 -3 4 5 -6 -7 -8 -9
leaf_value=0.024623382402947386 -0.0056778479570713525 -0.030194738782936673 0.031007794257257033 -0.032242881670035133 -0.0039997996679684306 0.0069482887671514513 -0.031496312065648929 0.044977664627861576
leaf_weight=1.8860404305160043 1.801773529499769 2.0175133086740962 4.4000095091760159 1.8922448158264158 1.3896993435919283 1.5451723225414773 3.1991067230701438 0.98611993715167034
leaf_count=18 28 42 96 29 11 19 49 8
internal_value=-6.19103e-06 0.00806009 0.0146342 -0.000719384 0.0265318 -0.0149274 -0.0224878 0.0343387
internal_weight=19.1177 14.1168 12.0993 5.32346 6.77583 3.43742 5.00088 5.38613
internal_count=300 223 181 66 115 48 77 104
is_linear=0
shrinkage=0.03


Tree=89
num_leaves=7
num_cat=0
split_feature=44 43 44 42 101 95
split_gain=3.79447 5.83925 4.36262 1.80628 0.353736 0.143325
threshold=0.23991566151380542 0.084909152239561095 -0.17411286383867261 0.20119031518697741 0.018170928582549099 0.025190171785652641
decision_type=2 2 2 2 2 2
left_child=1 2 4 -4 -1 -3
right_child=-2 5 3 -5 -6 -7
leaf_value=-0.031245717714174795 0.031891762711851381 -0.033349163046950916 0.031370174950458442 0.0015492112907711454 -0.008740327521849979 -0.019566208277388718
leaf_weight=1.7859469614923038 2.7521244622766963 4.1110556162893763 4.5144481044262665 3.0452717058360577 1.0962547510862348 1.4783803299069402
leaf_count=27 50 57 89 31 18 28
internal_value=-6.01118e-06 -0.0056457 0.00761202 0.0195345 -0.0232658 -0.0301116
internal_weight=18.7835 16.0314 10.4419 7.55972 2.8822 5.58944
internal_count=300 250 165 120 45 85
is_linear=0
shrinkage=0.03


Tree=90
num_leaves=9
num_cat=0
split_feature=42 8 44 42 43 68 84 42
split_gain=3.68401 3.90465 2.33001 2.08426 1.762 1.38703 0.879589 0.0465767
threshold=0.31722204387187963 1.0000000180025095e-35 0.014589389786124231 -0.25939646363258356 0.32761134207248693 0.049175716936588294 0.02008695621043444 0.21227932721376422
decision_type=2 2 2 2 2 2 2 2
left_child=1 2 3 -1 7 -5 -3 -4
right_child=-2 6 4 5 -6 -7 -8 -9
leaf_value=0.023986013946366503 -0.030493090216154584 -0.02971740980985671 0.030874325625846535 -0.032369254835979626 -0.0038440278712027552 0.0057763075106897713 0.00046155827598654833 0.044444739143214278
leaf_weight=1.8698821663856504 2.8942955005913964 2.585024449974298 4.1637072656303644 1.7491623759269734 1.3596832007169721 1.5520165078341959 1.2807712219655512 0.96455569192767132
leaf_count=26 65 31 96 24 11 16 23 8
internal_value=-9.8221e-06 0.00583197 0.0144807 -0.000581255 0.026312 -0.0147929 -0.0199593 0.034228
internal_weight=18.4191 15.5248 11.659 5.17106 6.48795 3.30118 3.8658 5.12826
internal_count=300 235 181 66 115 40 54 104
is_linear=0
shrinkage=0.03


Tree=91
num_leaves=7
num_cat=0
split_feature=44 43 42 55 8 79
split_gain=3.58943 5.53583 4.49471 2.77475 0.556116 0.241633
threshold=0.23991566151380542 0.089738607406616225 0.16452504694461825 0.1316553205251694 1.0000000180025095e-35 -0.036468189209699624
decision_type=2 2 2 2 2 2
left_child=1 2 4 5 -1 -4
right_child=-2 -3 3 -5 -6 -7
leaf_value=0.031823723725530925 0.031746578922917643 -0.031264016314470872 -0.015186353168706652 0.019872313823471193 0.0075458357217888005 -0.032577651572924173
leaf_weight=3.9838128089904803 2.6262279748916617 4.9859028570353976 1.4646350219845774 1.5980620868504045 1.1665300317108629 2.2697580233216286
leaf_count=79 50 82 25 11 17 36
internal_value=-8.5743e-06 -0.00556915 0.00683197 -0.0123734 0.0265733 -0.0263307
internal_weight=18.0949 15.4687 10.4828 5.33246 5.15034 3.73439
internal_count=300 250 168 72 96 61
is_linear=0
shrinkage=0.03


Tree=92
num_leaves=7
num_cat=0
split_feature=44 42 43 46 43 72
split_gain=3.52204 4.84068 4.12275 1.87413 3.22086 0.17071
threshold=0.085330896079540267 -0.37544332444667811 -0.23515231162309644 0.026638343930244449 0.057112388312816627 0.072486985474824919
decision_type=2 2 2 2 2 2
left_child=1 -1 -3 5 -5 -2
right_child=3 2 -4 4 -6 -7
leaf_value=0.03189989136701446 0.034889553607966702 0.013789468456009995 -0.031234058946029472 0.029035155205633809 -0.033194056912488751 0.017707896873985697
leaf_weight=1.9250489138066775 2.7336156014353032 2.4279414694756269 6.7800325471907854 1.4281789585947993 1.3675090335309503 1.0740674082189796
leaf_count=32 49 35 123 27 14 20
internal_value=-6.80349e-06 -0.0102763 -0.0193417 0.0172021 -0.00149936 0.0306202
internal_weight=17.7364 11.133 9.20797 6.60337 2.79569 3.80768
internal_count=300 190 158 110 41 69
is_linear=0
shrinkage=0.03


Tree=93
num_leaves=7
num_cat=0
split_feature=44 42 43 46 43 72
split_gain=3.39003 4.66704 3.99582 1.80599 3.10586 0.176536
threshold=0.085330896079540267 -0.37544332444667811 -0.23515231162309644 0.026638343930244449 0.057112388312816627 0.072486985474824919
decision_type=2 2 2 2 2 2
left_child=1 -1 -3 5 -5 -2
right_child=3 2 -4 4 -6 -7
leaf_value=0.031763787667859256 0.034764568146040085 0.013436645965410408 -0.03109501334656524 0.028727796123441767 -0.032983209023001739 0.017345598510532564
leaf_weight=1.8764613848179585 2.662573235109448 2.4196970891207457 6.6090724002569914 1.4016292206943037 1.3360781483352182 1.0658219233155248
leaf_count=32 49 35 123 27 14 20
internal_value=2.92242e-06 -0.0101754 -0.0191441 0.0170624 -0.00148992 0.0303682
internal_weight=17.3713 10.9052 9.02877 6.4661 2.73771 3.7284
internal_count=300 190 158 110 41 69
is_linear=0
shrinkage=0.03


Tree=94
num_leaves=7
num_cat=0
split_feature=42 44 46 43 78 78
split_gain=3.30808 3.49871 3.35755 6.00391 0.851482 0.281427
threshold=0.31722204387187963 -0.17411286383867261 -0.026621706783771511 0.010240480303764345 -0.050554281100630753 0.0050858343020081529
decision_type=2 2 2 2 2 2
left_child=1 5 -3 4 -4 -1
right_child=-2 2 3 -5 -6 -7
leaf_value=-0.030923390363332064 -0.030255178895394669 0.034117606710392927 0.0065819179642496069 -0.029867938904686111 0.034646200754230742 -0.010320634981302422
leaf_weight=1.7420939933508646 2.6337682940065852 4.2008993905037642 1.6260782144963739 3.1714015360921621 2.5497676115483046 1.0919203609228132
leaf_count=29 65 78 22 40 49 17
internal_value=1.26107e-05 0.00572611 0.0130657 0.000732521 0.0241275 -0.0236076
internal_weight=17.0159 14.3822 11.5481 7.34725 4.17585 2.83401
internal_count=300 235 189 111 71 46
is_linear=0
shrinkage=0.03


Tree=95
num_leaves=7
num_cat=0
split_feature=42 44 42 62 99 48
split_gain=3.20211 3.36789 3.14173 2.00526 1.92151 1.21186
threshold=0.31722204387187963 0.014589389786124231 -0.3548073917627334 -0.069915566593408571 -0.070328328758478151 0.16213830560445788
decision_type=2 2 2 2 2 2
left_child=1 2 -1 -4 -3 -6
right_child=-2 4 3 -5 5 -7
leaf_value=0.026071777518334303 -0.030184185279361085 -0.010725148260363061 0.0081721663021128259 -0.031913394803261712 0.034045613832231716 -0.0012738633499437587
leaf_weight=1.6395570132881401 2.5620815530419341 1.4163422714918859 1.5348054897040126 3.7606014758348483 4.6796755809336892 1.0614208988845346
leaf_count=25 65 18 18 61 100 13
internal_value=8.36109e-06 0.00567154 -0.0091673 -0.020359 0.0199774 0.0276057
internal_weight=16.6545 14.0924 6.93496 5.29541 7.15744 5.7411
internal_count=300 235 104 79 131 113
is_linear=0
shrinkage=0.03


Tree=96
num_leaves=8
num_cat=0
split_feature=8 42 44 62 42 43 49
split_gain=3.10208 3.18045 1.97735 2.20725 2.1616 1.54071 0.708567
threshold=1.0000000180025095e-35 0.31722204387187963 0.014589389786124231 -0.069915566593408571 -0.25338955223560328 0.32761134207248693 0.092211239039897933
decision_type=2 2 2 2 2 2 2
left_child=1 2 3 -1 -5 -4 -2
right_child=6 -3 5 4 -6 -7 -8
leaf_value=0.030613368575688481 -0.029273401877894876 -0.02959425877573205 0.033721037471615645 0.017111679783207628 -0.031494943837518538 -0.0037298464929398411 -0.0023329076018543666
leaf_weight=1.3463482856750486 3.0298422798514357 1.6623871866613615 4.4778950605541468 1.2335986848920586 2.1049268115311879 1.2371873408555982 1.247145742177963
leaf_count=13 52 42 104 22 31 11 25
internal_value=7.12244e-06 0.00780121 0.0140036 -0.000490366 -0.0135593 0.025689 -0.0216505
internal_weight=16.3393 12.0623 10.4 4.68487 3.33853 5.71508 4.27699
internal_count=300 223 181 66 53 115 77
is_linear=0
shrinkage=0.03


Tree=97
num_leaves=7
num_cat=0
split_feature=42 44 46 43 78 95
split_gain=3.01387 3.16382 3.14124 5.56405 0.81148 0.284141
threshold=0.31722204387187963 -0.17411286383867261 -0.026621706783771511 0.010240480303764345 -0.050554281100630753 0.040196223184466369
decision_type=2 2 2 2 2 2
left_child=1 5 -3 4 -4 -1
right_child=-2 2 3 -5 -6 -7
leaf_value=-0.030689602297364491 -0.030053075275869326 0.03384673842156765 0.0063282783281099321 -0.029553071124898203 0.034291313652061527 -0.009542310919889262
leaf_weight=1.6375172641128313 2.4338687174022189 3.9256357084959745 1.5754457749426367 3.0243029538542032 2.4041151981800795 1.0370666794478891
leaf_count=28 65 78 22 40 49 18
