{
  "schemaVersion": "gatelm.difficulty-semantic-heads-artifact.v1",
  "version": "difficulty-semantic-heads.owner-approved-500.2026-07-15.v1",
  "encoderVersion": "difficulty-e5-encoder-pca64.2026-07-15.v1",
  "encoderHash": "8282e6f9475edcd6b9f8a87b4fd1e627fe7ee17d568ad038090f2e7a80487413",
  "encoderFrozen": true,
  "poolingVersion": "difficulty-attention-masked-mean.v2",
  "inputDimension": 64,
  "headOrder": [
    "semanticTaskBucket",
    "semanticConstraintBucket",
    "semanticScopeBucket",
    "semanticDependencyBucket"
  ],
  "semanticHeadProbabilityDimension": 12,
  "probabilityRule": "multinomial_linear_softmax.v1",
  "optimizerParameterScope": "semantic_heads_only",
  "trainingObjective": "fixed_unweighted_sum_multinomial_cross_entropy.v1",
  "headLossWeights": {
    "semanticTaskBucket": 1.0,
    "semanticConstraintBucket": 1.0,
    "semanticScopeBucket": 1.0,
    "semanticDependencyBucket": 1.0
  },
  "training": {
    "fitSplit": "train",
    "solver": "lbfgs",
    "penalty": "l2",
    "c": 1.0,
    "maxIterations": 1000,
    "randomSeed": 20260714,
    "datasetVersion": "difficulty_training_2026_07_15_owner_approved_500_v2",
    "datasetHash": "4f4b00a783ef6372a2d23baf77b0c793670a72f03f4636c6674c8e911662189f",
    "familyPolicyVersion": "difficulty-prompt-family.v1",
    "familyPolicy": "difficulty-training-minimum-family-policy.2026-07-14.v1",
    "trainSamples": 300,
    "trainFamilies": 51
  },
  "heads": [
    {
      "name": "semanticTaskBucket",
      "classes": [
        "count_1",
        "count_2",
        "count_3_plus"
      ],
      "coefficient": [
        [
          1.9129596343257163,
          2.5002709935996426,
          -2.2226522890431024,
          -1.438906672809486,
          -0.13105772026261728,
          0.10500487600767887,
          -0.19819213798305804,
          1.175720157855009,
          -0.24658919031585458,
          -0.009367726613622424,
          -0.4468872964200858,
          -0.3022243075045928,
          -0.2089077160847809,
          -1.234658101583752,
          0.20270573146736748,
          -0.3031103056961564,
          -0.2437748660357785,
          0.2893787155473011,
          -0.49335277588738197,
          -0.5396030390482462,
          -0.4238764623153268,
          -0.6049899252601957,
          0.009210450060286859,
          -0.970483813987544,
          -0.16239789685576878,
          1.1607088147534785,
          -0.15676299083578232,
          -0.18959719600766342,
          -0.6357165268997366,
          0.8109312463604461,
          0.05910016969763465,
          0.29179041620951224,
          -0.6569641423024444,
          0.07451735472945248,
          0.2684384775894782,
          -0.30882469428352777,
          -0.8180848002444174,
          0.3245998855358549,
          -0.6595423188032851,
          -0.4753936847418288,
          -0.07139578959281238,
          -0.9371951894779855,
          1.0266708252526744,
          0.010232129984922593,
          0.28471516257331314,
          -0.8944189003929236,
          0.26397002494809146,
          0.13235334735092014,
          -0.38962297699390636,
          -0.021660908151547444,
          0.09739881737309447,
          -0.3761813381039495,
          0.24347206358911352,
          0.9834371162804916,
          -0.11887759527984744,
          0.07592115717918578,
          0.11844450679692108,
          -0.4176228757668931,
          -0.6559907204577952,
          -0.17416017425318667,
          0.22748862720716248,
          0.16841613875177308,
          0.9582036054403092,
          0.5981050049767277
        ],
        [
          -0.8334570540395575,
          -1.2618707611591946,
          1.4574740070389072,
          1.4382298971481506,
          0.008602279404170302,
          -0.757917751334277,
          0.22722075109723544,
          -1.3169798509590447,
          -0.2765964365889439,
          -0.730661903728258,
          0.47756581709724055,
          0.3147346411420475,
          -0.3331818045119477,
          0.5463531876578239,
          0.13669595336274434,
          0.1543672620484221,
          0.6566124980652026,
          -0.7779217075344206,
          0.8033097288915806,
          0.29708593526564303,
          1.2281937220141945,
          -0.2611024375973453,
          -0.6913305381029924,
          0.5507481626727705,
          0.9472840429989177,
          0.3705284451872589,
          -0.08627928224542145,
          -0.1795833805132219,
          0.25875107407568637,
          -0.9262450778148775,
          0.70523576251522,
          -0.7550440076121654,
          0.04996123382561207,
          0.5725134565958769,
          0.3149188102262302,
          -0.1393683974889906,
          -0.3129530234083223,
          -1.0631218278085632,
          1.1963980932112894,
          0.04538017530105569,
          -0.2435542840273123,
          0.7001916109227266,
          -0.8365831000203462,
          0.4448062283939805,
          -0.737080188842396,
          0.31008950629392446,
          -0.059985884212594286,
          0.30687682058188226,
          -0.6379113074560583,
          0.42193444705245114,
          0.012573490124291594,
          -0.021739245247828682,
          -0.7627664092226494,
          -0.8223504910475902,
          -0.39563399728229726,
          -0.07085447666966485,
          -0.34954064185986755,
          0.3210348254703325,
          -0.06671677022027568,
          0.3078527703616632,
          0.07028978094242484,
          -0.3033066256828133,
          -0.7107218980670583,
          0.12383349954757075
        ],
        [
          -1.0795025802861584,
          -1.2384002324404473,
          0.7651782820041956,
          0.0006767756613361607,
          0.12245544085844748,
          0.6529128753265981,
          -0.02902861311417715,
          0.14125969310403624,
          0.5231856269047985,
          0.7400296303418802,
          -0.030678520677154594,
          -0.012510333637454917,
          0.5420895205967284,
          0.6883049139259277,
          -0.3394016848301118,
          0.1487430436477341,
          -0.41283763202942403,
          0.4885429919871198,
          -0.3099569530041987,
          0.24251710378260313,
          -0.8043172596988676,
          0.8660923628575409,
          0.6821200880427056,
          0.4197356513147737,
          -0.7848861461431488,
          -1.5312372599407371,
          0.24304227308120377,
          0.3691805765208851,
          0.3769654528240502,
          0.11531383145443157,
          -0.7643359322128546,
          0.4632535914026534,
          0.607002908476832,
          -0.6470308113253294,
          -0.5833572878157082,
          0.4481930917725184,
          1.13103782365274,
          0.7385219422727085,
          -0.5368557744080045,
          0.430013509440773,
          0.3149500736201249,
          0.2370035785552588,
          -0.19008772523232786,
          -0.4550383583789031,
          0.4523650262690828,
          0.5843293940989991,
          -0.2039841407354972,
          -0.4392301679328022,
          1.0275342844499644,
          -0.4002735389009039,
          -0.10997230749738598,
          0.3979205833517782,
          0.5192943456335358,
          -0.1610866252329015,
          0.5145115925621446,
          -0.005066680509520788,
          0.23109613506294652,
          0.09658805029656059,
          0.722707490678071,
          -0.13369259610847659,
          -0.29777840814958745,
          0.13489048693104028,
          -0.24748170737325093,
          -0.7219385045242984
        ]
      ],
      "intercept": [
        1.3540462274504979,
        -0.5298577410770258,
        -0.8241884863734416
      ]
    },
    {
      "name": "semanticConstraintBucket",
      "classes": [
        "count_0_to_1",
        "count_2",
        "count_3_plus"
      ],
      "coefficient": [
        [
          0.7304385752667094,
          -0.26172176679491854,
          -3.216492209052691,
          0.8081529834450855,
          0.8877341634645182,
          -0.08564219754852088,
          -2.2507399815738034,
          1.1236511768811905,
          -0.0982352359282508,
          0.9722683728063942,
          -0.5478494182313944,
          -0.9291482330622343,
          0.8999713075212921,
          0.18276919616204734,
          -0.21413418091978834,
          1.8431165374895002,
          -0.1499776867663233,
          0.34190380310914037,
          0.09054901339296212,
          0.11487113998451887,
          0.06389322616952847,
          -0.3241690200971436,
          0.31419596675150735,
          -0.04177008532861968,
          0.5700654852439593,
          -0.8518634433601947,
          0.053174897472810935,
          0.34866845421954523,
          -0.34328076281852804,
          -1.056770751483268,
          0.08809770958720281,
          -0.42133963594497353,
          0.21893384917651573,
          0.758855836544087,
          0.6330792645772935,
          -0.008375163699939944,
          0.9021968727613752,
          0.2831270564566328,
          0.2179305276226448,
          0.38414159609647675,
          0.8791656957934628,
          -0.2659987495836244,
          -0.00427946534524161,
          0.006378255466991137,
          -0.29876491183570936,
          -0.30125069325111925,
          0.13392159324875527,
          -0.6716752047244295,
          0.44685930742848345,
          0.4013760255840007,
          0.4808017759928228,
          0.14775320600479955,
          0.4423884980602252,
          0.1958892631439133,
          -0.2621911875744172,
          -0.22235634270032156,
          -0.5383761879624964,
          -0.08030270741871123,
          -0.5267464619292981,
          0.4067445445244112,
          -0.7350472576229048,
          0.1269107037509992,
          0.700493871906185,
          0.023183207887392247
        ],
        [
          0.3379003029333921,
          1.0935372304027597,
          0.32298467325956337,
          -0.8740222051149269,
          0.038699848563229895,
          -0.09148029637365053,
          0.48693790165516754,
          -1.957770213109031,
          -0.15131454930836777,
          -0.7565265541033175,
          -0.4427922716115305,
          0.8633883418419865,
          -0.1708312481382127,
          -0.10193456989935333,
          -1.0498625965657649,
          -1.210569537318523,
          0.2660931323537223,
          -0.49034281144662023,
          0.4570482213343881,
          -0.29067514199200284,
          -0.626588785197109,
          -0.43054216678622526,
          -0.8847109427829261,
          0.4659328162751629,
          0.19472837883077382,
          -0.284228148529311,
          0.0769707575945172,
          -0.4911014368955814,
          0.5282744871409717,
          0.53105774401924,
          0.4323432868678377,
          0.49040711431816036,
          -0.2196293633905052,
          -0.919480865194954,
          0.32621449614179554,
          0.8331794200863759,
          0.22031947823399164,
          -0.7117971447494847,
          -1.0373560715697663,
          -0.6465217963932525,
          0.5392655514642665,
          0.2660339248864348,
          -0.9817111134544779,
          0.021516149115366152,
          0.2311129717828071,
          0.3882554574570177,
          0.07448007199606099,
          0.6618155443743517,
          -1.2293763936592488,
          -0.20125504687914691,
          -0.6265085932402368,
          -0.6783999897322097,
          0.017305233348731557,
          -0.6337775705611776,
          0.16265499530682162,
          0.03387448312437575,
          0.4512958869385579,
          0.4819202267384622,
          -0.12443923872666951,
          -0.7160853819071538,
          -0.36842461069135674,
          0.8529519323336342,
          -0.7918735886835018,
          0.09966000054429457
        ],
        [
          -1.0683388782001013,
          -0.8318154636078421,
          2.8935075357931277,
          0.06586922166984115,
          -0.926434012027748,
          0.17712249392217158,
          1.7638020799186354,
          0.8341190362278407,
          0.24954978523661847,
          -0.21574181870307688,
          0.9906416898429248,
          0.06575989122024722,
          -0.7291400593830791,
          -0.08083462626269389,
          1.2639967774855538,
          -0.6325470001709776,
          -0.116115445587399,
          0.14843900833747958,
          -0.5475972347273499,
          0.17580400200748364,
          0.5626955590275805,
          0.754711186883369,
          0.5705149760314181,
          -0.4241627309465431,
          -0.7647938640747327,
          1.136091591889506,
          -0.13014565506732806,
          0.1424329826760362,
          -0.1849937243224437,
          0.5257130074640284,
          -0.5204409964550406,
          -0.06906747837318697,
          0.0006955142139893567,
          0.16062502865086684,
          -0.9592937607190889,
          -0.8248042563864356,
          -1.1225163509953668,
          0.4286700882928519,
          0.8194255439471212,
          0.26238020029677595,
          -1.418431247257729,
          -3.517530281062796e-05,
          0.9859905787997193,
          -0.027894404582357472,
          0.06765194005290216,
          -0.08700476420589812,
          -0.20840166524481635,
          0.009859660350077936,
          0.7825170862307654,
          -0.20012097870485385,
          0.145706817247414,
          0.5306467837274101,
          -0.45969373140895703,
          0.4378883074172642,
          0.09953619226759551,
          0.18848185957594585,
          0.08708030102393885,
          -0.401617519319751,
          0.6511857006559679,
          0.3093408373827425,
          1.1034718683142617,
          -0.9798626360846333,
          0.09137971677731686,
          -0.12284320843168692
        ]
      ],
      "intercept": [
        0.17016712682411267,
        -0.30881328098270755,
        0.13864615415861703
      ]
    },
    {
      "name": "semanticScopeBucket",
      "classes": [
        "count_1",
        "count_2_to_3",
        "count_4_plus"
      ],
      "coefficient": [
        [
          2.0963471522000185,
          4.222313117710581,
          0.0045750144642564715,
          -0.209263501338833,
          0.10058032839289414,
          -0.5162451815759195,
          -0.5012956818932538,
          -1.0197146238975234,
          -0.6479685448334321,
          0.5338727409724761,
          -0.1993881527394933,
          0.029510927189969338,
          0.41681717241980304,
          -0.6212506642500821,
          -0.10877862767490641,
          -0.45459748853230364,
          0.5731594794027938,
          0.40959668116197473,
          0.12372138231657427,
          -0.06374922715489834,
          -0.9296422465461871,
          0.7345349490960796,
          -0.5293034266778139,
          -0.647599116015075,
          -0.09237942054018504,
          1.2989421775519991,
          -0.08906863462062474,
          -0.120066129125375,
          0.5593039495344218,
          -0.7414632861189168,
          0.2794660815760666,
          -0.26024134263747195,
          -0.5309010714334336,
          0.2460372744076949,
          0.6282123830962302,
          0.24457231310426455,
          -0.11562965412086988,
          -0.1731011099620289,
          -0.6175458071267554,
          0.07913155786092188,
          0.11088208710753127,
          -0.05689580416587815,
          -0.28416040635745354,
          -0.12258971679425013,
          0.032865114490906684,
          0.0017780609416476094,
          -0.5210664210959701,
          -0.10542861451381139,
          -0.7290905268272071,
          0.6466861848804788,
          -0.29120728227922066,
          -0.5162361906787434,
          0.2335062220109922,
          0.3792809239104395,
          0.3251318117305229,
          -0.514288070806399,
          0.029413061721901286,
          -0.5322677008151548,
          -0.5525833116824942,
          -0.061030907341970676,
          0.40319909114997626,
          0.01403502434842763,
          -0.0855913733200185,
          0.6079149605331866
        ],
        [
          -0.22978263794482565,
          -1.830750061630125,
          -0.6088851958537652,
          1.6895021665391126,
          -0.4770638048296893,
          1.1105144895495809,
          0.5106275135027608,
          0.1271300757765831,
          0.6232843665115899,
          -0.28927397427279067,
          0.5812676135580312,
          -0.05548561171419859,
          -1.3465215971920055,
          0.427191564722707,
          0.15496981523403836,
          0.04374314987053478,
          -1.2122086048759417,
          0.05521794376499766,
          -0.20948040616041855,
          -0.6461184444051047,
          0.3303930440937571,
          -0.11524979467618737,
          0.6189677253689013,
          0.755240848024132,
          -0.12024775618083347,
          -1.1680872209261612,
          1.1908771994734744,
          0.8525163667146367,
          -0.02247864863304789,
          0.31456243584434485,
          0.29418900845247475,
          -0.38558243953024957,
          0.29105442242466306,
          -0.05405613002870208,
          -0.11797666396403313,
          -0.4325124253142504,
          -0.3577574464278184,
          1.2824471825513948,
          0.39385217728788785,
          0.07702191365415445,
          0.33811741607372947,
          -0.27940493014116186,
          -0.6840190482317329,
          0.10374717641993576,
          -0.4606891309593774,
          -0.6685767909856979,
          0.5266046024969194,
          0.44648395392363216,
          0.3886759169655519,
          -0.4558466010832122,
          0.27879041001017457,
          0.2656166015706518,
          -0.13210219766740938,
          -0.3689311940183102,
          -0.39484922901678315,
          0.5181425084841874,
          0.12182322721826945,
          0.3770650421147152,
          0.1312589583279565,
          -0.12503415325654063,
          -0.5069489875846208,
          0.010630448748231632,
          0.7187157996727299,
          -0.5708333226129819
        ],
        [
          -1.8665645142551919,
          -2.391563056080456,
          0.6043101813895085,
          -1.4802386652002797,
          0.3764834764367945,
          -0.5942693079736608,
          -0.009331831609506664,
          0.8925845481209402,
          0.024684178321842182,
          -0.24459876669968533,
          -0.3818794608185378,
          0.025974684524229165,
          0.9297044247722024,
          0.19405909952737518,
          -0.046191187559131965,
          0.41085433866176907,
          0.6390491254731481,
          -0.46481462492697256,
          0.08575902384384466,
          0.709867671560003,
          0.59924920245243,
          -0.6192851544198925,
          -0.08966429869108744,
          -0.10764173200905729,
          0.21262717672101855,
          -0.13085495662583782,
          -1.1018085648528495,
          -0.7324502375892616,
          -0.536825300901374,
          0.426900850274572,
          -0.5736550900285412,
          0.6458237821677215,
          0.23984664900877056,
          -0.19198114437899283,
          -0.5102357191321972,
          0.18794011220998605,
          0.47338710054868827,
          -1.1093460725893658,
          0.2236936298388676,
          -0.15615347151507633,
          -0.44899950318126064,
          0.33630073430704,
          0.9681794545891866,
          0.01884254037431439,
          0.42782401646847074,
          0.6667987300440504,
          -0.005538181400949518,
          -0.3410553394098206,
          0.34041460986165517,
          -0.1908395837972668,
          0.012416872269046161,
          0.2506195891080915,
          -0.10140402434358284,
          -0.010349729892129157,
          0.06971741728626007,
          -0.003854437677788125,
          -0.1512362889401706,
          0.15520265870043953,
          0.42132435335453794,
          0.18606506059851116,
          0.1037498964346447,
          -0.02466547309665932,
          -0.6331244263527116,
          -0.03708163792020493
        ]
      ],
      "intercept": [
        0.8495894646198916,
        0.015612023934685446,
        -0.8652014885545383
      ]
    },
    {
      "name": "semanticDependencyBucket",
      "classes": [
        "depth_0_to_1",
        "depth_2",
        "depth_3_plus"
      ],
      "coefficient": [
        [
          2.6740917947479725,
          3.357283373975,
          -3.5662381972828827,
          -0.40964995007243804,
          0.8725314935320414,
          0.23422529236464665,
          -0.03825671297741274,
          -0.15835419487853752,
          -0.51051350960182,
          0.344136169312905,
          -0.2337344894438449,
          0.3435171535907958,
          0.23791341838806776,
          -0.06690349883772698,
          -0.30983213889062444,
          -0.1488768499837195,
          -0.11653714677314397,
          0.46155093196317587,
          0.15125622482504694,
          -0.39808102502733433,
          -0.35102535813857944,
          0.006906280547020097,
          -0.06756380271705972,
          -0.5772670821561704,
          0.2447735156086461,
          0.019129678005183535,
          0.19791962163697396,
          0.13285254678954342,
          0.33349217237846424,
          0.0031323465040061717,
          -0.03279884861870715,
          0.016448195381537908,
          -0.19364721533415527,
          0.04550762167015192,
          0.06291542141047525,
          0.11360875308861951,
          -0.3678833614886925,
          0.04506696042251172,
          0.014974107694349346,
          -0.2422128200010684,
          -0.09816949273934232,
          -0.2685052109893233,
          0.09082434133031163,
          -0.052838324452998145,
          0.18106614125061993,
          -0.08490259621839809,
          0.1197639175426203,
          -0.29594076590174456,
          -0.26865067732068687,
          0.0995077639891308,
          0.1519532663405179,
          -0.16464137456732963,
          0.28695140626185833,
          0.35874695076792706,
          -0.042179768456820275,
          -0.07357142405507064,
          -0.2482550445908359,
          -0.11483553427288481,
          -0.15964181870624086,
          0.05069190011382251,
          0.12810173139351466,
          0.2697649542196393,
          0.11847759409494166,
          0.050422289702439116
        ],
        [
          -1.00712538728758,
          -0.7279498758267807,
          3.2552693982445624,
          0.6328158556657334,
          -1.2705477491993544,
          0.7583337123237887,
          -0.04906730696564148,
          0.11319472176272934,
          0.2428387334657866,
          -0.21633344560823256,
          0.8497442186384573,
          -0.8631142886385355,
          -0.631353815034563,
          -0.7049426082909844,
          0.31278534507492034,
          -0.3912498247584401,
          -0.24756410618705135,
          -0.0886956927301185,
          0.4371720347186743,
          -0.16955704571396304,
          0.6009366395083287,
          -1.3442669932774571,
          0.06186632803280366,
          -0.48357020610197865,
          -0.3720854251258249,
          0.5593225831920956,
          -0.18109926705394677,
          -0.5553091630657208,
          -0.5122623729548745,
          0.7904584337789533,
          -0.14712586640944345,
          -0.6314173192697491,
          -0.01748506155246862,
          -0.2004522379849675,
          -0.15185803507946083,
          -1.070781203206987,
          -0.6340604859453914,
          0.02756464092876718,
          -0.02650558621303887,
          0.19996813379746867,
          -0.20821607183391067,
          0.6356145491592009,
          0.17560274632250994,
          0.38460512272947367,
          0.11230118015895225,
          -0.014447629028721019,
          -0.2552874799316311,
          0.6995480899303618,
          -0.10906363599721114,
          0.12001543249814951,
          -0.16091908341749137,
          0.6060897842287949,
          -0.6131560233809293,
          -0.031220470203470147,
          -0.3290572638950507,
          0.3342375169915104,
          0.06893361832260245,
          -0.05629111194456831,
          0.13852833650040855,
          -0.676373967486904,
          -0.04740068209376593,
          0.005102986394173212,
          0.35039099785859873,
          0.331585617792582
        ],
        [
          -1.6669664074603923,
          -2.629333498148218,
          0.3109687990383215,
          -0.22316590559329522,
          0.3980162556673129,
          -0.9925590046884346,
          0.08732401994305422,
          0.045159473115808445,
          0.2676747761360332,
          -0.12780272370467244,
          -0.6160097291946116,
          0.5195971350477395,
          0.3934403966464951,
          0.7718461071287118,
          -0.002953206184295948,
          0.5401266747421595,
          0.3641012529601954,
          -0.3728552392330574,
          -0.5884282595437212,
          0.5676380707412976,
          -0.24991128136974886,
          1.3373607127304366,
          0.005697474684255928,
          1.0608372882581492,
          0.12731190951717897,
          -0.5784522611972789,
          -0.01682035458302711,
          0.4224566162761771,
          0.1787702005764101,
          -0.7935907802829595,
          0.17992471502815052,
          0.6149691238882111,
          0.21113227688662387,
          0.1549446163148156,
          0.08894261366898547,
          0.9571724501183674,
          1.0019438474340843,
          -0.07263160135127882,
          0.011531478518689546,
          0.04224468620359994,
          0.3063855645732531,
          -0.3671093381698775,
          -0.2664270876528216,
          -0.3317667982764756,
          -0.2933673214095724,
          0.09935022524711914,
          0.13552356238901073,
          -0.40360732402861754,
          0.377714313317898,
          -0.2195231964872803,
          0.00896581707697334,
          -0.44144840966146515,
          0.32620461711907145,
          -0.3275264805644571,
          0.3712370323518709,
          -0.26066609293643983,
          0.17932142626823364,
          0.17112664621745316,
          0.021113482205832305,
          0.6256820673730816,
          -0.08070104929974874,
          -0.27486794061381237,
          -0.46886859195354036,
          -0.38200790749502117
        ]
      ],
      "intercept": [
        0.6508559440978253,
        0.16239013719775458,
        -0.8132460812955677
      ]
    }
  ],
  "artifactContentHash": "64b0590af9a9cbb8bfc62d43bdcb2930ae584eee59e2707aa9c4af7b358ef9fb"
}
