{
  "schemaVersion": "gatelm.difficulty-semantic-heads-artifact.v1",
  "version": "difficulty-semantic-heads.owner-approved-500.single-request.2026-07-15.v2",
  "encoderVersion": "difficulty-e5-encoder-pca64-single-request.2026-07-15.v2",
  "encoderHash": "0f828d6a93f5600dff529e4194736fe79d43c04fa4ec9257374f1e092126f76e",
  "encoderFrozen": true,
  "poolingVersion": "difficulty-attention-masked-mean.v2",
  "inputDimension": 64,
  "headOrder": [
    "semanticTaskBucket",
    "semanticConstraintBucket",
    "semanticScopeBucket",
    "semanticDependencyBucket"
  ],
  "semanticHeadProbabilityDimension": 12,
  "probabilityRule": "multinomial_linear_softmax.v1",
  "optimizerParameterScope": "semantic_heads_only",
  "trainingObjective": "fixed_unweighted_sum_multinomial_cross_entropy.v1",
  "headLossWeights": {
    "semanticTaskBucket": 1.0,
    "semanticConstraintBucket": 1.0,
    "semanticScopeBucket": 1.0,
    "semanticDependencyBucket": 1.0
  },
  "training": {
    "fitSplit": "train",
    "solver": "lbfgs",
    "penalty": "l2",
    "c": 1.0,
    "maxIterations": 1000,
    "randomSeed": 20260714,
    "datasetVersion": "difficulty_training_2026_07_15_owner_approved_500_v2",
    "datasetHash": "4f4b00a783ef6372a2d23baf77b0c793670a72f03f4636c6674c8e911662189f",
    "familyPolicyVersion": "difficulty-prompt-family.v1",
    "familyPolicy": "difficulty-training-minimum-family-policy.2026-07-14.v1",
    "trainSamples": 300,
    "trainFamilies": 51
  },
  "heads": [
    {
      "name": "semanticTaskBucket",
      "classes": [
        "count_1",
        "count_2",
        "count_3_plus"
      ],
      "coefficient": [
        [
          1.922176390074182,
          2.451564203111563,
          -2.247109297225468,
          -1.4983057446280372,
          -0.21297454723250467,
          0.27228608522172526,
          -0.08870424408159422,
          1.1507516883666247,
          -0.30806051984068544,
          0.06100327793361952,
          -0.5243499338347235,
          -0.30672698478401106,
          -0.0226762152035066,
          -0.7371341004420469,
          -1.094459759783387,
          -0.3271336616378734,
          -0.09371028275258705,
          0.7144986329774472,
          -0.2667821979086222,
          0.3809655077643839,
          0.6176037923644673,
          0.4209379257876487,
          -0.16107439918801256,
          -0.37365343602745094,
          0.44479646851396554,
          -1.1029881773786168,
          -0.1351834107897223,
          -0.17069475807722412,
          1.0993708885167646,
          -0.45564951587497204,
          0.6578521112443381,
          -0.17948551096827367,
          -0.2566698094687573,
          0.9267751190781328,
          -0.15822191201423144,
          0.2588898465942096,
          -0.5898817567656087,
          0.5234024344141084,
          0.20702106087628055,
          -0.45061679698528745,
          0.23711517854606504,
          1.5840043784009903,
          -0.3627022904707443,
          0.15814786240928158,
          -0.31262626852107883,
          -0.0362062186959466,
          0.5206276941369088,
          0.43543766641733567,
          0.240184083734799,
          -0.2596964126369184,
          -0.5763262879266923,
          -0.19063467533973152,
          -0.561176320861883,
          -0.15403605961771993,
          0.2143655669088833,
          -0.6996725700995068,
          -0.1924266676973562,
          0.10562333895853969,
          -0.8084177720073862,
          0.48056750614153343,
          0.5690266883315279,
          0.21628410929983197,
          0.19896943640596196,
          -0.5387802799138758
        ],
        [
          -0.8436969341217865,
          -1.2595559066951323,
          1.528450932333398,
          1.4740210173066504,
          0.02804682464006718,
          -0.6925174499220552,
          -0.03503364402140702,
          -1.3342163649164254,
          -0.20194653289041065,
          -0.887733250898624,
          0.4597675363747522,
          0.19190585745496153,
          -0.4527268821512667,
          -0.03136196155289509,
          0.6296466250398387,
          1.00102727481458,
          -0.6541054343308712,
          -1.1167991773424315,
          0.1389997346317007,
          -0.41204544386426634,
          -0.8841164033708906,
          0.33748105055115674,
          -0.8800995813591836,
          0.6536852043239811,
          -0.12436287054995414,
          -0.34690533283559527,
          -0.568067398600563,
          0.0016070194986697154,
          -0.49471731427265764,
          0.6324349620997294,
          -0.9521979995093902,
          0.2418012165153289,
          -0.13706793315801408,
          0.3930110258373788,
          0.42981238264408583,
          0.07429010775623447,
          -0.43737754334287676,
          0.007765779814123339,
          -0.7881864604789809,
          1.234612563761341,
          -0.028294080251383493,
          -1.6312381083412553,
          0.15932750996967268,
          -0.4099881812730842,
          -0.4030562601986603,
          0.02422475994745589,
          -0.4312040172360646,
          0.01820024815321387,
          0.636845471835241,
          -0.05841794722676772,
          0.07166238605465795,
          -0.2690965014567461,
          0.4736050537694152,
          0.3760463135559744,
          -0.5354482732781509,
          -0.16524408701779625,
          -0.06965626392031621,
          0.5218914062852335,
          0.3894454130301583,
          0.0005301182150581306,
          -0.30460954119225864,
          -0.5436461482886554,
          0.016364734070386026,
          -0.5755304048901322
        ],
        [
          -1.0784794559523956,
          -1.192008296416431,
          0.7186583648920705,
          0.02428472732138743,
          0.18492772259243784,
          0.42023136470032996,
          0.12373788810300092,
          0.18346467654980073,
          0.5100070527310968,
          0.8267299729650042,
          0.06458239745997152,
          0.11482112732904959,
          0.4754030973547738,
          0.7684960619949418,
          0.46481313474354835,
          -0.6738936131767067,
          0.7478157170834585,
          0.4023005443649841,
          0.12778246327692125,
          0.031079936099882615,
          0.2665126110064235,
          -0.7584189763388052,
          1.0411739805471962,
          -0.28003176829653,
          -0.32043359796401155,
          1.4498935102142114,
          0.7032508093902853,
          0.1690877385785544,
          -0.6046535742441073,
          -0.17678544622475717,
          0.2943458882650517,
          -0.06231570554705512,
          0.39373774262677186,
          -1.3197861449155113,
          -0.27159047062985464,
          -0.33317995435044423,
          1.0272593001084855,
          -0.5311682142282315,
          0.5811653996027005,
          -0.7839957667760536,
          -0.20882109829468154,
          0.047233729940264466,
          0.20337478050107202,
          0.2518403188638027,
          0.7156825287197391,
          0.011981458748490482,
          -0.08942367690084405,
          -0.4536379145705493,
          -0.8770295555700398,
          0.3181143598636861,
          0.5046639018720342,
          0.4597311767964776,
          0.08757126709246743,
          -0.2220102539382544,
          0.3210827063692677,
          0.8649166571173029,
          0.26208293161767254,
          -0.627514745243773,
          0.41897235897722795,
          -0.4810976243565917,
          -0.26441714713926906,
          0.3273620389888236,
          -0.2153341704763481,
          1.114310684804008
        ]
      ],
      "intercept": [
        1.3512315664733083,
        -0.5278388659312439,
        -0.823392700542036
      ]
    },
    {
      "name": "semanticConstraintBucket",
      "classes": [
        "count_0_to_1",
        "count_2",
        "count_3_plus"
      ],
      "coefficient": [
        [
          0.7381668163984303,
          -0.2691075838365761,
          -3.1012433770454555,
          0.8533975572582176,
          0.8839777419098317,
          0.12839262276805538,
          -2.3305764058519487,
          1.243280936546149,
          -0.13835305571264098,
          1.3534367683440278,
          -0.34523401865233316,
          -0.6785567565299023,
          0.3077157443463335,
          0.7428114677982117,
          -0.13938670313187967,
          1.0858495225569522,
          1.522739113125311,
          0.041448588327370375,
          -0.2961392131707624,
          -0.32030858497429693,
          -0.120731897380454,
          0.42261099283362613,
          0.04090426320290322,
          0.7627195452831392,
          -0.08851609516418574,
          0.37074774814727524,
          -0.06779583698863564,
          0.39163285011147525,
          -0.8880829087497124,
          0.8591579467713004,
          -0.1333674992524897,
          0.5461773141145677,
          -0.29056567373065534,
          0.2561005611060905,
          -0.8696087817569061,
          -0.44637745187953104,
          0.37176382448996925,
          -0.6186777672642029,
          -0.06613826208076852,
          -0.0474842972618063,
          -0.8919548967142085,
          0.5318809176233404,
          0.09640589099736556,
          -0.48692408882107163,
          -0.12519970387426324,
          -0.08799296478699241,
          0.26552198600788507,
          -0.3502556898099468,
          0.04753538241951465,
          0.9468822480786714,
          -0.2118661643145778,
          -0.5141043570602093,
          -0.09413393902028719,
          -0.26579693725711134,
          0.004837518269355586,
          -0.6343701549859513,
          0.25592954029930154,
          -0.019404045659942127,
          0.24831839675167544,
          0.6230795050191237,
          0.2549057283601019,
          0.39662897169767913,
          0.7488221130342585,
          0.3732383853646778
        ],
        [
          0.30618666153843865,
          1.0096846553891081,
          0.18322449083021342,
          -0.8594982000858611,
          0.25779894165366907,
          -0.15571439735538123,
          0.4735763737660374,
          -1.7759906817182154,
          -0.20799954814308266,
          -0.8483921703510837,
          -0.725298546455464,
          0.7324541923215784,
          0.2747615028479248,
          0.6217385741949766,
          0.27162373871340073,
          -0.5576175914909987,
          -1.598753417567149,
          -0.11404189319797133,
          0.23397605732323498,
          0.26186092622235646,
          0.6981642012966687,
          -0.28956294665599625,
          -0.690097210991196,
          0.44875797269646184,
          0.17289920990302737,
          0.26201523395464776,
          -0.04620700443046238,
          -0.6656533528144497,
          0.41069296131389277,
          -0.3590172851325579,
          -0.812021175056835,
          -0.7144170929697773,
          0.251330941751059,
          -0.5503485628513333,
          0.09221967605251598,
          1.408027743573111,
          0.9560229613376402,
          0.7689316708693418,
          1.0305447100074585,
          0.3974263718810803,
          -0.049299320870597824,
          -0.5506914569812359,
          0.24867744392216404,
          -0.37743400615568884,
          -0.04224982178340431,
          0.2461505726421108,
          -0.2978072592906097,
          0.2795685031630813,
          0.6869951102649366,
          -1.5919587204914565,
          0.39093711684292753,
          -0.17161103877281944,
          0.2313923945354735,
          0.15393732337328758,
          0.2007650563451191,
          0.09005249284645954,
          -0.0017391346515041022,
          0.020317461946398704,
          0.002728435667778818,
          -0.30193272885371625,
          -0.4785530393424419,
          0.822754523808413,
          -0.8686194510383878,
          -0.3166257510959464
        ],
        [
          -1.0443534779368686,
          -0.7405770715525325,
          2.9180188862152425,
          0.006100642827643703,
          -1.1417766835635006,
          0.02732177458732542,
          1.8570000320859115,
          0.5327097451720665,
          0.34635260385572386,
          -0.5050445979929433,
          1.0705325651077973,
          -0.053897435791676426,
          -0.5824772471942584,
          -1.3645500419931884,
          -0.13223703558152144,
          -0.5282319310659531,
          0.07601430444183883,
          0.07259330487060087,
          0.062163155847527456,
          0.05844765875194049,
          -0.5774323039162148,
          -0.13304804617762944,
          0.6491929477882924,
          -1.2114775179796016,
          -0.08438311473884172,
          -0.6327629821019227,
          0.11400284141909782,
          0.2740205027029744,
          0.47738994743581975,
          -0.5001406616387423,
          0.9453886743093246,
          0.16823977885520944,
          0.03923473197959628,
          0.29424800174524285,
          0.77738910570439,
          -0.9616502916935791,
          -1.3277867858276098,
          -0.15025390360513838,
          -0.96440644792669,
          -0.34994207461927396,
          0.9412542175848065,
          0.01881053935789535,
          -0.3450833349195296,
          0.8643580949767605,
          0.16744952565766758,
          -0.15815760785511837,
          0.032285273282724465,
          0.07068718664686548,
          -0.7345304926844508,
          0.6450764724127845,
          -0.17907095252835006,
          0.6857153958330289,
          -0.13725845551518626,
          0.11185961388382397,
          -0.2056025746144747,
          0.544317662139492,
          -0.2541904056477978,
          -0.000913416286456644,
          -0.2510468324194543,
          -0.3211467761654074,
          0.22364731098233998,
          -1.2193834955060918,
          0.11979733800412924,
          -0.05661263426873162
        ]
      ],
      "intercept": [
        0.17303954814232453,
        -0.30318567834060395,
        0.13014613019830382
      ]
    },
    {
      "name": "semanticScopeBucket",
      "classes": [
        "count_1",
        "count_2_to_3",
        "count_4_plus"
      ],
      "coefficient": [
        [
          2.1058690300281326,
          4.221471194138187,
          -0.056754365801241734,
          -0.21660565786194744,
          0.3003329483531067,
          -0.34891913986954937,
          -0.6660296415989744,
          -0.8447058468566455,
          -0.5650401859603584,
          0.5975534929716392,
          -0.15710335891072758,
          -0.008102411964940494,
          0.3904187439548038,
          -0.45731651314888727,
          -0.37825954974757536,
          0.09352349979588397,
          -0.6595343937711702,
          0.5709345509969774,
          0.5774560804887671,
          -0.1395063879536225,
          0.6049029135562813,
          -0.827051201472595,
          0.24584385141378207,
          -0.5506107031168844,
          0.22311716597453382,
          -1.5226348785979003,
          -0.5277329633701546,
          -0.29579944962789073,
          -0.5681421860571692,
          0.14864393556644223,
          -0.44599717286554935,
          -0.059702633447178244,
          0.23729839766627217,
          0.5624591285943916,
          -0.3800928293119144,
          0.7376213452318706,
          0.06882430692435067,
          0.40439006729642346,
          0.3180834469313684,
          -0.12431356026353524,
          -0.14139992252185396,
          -0.15660394976352393,
          0.03144498079550115,
          -0.3475268542240592,
          0.11986054860513219,
          -0.1859406580699884,
          -0.3517367957575651,
          -0.23029366079991612,
          0.5231484814165046,
          -0.6750343396151303,
          -0.09951433420799582,
          -0.15239311270773614,
          -0.7053823403453868,
          -0.594232890669706,
          -0.6374084182393864,
          -0.5598726546556502,
          -0.33356639979954106,
          -0.2103123008300141,
          -0.48709091557678863,
          -0.09372505765491769,
          -0.1320914579175852,
          -0.17524625870412588,
          0.370159288418237,
          -0.27466101481390665
        ],
        [
          -0.22881755975310408,
          -1.8444235568166503,
          -0.540120896123489,
          1.6541586057387645,
          -0.48745051425166486,
          1.0685425765294334,
          0.7101408545390633,
          -0.07997543844408446,
          0.6703440933612952,
          -0.5182848716365246,
          0.5990274641654155,
          -0.00412197265312102,
          -1.036501336316487,
          0.6146986733515991,
          -0.05720427917919692,
          -1.3161052752476992,
          0.8017699400013011,
          -0.06850797497989407,
          0.060137088273317506,
          0.5198668883580954,
          -0.30912265176450604,
          0.4142492719531529,
          0.11242845801176923,
          0.3193754613643078,
          -0.6335306487966288,
          1.6554037767034342,
          -0.5324829265105061,
          1.0355996539033847,
          0.34234349122477875,
          -0.18247547462833325,
          -0.20441922350920236,
          0.17301794538131465,
          -0.40095537288400934,
          -0.04859167338264646,
          -0.0035640268643059463,
          -0.8252410062020953,
          -0.8616236427091477,
          -0.3776644097514031,
          0.4443335326442935,
          -0.44101444388308053,
          0.02013701275211904,
          0.026124110307427673,
          0.21145221115495508,
          -0.957302119884225,
          -0.4614792804658003,
          -0.15229041031282406,
          0.39894815374473275,
          0.24397405936933014,
          -0.3129744341565949,
          0.33604280340525106,
          -0.017331645650421116,
          -0.04616213929826817,
          0.6948921689392259,
          0.7453861322180095,
          0.5859965172976322,
          0.25497996289059793,
          0.28588310161531205,
          0.021403936860922495,
          0.08279261125491641,
          0.7289695647170827,
          0.19061260579285,
          0.40815765683864014,
          -0.061284114177755755,
          0.7766550704309666
        ],
        [
          -1.877051470275029,
          -2.3770476373215383,
          0.5968752619247311,
          -1.4375529478768165,
          0.1871175658985581,
          -0.7196234366598843,
          -0.04411121294008924,
          0.92468128530073,
          -0.10530390740093688,
          -0.07926862133511435,
          -0.44192410525468806,
          0.012224384618061612,
          0.6460825923616831,
          -0.15738216020271148,
          0.43546382892677216,
          1.2225817754518151,
          -0.14223554623013057,
          -0.5024265760170833,
          -0.6375931687620842,
          -0.3803605004044726,
          -0.29578026179177513,
          0.41280192951944217,
          -0.3582723094255514,
          0.23123524175257662,
          0.4104134828220949,
          -0.13276889810553397,
          1.0602158898806608,
          -0.7398002042754938,
          0.22579869483239046,
          0.033831539061891396,
          0.6504163963747517,
          -0.11331531193413633,
          0.1636569752177374,
          -0.5138674552117451,
          0.38365685617622036,
          0.08761966097022443,
          0.7927993357847968,
          -0.026725657545020473,
          -0.7624169795756619,
          0.5653280041466158,
          0.1212629097697348,
          0.13047983945609617,
          -0.2428971919504562,
          1.3048289741082844,
          0.3416187318606681,
          0.33823106838281247,
          -0.047211357987167635,
          -0.013680398569413985,
          -0.21017404725990962,
          0.33899153620987926,
          0.11684597985841712,
          0.19855525200600443,
          0.0104901714061611,
          -0.1511532415483036,
          0.051411900941753956,
          0.304892691765052,
          0.047683298184229055,
          0.18890836396909158,
          0.40429830432187214,
          -0.6352445070621648,
          -0.058521147875264835,
          -0.2329113981345142,
          -0.30887517424048133,
          -0.5019940556170601
        ]
      ],
      "intercept": [
        0.8503672839415097,
        0.014579025974761977,
        -0.8649463099162289
      ]
    },
    {
      "name": "semanticDependencyBucket",
      "classes": [
        "depth_0_to_1",
        "depth_2",
        "depth_3_plus"
      ],
      "coefficient": [
        [
          2.693912120816313,
          3.267901050475293,
          -3.6371943742979433,
          -0.38139238387212376,
          1.0063328040802564,
          0.2250202391604823,
          -0.05211187649700839,
          -0.04082468364320826,
          -0.5034282532975822,
          0.3104446429604642,
          -0.1817677157003991,
          0.2937264879928228,
          0.23356730188749264,
          0.16899226555010302,
          -0.023469736531237996,
          -0.35096034226436146,
          0.001069202106662071,
          0.467653095380964,
          0.2642690749897752,
          0.01867588475566061,
          0.3518295595271451,
          0.11580120614024057,
          0.10503020147573817,
          0.12521780713932062,
          0.38758379269387255,
          -0.278952489355895,
          -0.34889543335197326,
          0.13214818923839924,
          -0.13724275393801094,
          -0.23683893099344358,
          0.05084230717133879,
          0.014615297708857718,
          0.06309353409938752,
          0.18831031493628547,
          0.1403667066077274,
          0.33606452867347447,
          -0.1359428580719355,
          -0.026312604253144873,
          0.03611368196216628,
          0.027296764408017503,
          0.19371535882634533,
          0.3151935724568509,
          -0.005280414465002544,
          0.02305678239267823,
          0.15688177213629095,
          0.011526298137217525,
          0.30424029997038,
          0.00805659187331565,
          0.19635194792324995,
          -0.12473925186561925,
          -0.09757864970936882,
          -0.32680592780986195,
          -0.3487283491753621,
          -0.16033886877638634,
          0.00594977212469335,
          -0.2890765302483165,
          -0.023228881950111396,
          -0.1326435906603695,
          0.016211674483016265,
          0.0991670131065001,
          0.10014370400954574,
          -0.02709314967452263,
          0.2537955275723697,
          0.25667893450006185
        ],
        [
          -0.9852666351222884,
          -0.7008827439650966,
          3.2827303935398358,
          0.5155571374491502,
          -1.2740361746418642,
          1.004222949407227,
          0.16858312981187507,
          -0.05066955562994016,
          0.32806930590242744,
          -0.2482672483811105,
          0.593876398577831,
          -0.835519735181336,
          -0.2806602552645654,
          -0.4360321063478283,
          -0.736556479088547,
          -0.13214064506748402,
          -0.4036603244202879,
          -0.021696102133770382,
          0.0006798626552287914,
          -0.014283050943501943,
          0.11607129037969868,
          1.3280940771136085,
          -0.6575985074677388,
          -0.43084835367670893,
          0.3790315265784155,
          -0.1696785298281654,
          0.14203439717096722,
          -0.30774412332145723,
          0.9997040571454775,
          -0.4843372869450535,
          0.021516910196453673,
          0.11337020181969173,
          0.08950762708272099,
          0.3237495659106968,
          0.06672829968257996,
          -1.2124662014521232,
          -0.750534998733646,
          0.6895438129197441,
          -0.08092606820891254,
          0.06474184744032989,
          0.1229653473645092,
          -0.4992473858314399,
          0.2823192761046089,
          0.4865250788823989,
          -0.17979006055945104,
          -0.20997466637345005,
          -0.4307001733861127,
          0.3010104369277673,
          0.3338841935183777,
          -0.0492395466664123,
          -0.1173041052297346,
          0.3516586680336827,
          0.6402113114983411,
          0.2934145226843584,
          0.2565944210800622,
          -0.34315178028821836,
          -0.3465266597627277,
          0.3793009715437803,
          -0.4155300031752939,
          -0.10430300685041737,
          0.37172212662815907,
          0.34208688590768416,
          -0.48468500463593,
          -0.8377028873713337
        ],
        [
          -1.708645485694024,
          -2.5670183065101955,
          0.35446398075810653,
          -0.13416475357702712,
          0.2677033705616081,
          -1.2292431885677095,
          -0.11647125331486664,
          0.09149423927314833,
          0.17535894739515465,
          -0.06217739457935401,
          -0.41210868287743146,
          0.5417932471885134,
          0.04709295337707284,
          0.26703984079772536,
          0.760026215619785,
          0.48310098733184537,
          0.4025911223136258,
          -0.44595699324719335,
          -0.2649489376450037,
          -0.004392833812158519,
          -0.4679008499068439,
          -1.4438952832538492,
          0.5525683059920008,
          0.30563054653738836,
          -0.7666153192722879,
          0.44863101918406045,
          0.20686103618100604,
          0.17559593408305804,
          -0.8624613032074666,
          0.7211762179384971,
          -0.07235921736779242,
          -0.12798549952854965,
          -0.1526011611821086,
          -0.5120598808469822,
          -0.20709500629030758,
          0.8764016727786493,
          0.8864778568055816,
          -0.663231208666599,
          0.04481238624674625,
          -0.09203861184834741,
          -0.3166807061908547,
          0.18405381337458904,
          -0.27703886163960634,
          -0.5095818612750773,
          0.02290828842316031,
          0.19844836823623252,
          0.12645987341573292,
          -0.30906702880108294,
          -0.5302361414416277,
          0.17397879853203171,
          0.21488275493910328,
          -0.02485274022382053,
          -0.2914829623229792,
          -0.13307565390797202,
          -0.2625441932047554,
          0.6322283105365345,
          0.36975554171283914,
          -0.2466573808834106,
          0.3993183286922775,
          0.005135993743917186,
          -0.4718658306377048,
          -0.3149937362331614,
          0.2308894770635604,
          0.5810239528712716
        ]
      ],
      "intercept": [
        0.6553547197642554,
        0.1497227722375163,
        -0.8050774920017493
      ]
    }
  ],
  "artifactContentHash": "531bb72d1d22f134a11da76649cfde9102af5c116cf46765e03b8f2550d27386"
}
