{
  "artifactContentHash": "05f23127be0a27622869fc95d436ae753782874539ad2f51892f7639d2aa662b",
  "encoderFrozen": true,
  "encoderHash": "ac5ab6c4b0cb606b6a862f7a25ffc881a257d23db8414e66d7eccb20fdfa07e7",
  "encoderVersion": "e5-small-train-only-pca64.2026-07-22.v1",
  "headLossWeights": {
    "semanticConstraintBucket": 1.0,
    "semanticDependencyBucket": 1.0,
    "semanticScopeBucket": 1.0,
    "semanticTaskBucket": 1.0
  },
  "headOrder": [
    "semanticTaskBucket",
    "semanticConstraintBucket",
    "semanticScopeBucket",
    "semanticDependencyBucket"
  ],
  "heads": [
    {
      "classes": [
        "count_1",
        "count_2",
        "count_3_plus"
      ],
      "coefficient": [
        [
          -2.013385875897319,
          3.2926096175088992,
          -1.2529959656215892,
          0.513342534891568,
          1.0491673866790232,
          0.035236960895451606,
          -0.25826070876418605,
          0.02204035597749003,
          -0.333221350522304,
          -0.360391300485408,
          -0.8500051508190622,
          -0.027459615989716926,
          -0.518395686142691,
          -0.020515781930516546,
          -0.6081435413232266,
          1.2551428782406389,
          0.35586470860796277,
          0.6055863385345516,
          0.03653425226654342,
          0.5001043184638599,
          0.2199683752911594,
          -0.026018492356191518,
          0.6818169247855369,
          -0.2684908669442894,
          -0.2763764553968616,
          1.4013933097636957,
          -0.13191219110411787,
          -0.6805846453232979,
          0.23665566201530208,
          0.18262650098364747,
          0.22330201172585898,
          -0.3932523808204065,
          -0.3472389238528249,
          -0.5568886614689214,
          -0.47075658361724904,
          -0.05538378734825931,
          0.4246188689299172,
          0.23610524235328595,
          -0.5601444923239733,
          0.6141195344351732,
          0.43782952955374843,
          -0.8139504984092131,
          1.0011388627400524,
          -0.9444412351745007,
          0.7746882084463542,
          -0.5150970637436123,
          0.7931334484172808,
          -1.2243621338981543,
          0.054960326657821267,
          0.022473055753711297,
          -0.29055501605442113,
          -0.4423055337528757,
          0.07854672684949908,
          -0.5470391809081105,
          -0.1026549810412047,
          -0.47989066523290524,
          0.10871409401419076,
          0.20678795670891303,
          0.08941393932270082,
          -0.34946510401645897,
          0.6534281614727085,
          -0.22821953572977502,
          0.01906132914544523,
          -0.21734827785623217
        ],
        [
          0.5046174624655205,
          -0.3815891224543136,
          0.37809980327936576,
          0.24517778140616328,
          -2.1274279625753807,
          0.23135011910213835,
          1.238761627706395,
          0.5230960466049068,
          -0.6210221620973561,
          0.42641435823078117,
          1.4879174420400747,
          -0.587127344047574,
          -0.2529130855728752,
          0.5405479719813777,
          -0.534516576556428,
          -1.6968758886298116,
          -0.10715611427053141,
          0.549418073845003,
          -0.3058460511882722,
          -0.12600580374050177,
          0.222051393090625,
          0.004787385827638621,
          -0.4143897106061529,
          -0.23767009257630425,
          0.29844358533081566,
          -0.9267276172306974,
          0.09836130074301397,
          0.6935521880471167,
          0.4269909786770882,
          -0.09315766156785592,
          -0.5193898445741585,
          0.641181083365267,
          0.23488617759541455,
          0.13834712191452866,
          0.5534049239362734,
          -0.9985797273419739,
          0.14453984951087273,
          0.1300342018590894,
          0.30286194678868944,
          -0.23595522528815177,
          -0.49896401380624317,
          0.8126739972149968,
          -0.8405441397733878,
          0.4944491302289089,
          -0.6609261294773289,
          -0.317502499227805,
          0.5967808075444133,
          0.6619792659258144,
          -0.05999232235641868,
          0.17414050150261243,
          0.7017006624338006,
          0.10579311379626674,
          -0.05030419708442824,
          0.22336610544483443,
          0.37149424309813905,
          0.6747646316465381,
          -0.20323557584209517,
          0.2537055281684155,
          -0.1333285741722793,
          0.8629995285739825,
          -0.7915740132494499,
          -0.04804402698403927,
          0.044723345847168014,
          -0.011192804749393008
        ],
        [
          1.5087684134317978,
          -2.911020495054587,
          0.8748961623422242,
          -0.7585203162977309,
          1.0782605758963562,
          -0.2665870799975896,
          -0.9805009189422078,
          -0.5451364025823972,
          0.9542435126196601,
          -0.06602305774537284,
          -0.6379122912210121,
          0.6145869600372914,
          0.7713087717155666,
          -0.5200321900508615,
          1.1426601178796545,
          0.44173301038917234,
          -0.2487085943374316,
          -1.1550044123795544,
          0.26931179892172874,
          -0.3740985147233585,
          -0.4420197683817843,
          0.021231106528553024,
          -0.2674272141793837,
          0.5061609595205934,
          -0.022067129933953922,
          -0.4746656925329976,
          0.03355089036110386,
          -0.012967542723818717,
          -0.6636466406923901,
          -0.08946883941579144,
          0.29608783284829954,
          -0.24792870254486038,
          0.1123527462574102,
          0.41854153955439294,
          -0.08264834031902454,
          1.0539635146902333,
          -0.5691587184407897,
          -0.36613944421237543,
          0.25728254553528357,
          -0.37816430914702137,
          0.061134484252494695,
          0.001276501194216266,
          -0.16059472296666422,
          0.44999210494559144,
          -0.11376207896902527,
          0.8325995629714177,
          -1.3899142559616946,
          0.5623828679723402,
          0.005031995698597462,
          -0.19661355725632357,
          -0.411145646379379,
          0.3365124199566089,
          -0.028242529765070714,
          0.32367307546327584,
          -0.2688392620569346,
          -0.19487396641363275,
          0.09452148182790432,
          -0.4604934848773285,
          0.04391463484957828,
          -0.5135344245575235,
          0.13814585177674146,
          0.2762635627138145,
          -0.06378467499261342,
          0.22854108260562547
        ]
      ],
      "intercept": [
        1.1070802993954256,
        -0.3498618919005576,
        -0.7572184074948696
      ],
      "name": "semanticTaskBucket"
    },
    {
      "classes": [
        "count_0_to_1",
        "count_2",
        "count_3_plus"
      ],
      "coefficient": [
        [
          -0.8541939302562959,
          0.26172771496268,
          -0.9851984904916873,
          -3.2620599955722662,
          2.259043710275918,
          1.0491194524306613,
          0.2537722882029864,
          1.3556290847353953,
          -0.11295177018796859,
          -0.22721879271401818,
          -0.008977373220664595,
          -0.7131787345165633,
          0.4956298103020062,
          -0.6276633421908203,
          1.4250377806474972,
          1.015393501222154,
          -0.16456729281161303,
          -0.7253374658639798,
          -0.522621427201118,
          -0.9943856320290343,
          0.530216883464204,
          -0.21802194763427343,
          -0.6737256236303895,
          -0.5256696552986801,
          -0.510198938749069,
          -1.113710692695532,
          1.0498825059580452,
          -0.3253836147584221,
          -0.7464915201564425,
          -0.5301563000360001,
          -0.26011958130397617,
          -0.7826724456577562,
          -0.8686663104174903,
          1.1696556322645608,
          0.4698533453029303,
          -0.023911007852917842,
          0.1838320805907585,
          -0.001473128726437462,
          -0.36149631762278656,
          -0.8854074166726178,
          0.40465910785348896,
          0.08966795935309625,
          1.1909850271592675,
          0.31189138266752414,
          -0.16405397835993862,
          0.9611125227117814,
          -0.22078113485810122,
          -0.05310006293926035,
          0.3472740267939672,
          -0.21706482088748852,
          -0.45451913081793976,
          0.15740557850653983,
          0.029444242264786112,
          0.31392934660262717,
          -1.2598188232477878,
          0.10051564902293278,
          0.5623559999702521,
          0.09081076645003194,
          0.016316362357735766,
          -0.3024034774548362,
          -0.2567721252357907,
          0.3289259143662913,
          -0.3588749182869527,
          0.106962989648676
        ],
        [
          0.020290901367914276,
          0.42124030349084396,
          0.09676157600388736,
          0.38905762263450766,
          0.5293871279463719,
          -0.8036225170395682,
          -0.38790243732579155,
          -0.20214161596630692,
          0.35572415395940704,
          -0.05911912496671571,
          0.5818049221018432,
          0.8259149089975926,
          0.14851226663282663,
          -0.5038277923556297,
          -0.9017650035665038,
          -1.4233599412072313,
          -0.7811897525383292,
          -0.5597767753045458,
          0.7264452335511652,
          0.28926570413068636,
          -0.9132242294177121,
          -0.5939271071462612,
          0.6346840389731806,
          0.5074960008409367,
          0.17758811206859101,
          1.1672252906140705,
          -1.4077762247249646,
          0.5148429473836963,
          0.13502033235789818,
          0.8597716038092879,
          -0.04989544025781609,
          0.7976776425316497,
          0.9779791466069365,
          -0.43077485631768286,
          -1.6500605033791336,
          0.7184728440567634,
          -0.7717247854437937,
          -0.18448112437789024,
          0.1731145080678131,
          -0.1039262101661396,
          -0.13891688838174604,
          -0.12874034007005603,
          -2.026899689845521,
          -0.6951402026638663,
          0.07230136644524729,
          -0.12294293835068971,
          -0.8042530862676576,
          0.572808375356275,
          -0.8743358452532328,
          -0.30484287120326364,
          -0.8769935542952773,
          0.2890948568219396,
          -0.23630004273495836,
          -0.11665764838796042,
          0.7385736660067986,
          -0.2541685013224227,
          -0.5413578057348922,
          0.13085239937546267,
          0.3526713481979463,
          0.043308125816218734,
          1.4762565275211812,
          -0.4492407131461439,
          0.13661526908464575,
          -0.2406875901455572
        ],
        [
          0.8339030288883822,
          -0.6829680184535235,
          0.8884369144878002,
          2.873002372937759,
          -2.7884308382222907,
          -0.24549693539109269,
          0.13413014912280544,
          -1.1534874687690893,
          -0.24277238377143867,
          0.286337917680734,
          -0.5728275488811788,
          -0.11273617448102871,
          -0.6441420769348337,
          1.1314911345464507,
          -0.5232727770809941,
          0.4079664399850773,
          0.9457570453499428,
          1.2851142411685255,
          -0.20382380635004696,
          0.7051199278983481,
          0.38300734595350777,
          0.8119490547805348,
          0.039041584657208715,
          0.018173654457743247,
          0.3326108266804783,
          -0.053514597918537854,
          0.3578937187669191,
          -0.1894593326252746,
          0.611471187798544,
          -0.3296153037732878,
          0.3100150215617922,
          -0.01500519687389386,
          -0.10931283618944637,
          -0.7388807759468784,
          1.1802071580762035,
          -0.6945618362038457,
          0.587892704853035,
          0.1859542531043277,
          0.18838180955497344,
          0.9893336268387574,
          -0.26574221947174287,
          0.039072380716959634,
          0.8359146626862538,
          0.38324881999634197,
          0.09175261191469138,
          -0.8381695843610912,
          1.0250342211257586,
          -0.5197083124170153,
          0.5270618184592656,
          0.5219076920907525,
          1.3315126851132177,
          -0.44650043532847955,
          0.20685580047017216,
          -0.19727169821466692,
          0.5212451572409894,
          0.1536528522994901,
          -0.020998194235359813,
          -0.22166316582549458,
          -0.3689877105556823,
          0.2590953516386176,
          -1.2194844022853906,
          0.12031479877985256,
          0.22225964920230692,
          0.1337246004968813
        ]
      ],
      "intercept": [
        0.4433737706602483,
        -0.12677983479108196,
        -0.3165939358691801
      ],
      "name": "semanticConstraintBucket"
    },
    {
      "classes": [
        "count_1",
        "count_2_to_3",
        "count_4_plus"
      ],
      "coefficient": [
        [
          -1.593390756657626,
          2.692857360533885,
          2.1512240885475387,
          -1.9695999279917256,
          0.44424337872990166,
          0.22524288739516005,
          -1.3211077872333037,
          -0.20478584063826913,
          0.6997616292358109,
          0.1965394436366159,
          -0.039577811994014896,
          0.606760555217729,
          -0.20351770501611066,
          0.6720109838131564,
          -1.035413260187492,
          0.38576440371276866,
          0.19527020026529135,
          0.45854138885460444,
          -0.7788375780317559,
          -0.2781449762333853,
          0.3846471361920198,
          1.4264288349681957,
          -0.31768162684182905,
          -0.3220176874150203,
          -0.46612383900310844,
          1.0929605073211055,
          0.01854994125289935,
          -0.07547409395030377,
          1.1372598028152934,
          -0.5385475065340136,
          0.6704052446818278,
          -0.5707366653340415,
          -0.6640835283871618,
          0.01115858217728136,
          -0.0786628987591286,
          -0.28175633271762934,
          -0.15169266521575867,
          -0.34865663307455913,
          0.48492249412797134,
          0.9513314543941442,
          -0.3704425853495452,
          -0.2823902355162202,
          -0.4843413321120019,
          -0.010162214549131531,
          0.0266798856913761,
          0.4940352744982057,
          -0.3818186927367981,
          0.8880111543478327,
          -0.23575419515789114,
          -0.5439135027537221,
          0.0120836716668327,
          -0.07144268262576504,
          -0.2611315564100586,
          0.35098954787008857,
          0.16390955288418887,
          0.228519989050449,
          0.08140410300139202,
          0.5088917163610243,
          0.034615557449933124,
          0.6131028317724474,
          -0.11934591203329596,
          0.18522300640401373,
          0.3017646418004654,
          0.9440588754873067
        ],
        [
          0.24859422700822187,
          -1.4070982837975397,
          -1.6198804808206075,
          0.05147474029873616,
          -0.1974840019420518,
          -1.3781669698704386,
          0.2635443457939307,
          1.211213458875987,
          -0.7461454167120495,
          0.06303638880101188,
          0.5668586657364442,
          0.08123472552579251,
          0.33567342303498016,
          -0.06189184847701775,
          0.8185173208750827,
          -0.8432018453322587,
          -0.007807297609725853,
          -0.8655830811846259,
          -0.3111238010712797,
          0.030937542393975875,
          -0.1234505019691554,
          -1.2370828714361504,
          0.6015519224129314,
          0.6291579496553633,
          0.6539494628919702,
          -1.2307099640724626,
          -0.0008514613087487695,
          -0.8328375755508225,
          0.08389039213023584,
          1.1654299576311233,
          -0.6865283881160742,
          0.9220127083007913,
          0.46014794138561077,
          -0.07244834301686842,
          0.10910482719622683,
          0.6582912756562385,
          0.3628463486152101,
          0.3436266597353272,
          -0.5416730715671858,
          -0.556992569991685,
          0.34156015849138255,
          0.35486492845457845,
          0.044423043221193524,
          -1.0019869238030246,
          0.7179357709924991,
          -0.2601134611931837,
          0.17924943815771816,
          -0.5662094248346907,
          -0.07534086390531652,
          0.08621869649756318,
          -0.3349817947873537,
          0.043238710232078544,
          0.6744903700343977,
          -0.35091209080555885,
          0.26528556822867594,
          0.14143325626360884,
          0.17756510787567167,
          -0.7395991876812483,
          0.2833249294080997,
          -0.1947020890665185,
          0.6273658215624314,
          -0.3429504957084936,
          -0.4307082489244582,
          -0.477266722087766
        ],
        [
          1.3447965296494035,
          -1.285759076736345,
          -0.5313436077269298,
          1.918125187692989,
          -0.2467593767878499,
          1.1529240824752776,
          1.0575634414393729,
          -1.0064276182377179,
          0.04638378747623875,
          -0.2595758324376283,
          -0.5272808537424293,
          -0.6879952807435208,
          -0.132155718018869,
          -0.6101191353361386,
          0.21689593931240836,
          0.45743744161949074,
          -0.18746290265556553,
          0.40704169233002113,
          1.0899613791030358,
          0.24720743383941043,
          -0.2611966342228645,
          -0.18934596353204478,
          -0.28387029557110255,
          -0.3071402622403424,
          -0.18782562388886176,
          0.13774945675135686,
          -0.017698479944150625,
          0.9083116695011264,
          -1.2211501949455295,
          -0.6268824510971097,
          0.016123143434246194,
          -0.3512760429667494,
          0.2039355870015509,
          0.06128976083958693,
          -0.03044192843709781,
          -0.3765349429386088,
          -0.2111536833994515,
          0.005029973339232113,
          0.05675057743921487,
          -0.3943388844024595,
          0.02888242685816263,
          -0.07247469293835782,
          0.4399182888908085,
          1.0121491383521566,
          -0.7446156566838752,
          -0.2339218133050218,
          0.2025692545790802,
          -0.3218017295131421,
          0.3110950590632075,
          0.45769480625615855,
          0.32289812312052113,
          0.02820397239368639,
          -0.4133588136243387,
          -7.745706452984454e-05,
          -0.4291951211128648,
          -0.36995324531405793,
          -0.2589692108770636,
          0.23070747132022387,
          -0.31794048685803283,
          -0.4184007427059291,
          -0.5080199095291354,
          0.15772748930447994,
          0.12894360712399264,
          -0.46679215339954094
        ]
      ],
      "intercept": [
        1.398058403306437,
        -0.15356542891991506,
        -1.2444929743865156
      ],
      "name": "semanticScopeBucket"
    },
    {
      "classes": [
        "depth_0_to_1",
        "depth_2",
        "depth_3_plus"
      ],
      "coefficient": [
        [
          -2.4293791132293485,
          4.306229786229791,
          -1.67123715531857,
          -1.5293741996895385,
          2.4226527724665305,
          -0.6351650254659401,
          -0.3941835300974652,
          -0.039954488873102774,
          -0.17621983215661122,
          0.1576015859880207,
          -0.5008032869412584,
          -0.08587975121171176,
          0.2118432604795659,
          0.14833453322417955,
          -0.3624356185129464,
          0.20349510989209957,
          -0.4930280614252365,
          0.29416689752126285,
          -0.3824554556655262,
          0.14710009071339125,
          -0.07153229600725532,
          -0.19940549004567104,
          0.03930710154421858,
          -0.07876889288572643,
          0.015102408936861475,
          0.32650768643209516,
          0.13021097219787914,
          -0.35421684027359873,
          -0.09479130896752828,
          -0.4226568344221646,
          -0.1141227733021433,
          -0.03607365481516136,
          0.018724331906378556,
          -0.1808345766585327,
          -0.1596502039915965,
          -0.007634353829952283,
          -0.1765554065699063,
          0.2454287412798711,
          0.019591749628147838,
          0.2690170760378432,
          0.0556219670808297,
          0.17931694319684516,
          0.028740026222859948,
          -0.0674603646029433,
          -0.010093535203421702,
          0.17590371285431566,
          -0.13681556484080368,
          -0.3554427460326189,
          0.2959289219355645,
          -0.11945231440592032,
          0.061188181763747296,
          -0.11149637894043388,
          -0.252010706975291,
          -0.02926304653726305,
          -0.2695531932666685,
          -0.1548819378177193,
          0.06339107127733634,
          0.21580381558298692,
          -0.017163549828740063,
          -0.08293651402708346,
          0.23974218348496926,
          -0.19668107795408502,
          -0.06781084097002238,
          0.16560056098273973
        ],
        [
          0.3984681404362195,
          -0.470901404317112,
          0.6546428213410228,
          2.238002402557221,
          -2.502952697008998,
          0.08384712015873368,
          0.8493355740998025,
          0.8109278370711428,
          -0.12521114237190897,
          0.48819765733360854,
          0.5555475365919648,
          -0.5387620541536987,
          0.2637376834494773,
          -0.5499085588611723,
          -0.06781583329747355,
          0.8609959709172105,
          1.0907896343666577,
          0.012533525790307972,
          0.3054567994509619,
          -0.6443865217843325,
          0.5287523560351844,
          -0.06514629119378663,
          -0.17841641185850862,
          0.280429671212086,
          0.14864135186715233,
          -0.5829816775718831,
          0.293864415429808,
          0.40316577013118876,
          -0.17587865587479828,
          0.24382589412789307,
          0.27749318033890474,
          -0.7048528627836681,
          -0.4401461984334903,
          -0.5002031808322854,
          -0.24900166220003062,
          -0.5665981469642016,
          0.6000963151279675,
          0.030766017281283496,
          -0.7805910093510807,
          -0.2319467158885063,
          0.3830377598015,
          -0.2552437641696964,
          -0.039679487978851694,
          0.5011936696963336,
          -0.02262002210905873,
          -0.9001248069031479,
          0.4792428018769509,
          0.11092788607338924,
          0.011856074813607818,
          0.13328012056584884,
          0.3442226665386629,
          -0.6085061491951682,
          0.540982465161687,
          -0.10474127420776108,
          1.0716501685626874,
          0.02535996783469435,
          0.06527853213353185,
          0.2511292105455043,
          0.09550076334469158,
          0.4104638592666501,
          0.04160548654780755,
          0.12748290617536068,
          -0.20498124475159982,
          -0.5041504658751335
        ],
        [
          2.0309109727931305,
          -3.8353283819126767,
          1.0165943339775474,
          -0.7086282028676834,
          0.08029992454246715,
          0.5513179053072064,
          -0.4551520440023373,
          -0.7709733481980399,
          0.3014309745285195,
          -0.6457992433216297,
          -0.05474424965070658,
          0.6246418053654101,
          -0.47558094392904315,
          0.4015740256369928,
          0.4302514518104199,
          -1.0644910808093104,
          -0.5977615729414207,
          -0.3067004233115707,
          0.07699865621456421,
          0.497286431070941,
          -0.4572200600279292,
          0.2645517812394573,
          0.13910931031428986,
          -0.20166077832635934,
          -0.16374376080401362,
          0.25647399113978814,
          -0.42407538762768704,
          -0.048948929857589675,
          0.27066996484232625,
          0.17883094029427143,
          -0.16337040703676162,
          0.7409265175988289,
          0.42142186652711167,
          0.6810377574908181,
          0.40865186619162697,
          0.5742325007941538,
          -0.4235409085580612,
          -0.2761947585611546,
          0.7609992597229327,
          -0.037070360149336984,
          -0.43865972688232974,
          0.07592682097285136,
          0.010939461755991633,
          -0.4337333050933901,
          0.032713557312480636,
          0.7242210940488322,
          -0.34242723703614725,
          0.24451485995922953,
          -0.30778499674917226,
          -0.013827806159928544,
          -0.40541084830241025,
          0.7200025281356023,
          -0.28897175818639614,
          0.13400432074502408,
          -0.802096975296019,
          0.12952196998302504,
          -0.12866960341086817,
          -0.46693302612849136,
          -0.07833721351595152,
          -0.32752734523956667,
          -0.2813476700327767,
          0.06919817177872445,
          0.2727920857216223,
          0.3385499048923936
        ]
      ],
      "intercept": [
        0.6263039296788268,
        -0.45401507429768656,
        -0.17228885538116476
      ],
      "name": "semanticDependencyBucket"
    }
  ],
  "inputDimension": 64,
  "optimizerParameterScope": "semantic_heads_only",
  "poolingVersion": "difficulty-attention-masked-mean.v2",
  "probabilityRule": "multinomial_linear_softmax.v1",
  "schemaVersion": "gatelm.difficulty-semantic-heads-artifact.v1",
  "semanticHeadProbabilityDimension": 12,
  "training": {
    "c": 1.0,
    "fitSplit": "train",
    "maxIterations": 1000,
    "penalty": "l2",
    "randomSeed": 20260714,
    "solver": "lbfgs"
  },
  "trainingObjective": "fixed_unweighted_sum_multinomial_cross_entropy.v1",
  "version": "dimension-tuning-heads-full-train.2026-07-22.v1"
}
