tree
version=v4
num_class=1
num_tree_per_iteration=1
label_index=0
max_feature_idx=53
objective=binary sigmoid:1
feature_names=Column_0 Column_1 Column_2 Column_3 Column_4 Column_5 Column_6 Column_7 Column_8 Column_9 Column_10 Column_11 Column_12 Column_13 Column_14 Column_15 Column_16 Column_17 Column_18 Column_19 Column_20 Column_21 Column_22 Column_23 Column_24 Column_25 Column_26 Column_27 Column_28 Column_29 Column_30 Column_31 Column_32 Column_33 Column_34 Column_35 Column_36 Column_37 Column_38 Column_39 Column_40 Column_41 Column_42 Column_43 Column_44 Column_45 Column_46 Column_47 Column_48 Column_49 Column_50 Column_51 Column_52 Column_53
feature_infos=none [0:1] [0:1] none none [0:0.3333333432674408] none [0:0.40000000596046448] [0:1] none [0:1] [0:1] [0:1] none none none none none none none none none none none none none none none none none [0:0.25] [0:0.8571428656578064] [0:1] none [0:0.5] [0:1] [0:1] [0:1] [0:0.5] [0:0.5] [0:0.40000000596046448] [0:0.66666668653488159] [0.0027434537187218666:0.99983185529708862] [1.5793970305821858e-05:0.97725343704223633] [2.7410773327574134e-05:0.96609330177307129] [0.00056865334045141935:0.99979627132415771] [0.00010419304453535005:0.9678114652633667] [4.4169068132760003e-05:0.99512267112731934] [0.00039745087269693613:0.99983114004135132] [7.1372531238012016e-05:0.99290961027145386] [2.7742169095290592e-06:0.98651707172393799] [0.00010019796900451183:0.99959135055541992] [0.00012850193888880312:0.99804902076721191] [6.0835645854240283e-06:0.97217774391174316]
tree_sizes=723 898 1319 1433 1651 1648 1644 1646 1645 1542 1548 1539 1542 1541 1643 1532 1542 1544 1546 1541 1547 1534 1651 1547 1540 1761 1541 1540 1753 1540 1541 1649 1538 1535 1649 1544 1647 1658 1543 1757 1543 1758 1657 1547 1763 1538 1758 1667 1553 1872 1556 1667 1865 1558 1550 1565 1556 1562 1555 1558 1672 1558 1776 1773 1778 1663 1676 1762

Tree=0
num_leaves=6
num_cat=0
split_feature=51 42 42 2 8
split_gain=272.762 2.79468 0.691156 1.42109e-14 1.42109e-14
threshold=0.49348990619182592 0.98028013110160839 0.88563400506973278 1.0000000180025095e-35 1.0000000180025095e-35
decision_type=2 2 2 2 2
left_child=2 -2 3 -1 -3
right_child=1 4 -4 -5 -6
leaf_value=0.10000000000000001 -0.065517241379310351 -0.10000000000000001 0.080000000000000016 0.099999999999999978 -0.099999999999999978
leaf_weight=21.25 7.2499999999999991 17.5 4.9999999999999991 10.500000000000002 13.500000000000002
leaf_count=85 29 70 20 42 54
internal_value=0 -0.0934641 0.0972789 0.1 -0.1
internal_weight=75 38.25 36.75 31.75 31
internal_count=300 153 147 127 124
is_linear=0
shrinkage=0.05


Tree=1
num_leaves=7
num_cat=0
split_feature=51 42 43 42 1 8
split_gain=246.756 2.54562 0.658952 0.000212239 1.42109e-14 1.42109e-14
threshold=0.49348990619182592 0.98028013110160839 0.044402576982975013 0.80049648880958568 1.0000000180025095e-35 1.0000000180025095e-35
decision_type=2 2 2 2 2 2
left_child=2 -2 -1 4 -4 -3
right_child=1 5 3 -5 -6 -7
leaf_value=0.075751214237414072 -0.062309367548011779 -0.095241872246060344 0.095241872246060247 0.095590235694736042 0.095241872246060344 -0.095241872246060302
leaf_weight=4.9902134537696829 7.2422254830598822 17.456323057413101 8.2294094413518959 5.2386919707059851 18.204451188445091 13.466306358575823
leaf_count=20 29 70 33 21 73 54
internal_value=7.07743e-08 -0.0889925 0.0926388 0.0952995 0.0952419 -0.0952419
internal_weight=74.8276 38.1649 36.6628 31.6726 26.4339 30.9226
internal_count=300 153 147 127 106 124
is_linear=0
shrinkage=0.05


Tree=2
num_leaves=11
num_cat=0
split_feature=51 52 51 47 42 43 42 8 36 42
split_gain=224.211 2.43514 0.642058 0.150094 0.00536605 0.00150494 6.25255e-05 1.42109e-14 1.42109e-14 7.10543e-15
threshold=0.49348990619182592 0.055733244866132743 0.10587134584784509 0.26268264651298529 0.9861983358860017 0.057655019685626037 0.66582500934600841 1.0000000180025095e-35 0.21428572386503222 0.99727439880371105
decision_type=2 2 2 2 2 2 2 2 2 2
left_child=2 3 5 4 -2 -1 8 9 -7 -6
right_child=1 -3 -4 -5 7 6 -8 -9 -10 -11
leaf_value=0.092118416089657595 -0.092911199770193187 -0.052451540032664196 0.072351406179862035 -0.082215186801032472 -0.091131780775723592 0.09113178077572355 0.091328980521727193 -0.091131780775723592 0.091131780775723592 -0.091131780775723592
leaf_weight=4.9630765318870571 5.2178208976984051 4.967490389943122 5.2050479203462592 5.2070292383432379 6.1908148229122162 14.610322982072836 4.9548191577196112 11.143466681241989 6.6860800087451926 5.2002844512462616
leaf_count=20 21 20 21 21 25 59 20 45 27 21
internal_value=3.02227e-07 -0.0850863 0.088609 -0.0900048 -0.0914663 0.09132 0.091169 -0.0911318 0.0911318 -0.0911318
internal_weight=74.3463 37.9269 36.4193 32.9594 27.7524 31.2143 26.2512 22.5346 21.2964 11.3911
internal_count=300 153 147 133 112 126 106 91 86 46
is_linear=0
shrinkage=0.05


Tree=3
num_leaves=12
num_cat=0
split_feature=51 42 43 52 51 47 43 42 42 1 8
split_gain=204.484 2.33904 0.622521 0.0008388 0.000730228 5.46167e-05 4.48116e-05 3.89671e-07 4.66198e-08 7.10543e-15 7.10543e-15
threshold=0.49348990619182592 0.98028013110160839 0.044402576982975013 0.027813676744699482 0.09246979653835298 0.15053927898406985 0.16567605733871463 0.99284374713897716 0.53020986914634716 1.0000000180025095e-35 1.0000000180025095e-35
decision_type=2 2 2 2 2 2 2 2 2 2 2
left_child=2 -2 -1 5 6 7 -4 -3 9 -8 -9
right_child=1 3 4 -5 -6 -7 8 10 -10 -11 -12
leaf_value=0.06855081639172618 -0.055955985276603504 -0.087533209585986732 0.087712552836239591 -0.088294483639970375 0.088231862061701069 -0.087730841842842411 0.087549100739151939 -0.087549100739152119 0.087543522931677331 0.087549100739152133 -0.087549100739152078
leaf_weight=4.9212441444396964 7.1748206466436377 5.1435054689645865 5.1468505859375062 4.9116251468658438 5.1564011722803107 4.902176782488822 4.8988726735115131 6.368534475564954 4.8987691402435294 11.022463515400879 9.0629144459962845
leaf_count=20 29 21 21 20 21 20 20 26 20 45 37
internal_value=8.0263e-07 -0.0816337 0.0850755 -0.0876962 0.0876884 -0.0875809 0.0875804 -0.0875451 0.0875478 0.0875491 -0.0875491
internal_weight=73.6082 37.5636 36.0446 30.3888 31.1234 25.4771 25.967 20.575 20.8201 15.9213 15.4314
internal_count=300 153 147 124 127 104 106 84 85 65 63
is_linear=0
shrinkage=0.05


Tree=4
num_leaves=14
num_cat=0
split_feature=51 52 51 47 42 43 42 52 52 50 45 42 47
split_gain=187.116 2.25235 0.611744 0.140458 0.00777619 0.00278902 3.72916e-05 3.58376e-08 1.45538e-08 6.86473e-09 9.71305e-10 1.07946e-10 7.77689e-12
threshold=0.49348990619182592 0.055733244866132743 0.10587134584784509 0.26268264651298529 0.9861983358860017 0.057655019685626037 0.66582500934600841 0.0081129875034093874 0.22560855001211169 0.00049294218479190033 0.030287656001746658 0.99708557128906261 0.57789248228073131
decision_type=2 2 2 2 2 2 2 2 2 2 2 2 2
left_child=2 3 5 4 -2 -1 8 9 -7 -6 -10 -11 -12
right_child=1 -3 -4 -5 7 6 -8 -9 10 11 12 -13 -14
leaf_value=0.085736089820835415 -0.086563727039052102 -0.046987107615135616 0.065926030719872436 -0.075761932964966958 -0.084399397054761502 0.084398196832493125 0.084554731808869688 -0.084396118402945794 0.084400688021952816 -0.084401805634135588 0.084401587549274681 -0.084401502427522382 0.084401502427522382
leaf_weight=4.8608469516038921 5.1195608973503139 4.8996634483337393 5.0990025699138632 5.0975710302591315 4.8291660249233308 5.070591598749167 4.8330406099557868 4.8290808945894232 4.8291996270418158 4.8292284756898862 4.8292230516672117 7.4852921962738037 6.0365259647369385
leaf_count=20 21 20 21 21 20 21 20 20 20 20 20 31 25
internal_value=1.30713e-06 -0.078569 0.0819549 -0.0833762 -0.0848088 0.0846381 0.0844296 -0.0843999 0.0844005 -0.084401 0.0844013 -0.0844016 0.0844015
internal_weight=72.648 37.0896 35.5584 32.1899 27.0923 30.4594 25.5986 21.9728 20.7655 17.1437 15.6949 12.3145 10.8657
internal_count=300 153 147 133 112 126 106 91 86 71 65 51 45
is_linear=0
shrinkage=0.05


Tree=5
num_leaves=14
num_cat=0
split_feature=51 42 42 52 51 43 47 42 43 52 43 52 48
split_gain=171.706 2.22924 0.612656 0.00225095 0.000906817 0.000235327 0.000141763 1.26731e-06 9.77243e-08 1.37916e-11 7.70939e-12 1.9007e-12 6.18172e-13
threshold=0.49348990619182592 0.98028013110160839 0.88563400506973278 0.027813676744699482 0.07612119242548944 0.1399088725447655 0.15053927898406985 0.99284374713897716 0.31660275161266332 0.005314483307301999 0.46222452819347387 0.48776087164878851 0.98081049323081981
decision_type=2 2 2 2 2 2 2 2 2 2 2 2 2
left_child=2 -2 4 6 5 -1 7 -3 -7 12 -10 -12 -9
right_child=1 3 -4 -5 -6 8 -8 9 10 -11 11 -13 -14
leaf_value=0.082006130811958566 -0.050570965412537541 -0.081588049351118075 0.062586383538764112 -0.082853435625111535 0.082412929880632479 0.081608966656651238 -0.081913690370794601 -0.081617121700601217 0.081617224235569219 -0.081617236359613016 0.081617171159428847 0.081617128770042985 -0.081617146463493648
leaf_weight=4.7587130516767564 7.054881051182746 4.9826288670301535 4.8011992126703253 4.7837261557579032 5.2489477992057791 4.7460741102695492 4.756099894642829 5.4583025425672513 4.7463535815477362 4.7463541179895392 4.7463517934083921 5.9329378753900528 4.7463509291410446
leaf_count=20 29 21 20 20 22 20 20 23 20 20 20 25 20
internal_value=1.9893e-06 -0.0758176 0.0791763 -0.0818607 0.0818156 0.0816899 -0.0816684 -0.0816099 0.0816152 -0.0816172 0.0816172 0.0816171 -0.0816171
internal_weight=71.5089 36.5283 34.9806 29.4735 30.1794 24.9304 24.6897 19.9336 20.1717 14.951 15.4256 10.6793 10.2047
internal_count=300 153 147 124 127 105 104 84 85 63 65 45 43
is_linear=0
shrinkage=0.05


Tree=6
num_leaves=14
num_cat=0
split_feature=51 52 43 47 42 51 42 44 52 50 43 53 52
split_gain=157.972 2.14758 0.607762 0.136923 0.00933886 0.00157586 9.81404e-05 3.95915e-07 1.70741e-07 3.20945e-08 4.37591e-09 5.72992e-10 1.27187e-12
threshold=0.49348990619182592 0.055733244866132743 0.044402576982975013 0.26268264651298529 0.9861983358860017 0.09246979653835298 0.58256858587265026 0.39110606908798223 0.0081129875034093874 0.00049294218479190033 0.46222452819347387 0.00079795334022492181 0.5193353295326234
decision_type=2 2 2 2 2 2 2 2 2 2 2 2 2
left_child=2 3 -1 4 -2 6 7 10 9 -6 -4 -11 -12
right_child=1 -3 5 -5 8 -7 -8 -9 -10 11 12 -13 -14
leaf_value=0.06004678897808844 -0.081543366974455106 -0.042239624461544306 0.079137294847852313 -0.070517940738761845 -0.079134501103676647 0.080165069025245395 0.079380348963476899 0.079121855405039063 -0.07912717647177904 -0.079139121916952326 0.079139163534895432 -0.079139833623245892 0.079139128116717986
leaf_weight=4.7299974709749213 4.9735662192106309 4.8070231080055228 4.6525047570467093 4.9412616193294516 4.6523870825767579 4.9276599436998358 5.128345623612403 4.6518526524305335 4.6520775556564322 7.2115012854337674 4.6525835096836072 4.6526115983724594 5.5830982327461243
leaf_count=20 21 20 20 21 20 21 22 20 20 31 20 20 24
internal_value=2.642e-06 -0.0733411 0.076689 -0.078151 -0.0795937 0.0793487 0.0791857 0.0791346 -0.0791356 -0.079138 0.0791386 -0.0791394 0.0791391
internal_weight=70.2165 35.8904 34.326 31.0834 26.1421 29.596 24.6684 19.54 21.1686 16.5165 14.8882 11.8641 10.2357
internal_count=300 153 147 133 112 127 106 84 91 71 64 51 44
is_linear=0
shrinkage=0.05


Tree=7
num_leaves=14
num_cat=0
split_feature=51 42 51 43 52 47 42 42 52 43 52 50 46
split_gain=145.657 2.17967 0.613586 0.00409218 0.00353177 0.00021565 8.43225e-05 2.2181e-06 1.21302e-07 7.11062e-09 9.86731e-11 4.57945e-12 3.65219e-12
threshold=0.49348990619182592 0.98028013110160839 0.10587134584784509 0.057655019685626037 0.027813676744699482 0.15053927898406985 0.66582500934600841 0.99284374713897716 0.22560855001211169 0.4173696637153626 0.005314483307301999 0.0020271763205528264 0.046902077272534377
decision_type=2 2 2 2 2 2 2 2 2 2 2 2 2
left_child=2 -2 3 -1 5 7 8 -3 -5 -10 11 -9 -11
right_child=1 4 -4 6 -6 -7 -8 10 9 12 -12 -13 -14
leaf_value=0.078587406708618357 -0.045888842610436131 -0.076882739165993974 0.05801253640695854 0.076911965634364268 -0.078497381893506607 -0.077294655175372595 0.077157623045281731 -0.076922031052448658 0.076919743413191063 0.076922028791096456 -0.076922277871113012 -0.076921962614262512 0.076921965431314299
leaf_weight=4.6264333575964001 6.8989044576883307 4.7753344029188254 4.8577658683061591 4.776906952261931 4.6197497695684424 4.5682083219289771 4.5612196177244178 4.7774442285299283 5.687288597226142 4.5499467551708204 4.5499595105648032 5.0049376487731934 4.5499436259269714
leaf_count=20 29 21 21 21 20 20 20 21 25 20 20 22 20
internal_value=3.45821e-06 -0.0710887 0.0744483 0.0772252 -0.0772328 -0.076986 0.076964 -0.0769123 0.0769189 0.0769211 -0.0769221 -0.076922 0.076922
internal_weight=68.804 35.1945 33.6095 28.7517 28.2956 23.6759 24.1253 19.1077 19.5641 14.7872 14.3323 9.78238 9.09989
internal_count=300 153 147 126 124 104 106 84 86 65 63 43 40
is_linear=0
shrinkage=0.05


Tree=8
num_leaves=14
num_cat=0
split_feature=51 42 43 52 51 47 44 42 43 51 52 43 48
split_gain=134.571 2.12349 0.616403 0.0028027 0.00234558 0.000170937 6.20416e-05 1.7567e-06 1.2032e-06 1.32962e-09 7.99432e-11 6.52101e-11 4.12825e-12
threshold=0.49348990619182592 0.98028013110160839 0.044402576982975013 0.027813676744699482 0.09246979653835298 0.15053927898406985 0.032943943515419967 0.99284374713897716 0.28371538221836096 0.015936018433421854 0.005314483307301999 0.49839033186435705 0.98081049323081981
decision_type=2 2 2 2 2 2 2 2 2 2 2 2 2
left_child=2 -2 -1 5 6 7 -4 -3 -8 11 12 -10 -9
right_child=1 3 4 -5 -6 -7 8 10 9 -11 -12 -13 -14
leaf_value=0.055368619217863596 -0.044067015161487672 -0.074893381545373602 0.075114832361088291 -0.076348513262057577 0.076184580375932662 -0.075264560739024849 0.074899110569952618 -0.07492871554245796 0.074929041490368345 0.074927855505563593 -0.074929003007932093 0.074928773746062841 -0.074928781471457193
leaf_weight=4.5649926662445059 6.8267659395933142 4.6599892228841879 5.3408787548542085 4.5149356126785269 4.7353378385305396 4.4596018940210334 4.6603574752807644 5.1062394231557828 4.662238880991934 4.4401568323373786 4.4402251988649359 4.4402115792036057 4.4402119964361191
leaf_count=20 29 21 24 20 21 20 21 23 21 20 20 20 20
internal_value=4.15512e-06 -0.0690375 0.0724171 -0.0752091 0.0751692 -0.0749865 0.074965 -0.07492 0.074921 0.0749286 -0.0749288 0.0749289 -0.0749287
internal_weight=67.2921 34.448 32.8442 27.6212 28.2792 23.1063 23.5438 18.6467 18.203 13.5426 13.9867 9.10245 9.54645
internal_count=300 153 147 124 127 104 106 84 82 61 63 41 43
is_linear=0
shrinkage=0.05


Tree=9
num_leaves=13
num_cat=0
split_feature=51 51 47 42 43 51 47 44 44 48 43 52
split_gain=124.756 5.39275 0.135858 0.014318 0.00512643 0.000715766 0.000252916 3.47303e-05 6.7063e-07 3.82315e-08 3.71623e-08 6.04921e-11
threshold=0.2460664436221123 0.87580054998397838 0.30653861165046697 0.98523867130279552 0.066915541887283339 0.070400610566139235 0.091841671615839018 0.032943943515419967 0.0019403149490244689 0.94622486829757702 0.32431900501251226 0.40334609150886541
decision_type=2 2 2 2 2 2 2 2 2 2 2 2
left_child=4 -2 3 -3 -1 7 8 -6 9 -5 -9 -12
right_child=1 2 -4 6 5 -7 -8 10 -10 -11 11 -13
leaf_value=0.074967514214923023 -0.015492250666431926 -0.076319338817502927 -0.064301155177224165 -0.073123527189677698 0.073284094877915359 0.073852814147939469 -0.07353434017344028 0.073124088768812351 -0.073104356254680411 -0.073129390549319537 0.073129375098985608 0.073129135477113374
leaf_weight=5.5479739606380489 4.8369492739439002 4.5005186200141969 4.4560626298189154 4.3245364725589805 4.5517978966236177 4.5900828391313544 4.7844063043594351 5.1894927322864559 4.3232031911611548 7.7848953306674957 4.5411879122257215 6.2711404711008072
leaf_count=25 21 20 20 20 21 21 22 24 20 36 21 29
internal_value=4.90111e-06 -0.0645044 -0.0723612 -0.0737578 0.0735918 0.0732883 -0.0732144 0.0731622 -0.0731213 -0.0731273 0.0731276 0.0731292
internal_weight=65.7022 35.0106 30.1736 25.7176 30.6917 25.1437 21.217 20.5536 16.4326 12.1094 16.0018 10.8123
internal_count=300 159 138 118 141 116 98 95 76 56 74 50
is_linear=0
shrinkage=0.05


Tree=10
num_leaves=13
num_cat=0
split_feature=51 51 47 42 43 51 47 44 44 50 43 52
split_gain=115.66 5.18491 0.136848 0.0114898 0.00410668 0.000574311 0.000203765 2.78976e-05 5.37353e-07 3.09148e-08 2.97842e-08 4.83702e-11
threshold=0.2460664436221123 0.87580054998397838 0.30653861165046697 0.98523867130279552 0.066915541887283339 0.070400610566139235 0.091841671615839018 0.032943943515419967 0.0019403149490244689 0.0033200593898072843 0.32431900501251226 0.40334609150886541
decision_type=2 2 2 2 2 2 2 2 2 2 2 2
left_child=4 -2 3 -3 -1 7 8 -6 9 -5 -9 -12
right_child=1 2 -4 6 5 -7 -8 10 -10 -11 11 -13
leaf_value=0.073165771286901937 -0.014741510788921098 -0.074392972341331076 -0.062470681541717137 -0.071498326826959377 0.071638922417779485 0.072155312897318094 -0.071866889610208207 0.071493505365035015 -0.071475592751455097 -0.071492979908151968 0.071498304546553787 0.071498087259001183
leaf_weight=5.4040119796991375 4.8293139636516562 4.3890266418457093 4.3597527593374243 7.5698174536228198 4.4266831129789415 4.4663006067275992 4.6539489179849616 5.0460932403802863 4.2036625593900672 4.2050346285104752 4.4157250821590406 6.0978814512491226
leaf_count=25 21 20 20 36 21 21 22 24 20 20 21 29
internal_value=6.25513e-06 -0.0627539 -0.0706455 -0.0720699 0.0719184 0.0716427 -0.0715757 0.0715282 -0.0714909 -0.0714964 0.0714967 0.0714982
internal_weight=64.0673 34.2106 29.3812 25.0215 29.8567 24.4527 20.6325 19.9864 15.9785 11.7749 15.5597 10.5136
internal_count=300 159 138 118 141 116 98 95 76 56 74 50
is_linear=0
shrinkage=0.05


Tree=11
num_leaves=13
num_cat=0
split_feature=51 51 47 44 42 43 51 45 52 44 53 51
split_gain=107.41 3.24184 0.136728 0.133473 0.00818346 0.00134556 7.76437e-05 2.74372e-05 2.33449e-07 9.3777e-08 2.28763e-08 1.92848e-09
threshold=0.34267456829547888 0.89499837160110485 0.30653861165046697 0.015913804993033413 0.9861983358860017 0.13002377748489383 0.032526489347219474 0.46496176719665533 0.0058578564785420903 0.076982591301202788 0.00028460723115131264 0.0097421635873615759
decision_type=2 2 2 2 2 2 2 2 2 2 2 2
left_child=3 -2 4 -1 -3 -5 9 -6 10 -7 -9 -11
right_child=1 2 -4 5 7 6 -8 8 -10 11 -12 -13
leaf_value=0.060883227362337283 -0.024431024238945828 -0.072418198159606109 -0.060760813355130394 0.070903095247680639 -0.070153340491362501 0.070005602135256806 0.070257829638329661 -0.070010840241698 -0.069999760470370043 0.070014958653703468 -0.070015583405552168 0.07001357596291076
leaf_weight=4.4454853683710125 4.7766188085079184 4.4664770364761415 4.2608393877744666 6.4366276562213924 4.2984338402748135 4.2862280309200314 4.1028717011213294 4.082579702138899 4.081604376435279 6.1244104504585248 6.7369415313005447 4.2869603186845779
leaf_count=21 21 21 20 31 21 21 20 20 20 30 33 21
internal_value=7.63628e-06 -0.0624955 -0.069006 0.0688719 -0.0704905 0.0702791 0.0700655 -0.0700421 -0.0700099 0.0700118 -0.0700138 0.0700144
internal_weight=62.3861 32.7035 27.9269 29.6826 23.666 25.2371 18.8005 19.1996 14.9011 14.6976 10.8195 10.4114
internal_count=300 156 135 144 115 123 92 94 73 72 53 51
is_linear=0
shrinkage=0.05


Tree=12
num_leaves=13
num_cat=0
split_feature=51 51 47 42 42 43 50 51 49 45 46 44
split_gain=100.034 4.78982 0.141765 0.00773986 0.0031391 0.000394209 0.000239501 0.000107315 3.06978e-06 1.3363e-06 4.60413e-07 2.98737e-08
threshold=0.2460664436221123 0.87580054998397838 0.30653861165046697 0.98523867130279552 0.87284234166145336 0.13002377748489383 0.013068072497844698 0.042195281013846404 0.0017755607259459796 0.95499876141548168 0.021045500412583355 0.086255494505167021
decision_type=2 2 2 2 2 2 2 2 2 2 2 2
left_child=4 -2 3 -3 5 -1 8 10 -5 -10 -7 -12
right_child=1 2 -4 6 -6 7 -8 -9 9 -11 11 -13
leaf_value=0.069237912394558107 -0.013521685124772507 -0.071125281416499514 -0.059156166734759187 -0.068696781645792446 0.070318492894157578 0.068678693586429418 -0.069093227950738453 0.068955022993585177 -0.06862389680527263 -0.068659065720783841 0.068655535453430366 0.068660843006668068
leaf_weight=4.6122913807630601 4.7896931916475287 4.1567116081714692 4.1601639091968527 3.9616961032152203 4.1047528088092795 3.9600505828857449 3.9940727353095999 3.9852220118045798 4.3502038866281492 7.1246982365846634 4.1557160466909391 7.3229273706674576
leaf_count=23 21 20 20 20 20 20 20 20 22 36 21 37
internal_value=8.82257e-06 -0.0596957 -0.0676661 -0.069167 0.0690406 0.0688224 -0.0687481 0.0687237 -0.0686588 -0.0686457 0.068664 0.0686589
internal_weight=60.6782 32.5372 27.7475 23.5874 28.141 24.0362 19.4307 19.4239 15.4366 11.4749 15.4387 11.4786
internal_count=300 159 138 118 141 121 98 98 78 58 78 58
is_linear=0
shrinkage=0.05


Tree=13
num_leaves=13
num_cat=0
split_feature=51 51 47 42 42 43 47 51 44 46 50 44
split_gain=93.119 4.64447 0.144651 0.00629895 0.00254922 0.0003208 0.000197961 8.73898e-05 5.71851e-07 3.74315e-07 2.89768e-08 2.42736e-08
threshold=0.2460664436221123 0.87580054998397838 0.30653861165046697 0.98523867130279552 0.87284234166145336 0.13002377748489383 0.091841671615839018 0.042195281013846404 0.0019403149490244689 0.021045500412583355 0.0033200593898072843 0.086255494505167021
decision_type=2 2 2 2 2 2 2 2 2 2 2 2
left_child=4 -2 3 -3 5 -1 8 9 10 -7 -5 -11
right_child=1 2 -4 6 -6 7 -8 -9 -10 11 -12 -13
leaf_value=0.067951527357088801 -0.012866795547805397 -0.069680135739514912 -0.05764359900851497 -0.067423011310400072 0.068939932624541941 0.067438927941307306 -0.06780286847811022 0.06769232487513055 -0.06739856962582462 0.067417708481059935 -0.067417588733141812 0.067422570577522961
leaf_weight=4.4682773500680986 4.7820033729076412 4.0338885039091172 4.0584552586078635 6.8988934457302111 3.9806387275457373 3.8343937247991589 4.2541532069444647 3.859763339161872 3.8300926089286795 4.0237621217966062 3.8321396708488464 7.0904427021741867
leaf_count=23 21 20 20 36 20 20 22 20 20 21 20 37
internal_value=1.02536e-05 -0.0582727 -0.0663422 -0.0678872 0.0677707 0.0675707 -0.0675028 0.0674802 -0.0674152 0.0674255 -0.0674211 0.0674208
internal_weight=58.9469 31.6896 26.9076 22.8492 27.2573 23.2766 18.8153 18.8084 14.5611 14.9486 10.731 11.1142
internal_count=300 159 138 118 141 121 98 98 76 78 56 58
is_linear=0
shrinkage=0.05


Tree=14
num_leaves=14
num_cat=0
split_feature=51 42 42 52 51 47 43 42 46 51 44 51 48
split_gain=86.8048 2.1901 0.66783 0.00739101 0.00478049 0.000406161 0.000155994 6.14096e-06 3.96711e-07 1.13822e-07 5.27362e-09 4.36134e-09 4.19e-10
threshold=0.49348990619182592 0.98028013110160839 0.88563400506973278 0.027813676744699482 0.07612119242548944 0.15053927898406985 0.1399088725447655 0.99284374713897716 0.021045500412583355 0.017782034352421764 0.11296776682138444 0.99567520618438732 0.96493014693260204
decision_type=2 2 2 2 2 2 2 2 2 2 2 2 2
left_child=2 -2 4 5 6 7 -1 -3 -8 10 -10 -9 -13
right_child=1 3 -4 -5 -6 -7 8 11 9 -11 -12 12 -14
leaf_value=0.066646011079025513 -0.033389350326004263 -0.066213598663779238 0.044569904338067373 -0.068760855293622386 0.068207015854994141 -0.066846680535395372 0.066301304605066239 -0.066284865274882129 0.066284798559272343 0.066275565382449789 0.066287352192374402 -0.066286530051077402 -0.066287272845199224
leaf_weight=3.7451794147491553 6.2245880216360119 3.8829404115676942 3.9859894365072241 3.9244811683893195 4.2478494197130194 3.7673345059156409 3.7083130627870551 4.077069163322447 4.4477027803659421 3.8906158953905097 3.7067145705223083 3.8919500410556793 3.7067052274942398
leaf_count=20 29 21 20 20 22 20 20 22 24 21 20 21 20
internal_value=1.17046e-05 -0.0597306 0.0635082 -0.0667826 0.0666871 -0.0663809 0.066356 -0.0662681 0.066287 0.0662826 0.066286 -0.0662862 -0.0662869
internal_weight=57.2074 29.4751 27.7324 23.2505 23.7464 19.326 19.4985 15.5587 15.7533 12.045 8.15442 11.6757 7.59866
internal_count=300 153 147 124 127 104 105 84 85 65 44 63 41
is_linear=0
shrinkage=0.05


Tree=15
num_leaves=13
num_cat=0
split_feature=51 51 47 42 42 43 50 51 49 45 46 44
split_gain=81.2672 4.34783 0.15324 0.0064516 0.00286894 0.000212716 0.000137849 5.21497e-05 1.68213e-06 1.27895e-06 2.32685e-07 1.63623e-08
threshold=0.2460664436221123 0.87580054998397838 0.30653861165046697 0.98523867130279552 0.87284234166145336 0.13002377748489383 0.013068072497844698 0.042195281013846404 0.0017755607259459796 0.95499876141548168 0.021045500412583355 0.086255494505167021
decision_type=2 2 2 2 2 2 2 2 2 2 2 2
left_child=4 -2 3 -3 5 -1 8 10 -5 -10 -7 -12
right_child=1 2 -4 6 -6 7 -8 -9 9 -11 11 -13
leaf_value=0.065685051611868411 -0.011705782055630781 -0.067573878073408158 -0.05487835795450613 -0.065265716171294771 0.06685912110287355 0.065255352877788192 -0.065582512117496453 0.065457639065073001 -0.065203517009605111 -0.065239696216321946 0.065237939948234944 0.065242069815581713
leaf_weight=4.178075432777411 4.7042997777462032 3.8227346241474214 3.851267382502555 3.5837124884128597 3.765985205769538 3.5825159400701549 3.6176353096961966 3.6063957512378684 3.9335975348949415 6.4450249075889587 3.7593698352575284 6.6246081292629242
leaf_count=23 21 20 20 20 20 20 20 20 22 36 21 37
internal_value=1.24374e-05 -0.055839 -0.0640601 -0.0657123 0.065585 0.0653644 -0.0653075 0.0652881 -0.0652362 -0.065226 0.0652444 0.0652406
internal_weight=55.4752 29.9583 25.254 21.4027 25.517 21.751 17.58 17.5729 13.9623 10.3786 13.9665 10.384
internal_count=300 159 138 118 141 121 98 98 78 58 78 58
is_linear=0
shrinkage=0.05


Tree=16
num_leaves=13
num_cat=0
split_feature=51 51 47 42 42 43 50 51 49 45 46 44
split_gain=75.8768 4.23843 0.157417 0.00530746 0.00235452 0.000174937 0.000113837 4.29118e-05 1.38276e-06 1.0503e-06 1.91195e-07 1.34259e-08
threshold=0.2460664436221123 0.87580054998397838 0.30653861165046697 0.98523867130279552 0.87284234166145336 0.13002377748489383 0.013068072497844698 0.042195281013846404 0.0017755607259459796 0.95499876141548168 0.021045500412583355 0.086255494505167021
decision_type=2 2 2 2 2 2 2 2 2 2 2 2
left_child=4 -2 3 -3 5 -1 8 10 -5 -10 -7 -12
right_child=1 2 -4 6 -6 7 -8 -9 9 -11 11 -13
leaf_value=0.064688260425059804 -0.011138569047128944 -0.066430532944391427 -0.053578954438956453 -0.064301221847559167 0.065769789077884971 0.064291647227864276 -0.064594288011966247 0.064478422721735124 -0.064243828225947583 -0.064277201946085855 0.06427558192115522 0.06427938992505576
leaf_weight=4.0339855849742952 4.6968597024679211 3.6972824782133165 3.7500209212303153 3.4587605148553875 3.6401330679655066 3.4575724154710796 3.4925040155649176 3.4812781661748877 3.7962224632501584 6.2201563268899918 3.6281984150409681 6.393488422036171
leaf_count=23 21 20 20 20 20 20 20 20 22 36 21 37
internal_value=1.39425e-05 -0.0546358 -0.0630037 -0.0647139 0.0645959 0.0643923 -0.0643399 0.0643219 -0.064274 -0.0642646 0.0642815 0.064278
internal_weight=53.7465 29.1118 24.4149 20.6649 24.6347 20.9945 16.9676 16.9605 13.4751 10.0164 13.4793 10.0217
internal_count=300 159 138 118 141 121 98 98 78 58 78 58
is_linear=0
shrinkage=0.05


Tree=17
num_leaves=13
num_cat=0
split_feature=51 51 53 47 42 42 43 51 45 46 53 44
split_gain=70.9029 4.13724 0.167254 0.00369632 0.00193832 0.00045487 0.000144293 3.54138e-05 5.35368e-07 1.57593e-07 4.31534e-08 1.10605e-08
threshold=0.2460664436221123 0.87580054998397838 0.0044953192118555316 0.2377978786826134 0.87284234166145336 0.99226966500282299 0.13002377748489383 0.042195281013846404 0.68832087516784679 0.021045500412583355 0.00053712335648015152 0.086255494505167021
decision_type=2 2 2 2 2 2 2 2 2 2 2 2
left_child=4 -2 3 5 6 -3 -1 9 -7 -8 -10 -11
right_child=1 2 -4 -5 -6 8 7 -9 10 11 -12 -13
leaf_value=0.063768517420523738 -0.010598508132106839 -0.064010653339122509 -0.052373036419393615 -0.065273214255549245 0.064766872976710799 -0.063364250067047531 0.063401730441123891 0.063574516387599631 -0.063390376443201252 0.063386877558419638 -0.063383205037381582 0.063390397400402282
leaf_weight=3.8911792337894502 4.6895749568939236 3.7442252337932684 3.7742737084627143 3.7401926517486563 3.5148512423038474 3.3285491019487372 3.3339315801858929 3.3573764711618415 5.6649363785982114 3.4984028339385969 3.3312792479991913 6.1647893786430359
leaf_count=23 21 22 21 21 20 20 20 20 34 21 20 37
internal_value=1.54623e-05 -0.0534905 -0.0620196 -0.0638575 0.063683 -0.063528 0.0634949 0.0634298 -0.0633814 0.0633924 -0.0633877 0.0633891
internal_weight=52.0336 28.273 23.5835 19.8092 23.7605 16.069 20.2457 16.3545 12.3248 12.9971 8.99622 9.66319
internal_count=300 159 138 117 141 96 121 98 74 78 54 58
is_linear=0
shrinkage=0.05


Tree=18
num_leaves=13
num_cat=0
split_feature=51 51 47 42 42 43 52 51 50 50 46 44
split_gain=66.3046 4.04286 0.173837 0.00413467 0.00160023 0.00011934 9.92571e-05 2.93048e-05 6.49996e-07 6.39077e-07 1.30242e-07 9.14396e-09
threshold=0.2460664436221123 0.87580054998397838 0.30653861165046697 0.98523867130279552 0.87284234166145336 0.13002377748489383 0.01120433956384659 0.042195281013846404 0.00044726859778165823 0.0026689622318372135 0.021045500412583355 0.086255494505167021
decision_type=2 2 2 2 2 2 2 2 2 2 2 2
left_child=4 -2 3 -3 5 -1 8 10 -5 -10 -7 -12
right_child=1 2 -4 6 -6 7 -8 -9 9 -11 11 -13
leaf_value=0.062918226897927629 -0.010084284758639109 -0.064535503369082647 -0.050899981976906039 -0.062544951885924183 0.063841572230382157 0.062578415409616381 -0.062873809671403033 0.062738543723589654 -0.062587935028912953 -0.062560547178059339 0.062564658503831014 0.062567919101800068
leaf_weight=3.7501507103443208 4.6824591159820583 3.463621035218245 3.5298610627651206 3.3672269433736792 3.3906524777412406 3.2119944095611563 3.2511789351701728 3.2351050376892081 3.3740820288658124 5.7766994386911392 3.3704027384519559 5.9392509460449219
leaf_count=23 21 20 20 21 20 20 20 20 21 36 21 37
internal_value=1.70111e-05 -0.0523956 -0.0610993 -0.0629712 0.062839 0.0626647 -0.0626277 0.0626044 -0.0625637 -0.0625706 0.0625697 0.0625667
internal_weight=50.3427 27.4451 22.7627 19.2328 22.8976 19.5069 15.7692 15.7568 12.518 9.15078 12.5216 9.30965
internal_count=300 159 138 118 141 121 98 98 78 57 78 58
is_linear=0
shrinkage=0.05


Tree=19
num_leaves=13
num_cat=0
split_feature=51 51 53 47 42 42 43 51 45 50 52 52
split_gain=62.0471 3.9544 0.182583 0.00311306 0.00132458 0.000312409 9.89501e-05 2.43091e-05 3.72842e-07 1.09586e-07 4.12729e-08 3.13058e-09
threshold=0.2460664436221123 0.87580054998397838 0.0044953192118555316 0.2377978786826134 0.87284234166145336 0.99226966500282299 0.13002377748489383 0.042195281013846404 0.68832087516784679 0.016864912584424022 0.0037435137201100592 0.70496517419815075
decision_type=2 2 2 2 2 2 2 2 2 2 2 2
left_child=4 -2 3 5 6 -3 -1 9 -7 -8 -10 -11
right_child=1 2 -4 -5 -6 8 7 -9 10 11 -12 -13
leaf_value=0.062130742326467508 -0.0095946547050867262 -0.062338688925649366 -0.049848137296864312 -0.063580084177950358 0.062986224962915144 -0.061782522433191961 0.061815464986793869 0.061964041357714397 -0.061805666554575991 0.061805226375339875 -0.06179845246932239 0.061803260267902095
leaf_weight=3.6113156974315705 4.6755228936672237 3.4759075641632142 3.5457872152328482 3.5028211325407019 3.2679710835218421 3.0867817103862754 3.0921068042516699 3.1148116886615744 5.0993856936693174 5.8718846738338453 3.2438323050737381 3.0901472419500351
leaf_count=23 21 22 21 21 20 20 20 20 33 38 21 20
internal_value=1.85618e-05 -0.0513461 -0.0602376 -0.0622388 0.0620572 -0.0619236 0.0618955 0.0618395 -0.0617974 0.0618073 -0.0618029 0.0618045
internal_weight=48.6783 26.63 21.9545 18.4087 22.0482 14.9059 18.7803 15.169 11.43 12.0541 8.34322 8.96203
internal_count=300 159 138 117 141 96 121 98 74 78 54 58
is_linear=0
shrinkage=0.05


Tree=20
num_leaves=13
num_cat=0
split_feature=51 51 47 42 42 51 43 51 50 50 46 44
split_gain=58.0987 3.87075 0.191223 0.00326342 0.00109907 8.83825e-05 8.22333e-05 2.02113e-05 6.65601e-07 7.19723e-07 9.14381e-08 6.52449e-09
threshold=0.2460664436221123 0.87580054998397838 0.30653861165046697 0.98523867130279552 0.87284234166145336 0.98769357800483715 0.13002377748489383 0.042195281013846404 0.00044726859778165823 0.0024069696664810185 0.021045500412583355 0.086255494505167021
decision_type=2 2 2 2 2 2 2 2 2 2 2 2
left_child=4 -2 3 -3 6 -5 -1 10 -7 -10 -8 -12
right_child=1 2 -4 5 -6 8 7 -9 9 -11 11 -13
leaf_value=0.06140022382487266 -0.0091284445730883731 -0.062912658797732099 -0.048399862520402209 -0.061398690779423538 0.062194125742497747 -0.061074512163363917 0.061107223282999203 0.061245329578004548 -0.061121854567103284 -0.061091472509820943 0.061095230403395734 0.061098092524618175
leaf_weight=3.4750200062990251 4.6687744408845928 3.2355300337076249 3.3153771609067908 3.0181320011615744 3.1471724659204474 2.96894946694374 2.9745296686887732 2.9967850744724265 2.9769541770219785 5.6465267986059189 3.1211234778165799 5.5000259131193161
leaf_count=23 21 20 20 20 20 20 20 20 20 38 21 37
internal_value=2.01403e-05 -0.0503358 -0.0594272 -0.0614759 0.0613318 -0.0611577 0.0611816 0.0611296 -0.0610949 -0.061102 0.0610997 0.0610971
internal_weight=47.0449 25.8302 21.1615 17.8461 21.2147 14.6106 18.0675 14.5925 11.5924 8.62348 11.5957 8.62115
internal_count=300 159 138 118 141 98 121 98 78 58 78 58
is_linear=0
shrinkage=0.05


Tree=21
num_leaves=13
num_cat=0
split_feature=51 43 5 53 47 42 43 51 11 51 50 52
split_gain=54.4324 3.84867 0.77607 0.100509 0.00132239 0.00091401 6.8488e-05 1.68406e-05 1.16712e-05 1.218e-06 7.7273e-08 2.19407e-09
threshold=0.2460664436221123 0.031192445196211342 1.0000000180025095e-35 0.0044953192118555316 0.13487667590379718 0.87284234166145336 0.13002377748489383 0.042195281013846404 1.0000000180025095e-35 0.99726203083992015 0.016864912584424022 0.70496517419815075
decision_type=2 2 2 2 2 2 2 2 2 2 2 2
left_child=5 2 3 4 8 6 -1 10 9 -2 -8 -12
right_child=1 -3 -4 -5 -6 -7 7 -9 -10 -11 11 -13
leaf_value=0.0607215161649068 -0.060396515529888041 -0.0014595408788534363 -0.040391924612117096 -0.070527899047202566 -0.061650124776528363 0.061459387437402979 0.060448868793663894 0.0605773877335576 -0.060534736525602997 -0.060439966881109433 0.060439926512318366 0.060438214889673283
leaf_weight=3.3415486365556779 2.8499697744846433 3.5919082760810843 5.118583306670188 3.280262976884841 3.0451736748218527 3.0285610854625693 2.8595045655965796 2.8812624067068091 3.4457156956195831 3.7153006792068481 5.430041700601576 2.8576096445322037
leaf_count=23 20 18 32 19 20 20 20 20 24 26 38 20
internal_value=2.17178e-05 -0.0493611 -0.0573806 -0.0627036 -0.0607377 0.0606578 0.0605181 0.0604696 -0.0604602 -0.0604211 0.0604418 0.0604393
internal_weight=45.4454 25.0469 21.455 16.3364 13.0562 20.3985 17.37 14.0284 10.011 6.56527 11.1472 8.28765
internal_count=300 159 141 109 90 141 121 98 70 46 78 58
is_linear=0
shrinkage=0.05


Tree=22
num_leaves=14
num_cat=0
split_feature=51 52 42 47 42 51 43 47 43 47 50 51 45
split_gain=51.1081 2.80997 0.907313 0.219757 0.0187671 0.0139376 4.94685e-05 1.19019e-05 1.3659e-06 2.49811e-07 1.28589e-07 1.18235e-07 9.84517e-09
threshold=0.49348990619182592 0.093365032225847258 0.90136227011680614 0.30653861165046697 0.98455309867858898 0.09246979653835298 0.12380253896117212 0.031574923545122154 0.0013868120149709286 0.94336029887199413 0.0037119569024071102 0.020359095185995105 0.096616964787244811
decision_type=2 2 2 2 2 2 2 2 2 2 2 2 2
left_child=2 3 5 4 -2 6 -1 8 10 11 -6 12 -8
right_child=1 -3 -4 -5 7 -7 9 -9 -10 -11 -12 -13 -14
leaf_value=0.060059729095019811 -0.064097944142564339 -0.0069970099689521991 0.029781793980512995 -0.046252392839335986 -0.059827783005914507 0.063567387988656743 0.059824296443116036 -0.059933140967723258 -0.05986137990779751 0.059839796991826691 -0.059812476452202813 0.059814223957828497 0.059828129492345075
leaf_weight=2.7863922119140687 3.2593078166246512 3.0662234574556342 2.7712650001049033 3.1263324767351142 2.7456790208816511 3.0635830014944068 3.1567755043506605 4.8380264192819586 3.1645339131355286 2.7479159981012335 2.7427741438150406 2.880285456776619 3.5694673806428909
leaf_count=20 20 15 17 20 20 20 23 35 23 20 20 21 26
internal_value=2.43452e-05 -0.0515489 0.0564344 -0.0584216 -0.060693 0.0604917 0.0598694 -0.0598703 -0.0598352 0.0598265 -0.0598201 0.0598227 0.0598263
internal_weight=43.9186 22.9429 20.9757 19.8767 16.7503 18.2044 15.1408 13.491 8.65299 12.3544 5.48845 9.60653 6.72624
internal_count=300 153 147 138 118 130 110 98 63 90 40 70 49
is_linear=0
shrinkage=0.05


Tree=23
num_leaves=13
num_cat=0
split_feature=51 43 5 53 47 42 43 53 51 44 50 52
split_gain=48.026 4.18699 0.809362 0.0901265 0.00111346 0.00107484 4.53422e-05 4.12344e-05 8.9248e-06 8.99952e-07 5.47616e-08 1.59829e-09
threshold=0.2460664436221123 0.033638255670666702 1.0000000180025095e-35 0.0044953192118555316 0.13487667590379718 0.87284234166145336 0.13002377748489383 0.0012361458502709868 0.042195281013846404 0.00068798472057096671 0.016864912584424022 0.70496517419815075
decision_type=2 2 2 2 2 2 2 2 2 2 2 2
left_child=5 2 3 4 7 6 -1 9 10 -2 -8 -12
right_child=1 -3 -4 -5 -6 -7 8 -9 -10 -11 11 -13
leaf_value=0.059493039761064043 -0.059257164053264366 0.0055430538947673705 -0.038155242137114603 -0.068935035841353909 -0.060446438435919216 0.060376230660118095 0.059264747180823779 -0.059461822254246455 0.059361353924506546 -0.059218588105733466 0.059256916449552034 0.059255395405844929
leaf_weight=3.0821083933115068 3.5590162575244957 3.2026155143976203 4.8573490381240836 3.259940341114997 2.8373390287160865 2.8392221033573142 2.6377793550491315 3.2013237476348877 2.655623033642768 2.6285482794046402 5.0088938772678375 2.6359621286392212
leaf_count=23 27 16 32 20 20 20 20 24 20 20 38 20
internal_value=2.44293e-05 -0.047597 -0.0559627 -0.0615481 -0.0595785 0.0594796 0.0593207 -0.0593161 0.0592796 -0.0592408 0.0592585 0.0592564
internal_weight=42.4057 23.5461 20.3435 15.4862 12.2262 18.8596 16.0204 9.38889 12.9383 6.18756 10.2826 7.64486
internal_count=300 159 143 111 91 141 121 71 98 47 78 58
is_linear=0
shrinkage=0.05


Tree=24
num_leaves=13
num_cat=0
split_feature=51 43 5 53 42 51 48 43 51 42 46 44
split_gain=45.0333 5.43326 0.695895 0.0788205 0.000898979 0.000872769 8.64531e-05 3.7974e-05 7.47787e-06 1.02491e-06 4.59646e-08 3.45938e-09
threshold=0.2460664436221123 0.049899278208613403 1.0000000180025095e-35 0.0044953192118555316 0.87284234166145336 0.98769357800483715 0.99552416801452648 0.13002377748489383 0.042195281013846404 0.99743366241455089 0.021045500412583355 0.086255494505167021
decision_type=2 2 2 2 2 2 2 2 2 2 2 2
left_child=4 2 3 5 7 -2 9 -1 10 -7 -9 -12
right_child=1 -3 -4 -5 -6 6 -8 8 -10 -11 11 -13
leaf_value=0.058944888555527077 -0.059782365695694839 0.020599552555025453 -0.039636773741811314 -0.067965478261500331 0.059768879412356792 -0.058682307128896466 -0.059051064193012197 0.058731637755394563 0.05882189891342679 -0.058723717944142585 0.058722382398201226 0.058724641622388551
leaf_weight=2.9583634734153774 3.1162735372781816 2.654584512114524 5.1550442427396765 3.1440609171986571 2.7274980768561354 2.5211149454116804 2.5864704251289368 2.5313326865434629 2.5486852526664725 3.6681111603975296 2.6559323370456696 4.6803525388240814
leaf_count=23 23 13 34 20 20 20 20 20 20 29 21 37
internal_value=2.654e-05 -0.0466485 -0.0554898 -0.060925 0.0589323 -0.0590636 -0.0588083 0.0587839 0.0587455 -0.0587068 0.0587258 0.0587238
internal_weight=40.9478 22.8457 20.1911 15.036 18.1022 11.892 8.7757 15.3747 12.4163 6.18923 9.86762 7.33628
internal_count=300 159 146 112 141 92 69 121 98 49 78 58
is_linear=0
shrinkage=0.05


Tree=25
num_leaves=15
num_cat=0
split_feature=51 43 42 42 52 51 47 46 43 44 47 46 51 52
split_gain=42.2865 3.93064 0.460518 0.169299 0.00742142 0.00140267 0.00029582 2.09754e-05 1.87964e-05 1.6036e-05 8.22986e-07 5.69884e-08 5.48497e-08 7.89014e-10
threshold=0.34267456829547888 0.040676744654774673 0.98028013110160839 0.88563400506973278 0.027813676744699482 0.07612119242548944 0.15053927898406985 0.025330223143100742 0.1399088725447655 0.0016669202013872566 0.001802905055228621 0.021045500412583355 0.017782034352421764 0.74197453260421764
decision_type=2 2 2 2 2 2 2 2 2 2 2 2 2 2
left_child=3 2 -2 5 6 8 7 10 -1 -9 -4 -10 13 -13
right_child=1 -3 4 -5 -6 -7 -8 9 11 -11 -12 12 -14 -15
leaf_value=0.058379795827455241 -0.038138750392149368 0.0099526904151982266 -0.058206929474693948 0.044952874460920597 -0.061249484339216835 0.059538879461591622 -0.058898490717517751 -0.058456818820493639 0.058232594782349156 -0.058278227929277761 -0.058246660384089238 0.058227321622429953 0.058217794774945347 0.058226105883034576
leaf_weight=2.4566553756594685 3.2106033861637178 2.6220068931579581 2.5433382764458639 2.7292370051145545 2.8235470056533805 2.5551086142659178 2.5591543167829505 2.5965936705470085 2.4277403652667982 2.4363014847040176 2.6734792813658714 2.669300839304924 2.5458483174443245 2.6690175831317902
leaf_count=20 19 13 21 19 20 20 20 21 20 20 22 22 21 22
internal_value=2.77806e-05 -0.0474053 -0.0553867 0.0564261 -0.0589291 0.0584695 -0.0584176 -0.0582975 0.0582555 -0.0583704 -0.0582273 0.0582259 0.0582238 0.0582267
internal_weight=39.5179 21.465 18.843 18.0529 15.6324 15.3237 12.8089 10.2497 12.7686 5.0329 5.21682 10.3119 7.88417 5.33832
internal_count=300 156 143 144 124 125 104 84 105 41 43 85 65 44
is_linear=0
shrinkage=0.05


Tree=26
num_leaves=13
num_cat=0
split_feature=51 43 5 53 51 42 48 43 51 44 50 47
split_gain=39.7765 4.95655 0.739139 0.0821231 0.000913445 0.000812518 6.69883e-05 2.64414e-05 4.65822e-06 7.47855e-07 3.28894e-08 9.98291e-10
threshold=0.2460664436221123 0.049899278208613403 1.0000000180025095e-35 0.006811233703047038 0.98769357800483715 0.87284234166145336 0.99552416801452648 0.13002377748489383 0.042195281013846404 0.0011516935192048552 0.016864912584424022 0.87737292051315319
decision_type=2 2 2 2 2 2 2 2 2 2 2 2
left_child=5 2 3 4 -2 7 9 -1 10 -6 -9 -12
right_child=1 -3 -4 -5 6 -7 -8 8 -10 -11 11 -13
leaf_value=0.057952386298631635 -0.058829056492431454 0.018779908171642178 -0.037351997127980041 -0.068069666891966724 -0.05776075396216046 0.05878450666580224 -0.058061556850677258 0.057767832223988007 0.057841789196540809 -0.057723863361527884 0.057761397491575994 0.057760131877587828
leaf_weight=2.7209210917353657 3.2739685103297296 2.6675973385572425 4.8970520347356787 2.5406374856829634 3.372921019792555 2.534470207989215 2.3815672770142555 2.3276913091540319 2.3429494500160208 2.3178993612527847 4.3036433681845665 2.4423165172338486
leaf_count=23 26 13 34 17 29 20 20 20 20 20 37 21
internal_value=2.75462e-05 -0.044997 -0.0540543 -0.0599441 -0.0581246 0.0579601 -0.0578389 0.0578123 0.0577789 -0.0577457 0.0577627 0.0577609
internal_weight=38.1236 21.4516 18.784 13.887 11.3464 16.672 8.07239 14.1375 11.4166 5.69082 9.07365 6.74596
internal_count=300 159 146 112 95 141 69 121 98 49 78 58
is_linear=0
shrinkage=0.05


Tree=27
num_leaves=13
num_cat=0
split_feature=51 43 5 53 51 42 48 43 51 42 50 43
split_gain=37.348 5.56899 0.661226 0.0727972 0.000770257 0.000682706 5.65305e-05 2.22448e-05 3.92042e-06 6.28686e-07 2.76533e-08 8.41654e-10
threshold=0.2460664436221123 0.066915541887283339 1.0000000180025095e-35 0.006811233703047038 0.98769357800483715 0.87284234166145336 0.99552416801452648 0.13002377748489383 0.042195281013846404 0.99743366241455089 0.016864912584424022 0.46222452819347387
decision_type=2 2 2 2 2 2 2 2 2 2 2 2
left_child=5 2 3 4 -2 7 9 -1 10 -6 -9 -12
right_child=1 -3 -4 -5 6 -7 -8 8 -10 -11 11 -13
leaf_value=0.057504731905882893 -0.058327059467169262 0.026685713283232722 -0.038134714297295036 -0.067211975234310814 -0.057290638614576811 0.058283475286197067 -0.057607470014289341 0.05733181698127502 0.057401126259346492 -0.057325191452892679 0.057324704858276392 0.057325856916500884
leaf_weight=2.6078574210405341 3.1404182314872795 2.4487830549478522 5.0249091461300841 2.4467850103974333 2.2211023643612862 2.4310613200068465 2.28282081335783 2.230580307543276 2.2453577965497962 3.2321828976273537 2.7862267196178436 3.6782503351569176
leaf_count=23 26 12 35 17 20 20 20 20 20 29 25 33
internal_value=2.88401e-05 -0.0441382 -0.0535905 -0.0594196 -0.0576667 0.0575119 -0.0573986 0.0573735 0.0573422 -0.0573111 0.057327 0.0573254
internal_weight=36.7763 20.797 18.3482 13.3233 10.8765 15.9793 7.73611 13.5483 10.9404 5.45329 8.69506 6.46448
internal_count=300 159 147 112 95 141 69 121 98 49 78 58
is_linear=0
shrinkage=0.05


Tree=28
num_leaves=15
num_cat=0
split_feature=51 43 42 42 52 51 5 45 43 51 52 51 43 47
split_gain=35.1166 3.75114 0.50685 0.17094 0.00516804 0.00119857 0.000348066 0.000121206 1.10558e-05 2.58663e-06 5.80565e-08 3.80318e-08 8.20625e-09 4.12751e-10
threshold=0.34267456829547888 0.049899278208613403 0.98028013110160839 0.88563400506973278 0.030381433665752414 0.07612119242548944 1.0000000180025095e-35 0.44945707917213445 0.1399088725447655 0.99486476182937633 0.0012930746888741853 0.020359095185995105 0.32431900501251226 0.87737292051315319
decision_type=2 2 2 2 2 2 2 2 2 2 2 2 2 2
left_child=3 2 -2 5 6 8 7 -4 -1 -9 -11 12 -10 -14
right_child=1 -3 4 -5 -6 -7 -8 9 11 10 -12 -13 13 -15
leaf_value=0.057042622707905201 -0.035304274695181048 0.012322650908534238 -0.057305727973331534 0.042898168502234796 -0.059797448256858177 0.058202003771602367 -0.057676635308208463 -0.056849168499270346 0.056921288777938631 -0.056910155871886352 -0.05692127393527633 0.056911336707105215 0.056918000590374787 0.056917052142912476
leaf_weight=2.1625000834465018 3.1377993375063005 2.484885334968566 2.4394630789756757 2.4913592189550391 2.1750965341925612 2.2641801685094824 2.4212860986590377 2.1187689825892448 2.1361693590879423 2.3469264730811119 2.349773071706295 2.3472314327955246 2.3489512801170349 2.2419479489326477
leaf_count=20 20 12 22 19 17 20 21 20 20 22 22 22 22 21
internal_value=2.97131e-05 -0.0450568 -0.0534493 0.0549319 -0.0575598 0.0571525 -0.0571429 -0.0570033 0.056941 -0.056895 -0.0569157 0.0569168 0.0569187 0.0569175
internal_weight=35.4663 19.474 16.9891 15.9923 13.8513 13.501 11.6762 9.25493 11.2368 6.81547 4.6967 9.0743 6.72707 4.5909
internal_count=300 156 144 144 124 125 107 86 105 64 44 85 63 43
is_linear=0
shrinkage=0.05


Tree=29
num_leaves=13
num_cat=0
split_feature=51 43 5 53 42 42 47 43 51 45 50 43
split_gain=33.0629 5.06302 0.705757 0.0684795 0.000625482 0.000617376 7.30934e-05 1.55953e-05 2.43317e-06 1.5295e-07 1.9673e-08 6.64826e-10
threshold=0.2460664436221123 0.066915541887283339 1.0000000180025095e-35 0.006811233703047038 0.99226966500282299 0.87284234166145336 0.091841671615839018 0.13002377748489383 0.042195281013846404 0.96253889799118053 0.016864912584424022 0.46222452819347387
decision_type=2 2 2 2 2 2 2 2 2 2 2 2
left_child=5 2 3 4 -2 7 9 -1 10 -6 -9 -12
right_child=1 -3 -4 -5 6 -7 -8 8 -10 -11 11 -13
leaf_value=0.056690551183792681 -0.057543481470323767 0.024403548641289935 -0.035984551693021671 -0.066446738985792078 -0.056517373475127808 0.057475102756736132 -0.056874228801733387 0.056540197861025245 0.056596942019163723 -0.056534559929908239 0.056533903101638999 0.05653497224678064
leaf_weight=2.3921593949198714 2.460028097033506 2.4625908434391013 4.7763166204094878 2.2845351174473754 2.1423650160431862 2.2549217566847792 2.1177431717514992 2.0458504483103734 2.0586609467864037 3.2712088376283646 2.5554341301321983 3.3735980018973351
leaf_count=23 22 12 35 17 21 20 20 20 20 32 25 33
internal_value=2.91846e-05 -0.0426138 -0.052292 -0.058637 -0.0568513 0.056714 -0.0566252 0.0565758 0.0565485 -0.0565278 0.056536 0.0565345
internal_weight=34.1954 19.5148 17.0522 12.2759 9.99135 14.6806 7.53132 12.4257 10.0335 5.41357 7.97488 5.92903
internal_count=300 159 147 112 95 141 73 121 98 53 78 58
is_linear=0
shrinkage=0.05


Tree=30
num_leaves=13
num_cat=0
split_feature=51 43 5 53 42 42 47 43 51 45 50 47
split_gain=31.0734 4.79259 0.726138 0.0610878 0.000529825 0.000520703 6.17763e-05 1.31682e-05 2.05523e-06 1.29033e-07 1.66019e-08 5.64217e-10
threshold=0.2460664436221123 0.066915541887283339 1.0000000180025095e-35 0.006811233703047038 0.99226966500282299 0.87284234166145336 0.091841671615839018 0.13002377748489383 0.042195281013846404 0.96253889799118053 0.016864912584424022 0.87737292051315319
decision_type=2 2 2 2 2 2 2 2 2 2 2 2
left_child=5 2 3 4 -2 7 9 -1 10 -6 -9 -12
right_child=1 -3 -4 -5 6 -7 -8 8 -10 -11 11 -13
leaf_value=0.056321887290448125 -0.057124121783753604 0.02308057143699592 -0.034912915648550029 -0.065719474426377489 -0.05615924520183227 0.05705797771924831 -0.056494529571437073 0.056180674534211772 0.056233980728779435 -0.05617538034060774 0.056175710743953194 0.056174673370963435
leaf_weight=2.2900095358490935 2.3567942678928429 2.4732751101255408 4.6792805120348921 2.1965550035238257 2.0505468994379044 2.1602309867739669 2.0276555791497231 1.9582112804055194 1.970578111708164 3.1310616284608841 3.6204408779740334 2.0545755699276924
leaf_count=23 22 12 35 17 21 20 20 20 20 32 37 21
internal_value=3.01174e-05 -0.0418112 -0.0515726 -0.0581999 -0.0564733 0.0563439 -0.0562606 0.0562141 0.0561885 -0.056169 0.0561767 0.0561753
internal_weight=32.9692 18.9152 16.4419 11.7626 9.56606 14.054 7.20926 11.8938 9.60381 5.18161 7.63323 5.67502
internal_count=300 159 147 112 95 141 73 121 98 53 78 58
is_linear=0
shrinkage=0.05


Tree=31
num_leaves=14
num_cat=0
split_feature=51 43 53 42 43 51 52 47 44 43 51 43 47
split_gain=29.2476 3.89555 0.499756 0.192975 0.00168895 0.0010167 0.000383426 4.36229e-05 3.35308e-05 9.46823e-06 2.55998e-08 5.03671e-09 2.54206e-10
threshold=0.34267456829547888 0.066915541887283339 0.0096950666047632712 0.88962250947952282 0.0095735918730497378 0.07612119242548944 0.012176213786005976 0.0042136481497436771 0.0009227722475770862 0.1399088725447655 0.020359095185995105 0.32431900501251226 0.87737292051315319
decision_type=2 2 2 2 2 2 2 2 2 2 2 2 2
left_child=3 2 4 5 6 9 7 -2 -9 -1 11 -11 -13
right_child=1 -3 -4 -5 -6 -7 -8 8 -10 10 -12 12 -14
leaf_value=0.055959353316805863 -0.055827520730751083 0.017968299335153596 -0.034024790483162246 0.039551278817303789 -0.057588129827827017 0.057071878866543246 -0.056706167819083345 -0.0562267144830286 -0.055948291766411251 0.055841382281911656 0.055832764081041625 0.055838632041864567 0.055837837198708301
leaf_weight=1.9962318912148491 2.8045028597116488 2.2898693531751624 3.1067419946193686 2.0709487721323958 2.670408532023429 2.103292576968669 2.4493493512272835 2.06022097915411 2.2759985774755478 1.8732743561267851 2.0581996068358421 2.0598435774445534 1.9660026952624319
leaf_count=21 30 11 22 17 24 21 24 21 24 20 22 22 21
internal_value=3.10965e-05 -0.0428714 -0.0519371 0.0536512 -0.056476 0.0560731 -0.0561664 -0.0559812 -0.0560806 0.055862 0.0558376 0.0558392 0.0558382
internal_weight=31.7849 17.6571 15.3672 14.1278 12.2605 12.0568 9.59007 7.14072 4.33622 9.95355 7.95732 5.89912 4.02585
internal_count=300 156 145 144 123 127 99 75 45 106 85 63 43
is_linear=0
shrinkage=0.05


Tree=32
num_leaves=13
num_cat=0
split_feature=51 43 5 53 51 42 48 43 51 42 50 43
split_gain=27.5528 4.32235 0.780311 0.0666666 0.000664297 0.000469138 2.85048e-05 9.27634e-06 1.27229e-06 8.63492e-07 1.18747e-08 4.49333e-10
threshold=0.2460664436221123 0.066915541887283339 1.0000000180025095e-35 0.013290402013808491 0.98769357800483715 0.87284234166145336 0.99552416801452648 0.13002377748489383 0.042195281013846404 0.99682992696762096 0.016864912584424022 0.4173696637153626
decision_type=2 2 2 2 2 2 2 2 2 2 2 2
left_child=5 2 3 4 -2 7 9 -1 10 -6 -9 -12
right_child=1 -3 -4 -5 6 -7 -8 8 -10 -11 11 -13
leaf_value=0.055648872022703105 -0.056499219252575499 0.02075795557002481 -0.032688975203912216 -0.06653238561404444 -0.05547552334297598 0.056387443081621837 -0.05573651112004771 0.055525657494416694 0.055569260734758201 -0.055520435413550687 0.055520363616938684 0.055521314312705308
leaf_weight=2.0959876030683544 2.7745881900191325 2.486744597554206 4.4439950808882704 1.7423631697893132 1.7789355888962743 2.0004518255591384 1.8375049531459806 1.7922314181923846 1.8028272613883016 2.6863267570734024 2.0594953447580338 3.1344479471445084
leaf_count=23 28 12 35 14 20 20 20 20 20 30 23 35
internal_value=3.01552e-05 -0.0403699 -0.0503288 -0.0575741 -0.0558545 0.0556837 -0.0555708 0.0555544 0.0555318 -0.0555025 0.0555221 0.0555209
internal_weight=30.6359 17.7505 15.2637 10.8197 9.07736 12.8854 6.30277 10.885 8.789 4.46526 6.98617 5.19394
internal_count=300 159 147 112 98 141 70 121 98 50 78 58
is_linear=0
shrinkage=0.05


Tree=33
num_leaves=13
num_cat=0
split_feature=51 42 5 53 51 42 48 43 51 42 50 43
split_gain=25.91 4.09757 0.79957 0.0596495 0.000565056 0.000396925 2.42022e-05 7.85637e-06 1.07784e-06 7.30568e-07 1.00489e-08 3.81186e-10
threshold=0.2460664436221123 0.92548930644989025 1.0000000180025095e-35 0.013290402013808491 0.98769357800483715 0.87284234166145336 0.99552416801452648 0.13002377748489383 0.042195281013846404 0.99682992696762096 0.016864912584424022 0.4173696637153626
decision_type=2 2 2 2 2 2 2 2 2 2 2 2
left_child=5 -2 3 4 -3 7 9 -1 10 -6 -9 -12
right_child=1 2 -4 -5 6 -7 -8 8 -10 -11 11 -13
leaf_value=0.055343160092873149 0.019653428009758125 -0.056145154125768107 -0.031677343755650074 -0.0658449278613015 -0.055180045706236018 0.056037574954201419 -0.055425913599927094 0.055227204402013425 0.055268246738117525 -0.055222291903475773 0.055222223642200835 0.05522311909635829
leaf_weight=2.0044996142387417 2.4949569553136852 2.6554921269416791 4.3588208183646193 1.6742528155446041 1.7010077014565466 1.914468228816985 1.7574356049299238 1.7138029932975749 1.7240058779716489 2.5687598139047623 1.9693614989519117 2.9972714856266975
leaf_count=23 12 28 35 14 20 20 20 20 20 30 23 35
internal_value=3.12381e-05 -0.0395973 -0.0496428 -0.0572037 -0.0555375 0.0553759 -0.0552697 0.0552542 0.055233 -0.0552055 0.0552239 0.0552228
internal_weight=29.5341 17.2107 14.7158 10.3569 8.6827 12.3234 6.0272 10.4089 8.40444 4.26977 6.68044 4.96663
internal_count=300 159 147 112 98 141 70 121 98 50 78 58
is_linear=0
shrinkage=0.05


Tree=34
num_leaves=14
num_cat=0
split_feature=51 43 53 42 5 51 51 48 43 42 47 51 45
split_gain=24.4194 3.35738 0.591833 0.202615 0.00134913 0.000873201 0.000510077 2.05654e-05 8.58311e-06 6.18655e-07 2.15956e-08 1.37747e-08 4.15466e-10
threshold=0.34267456829547888 0.066915541887283339 0.0096950666047632712 0.90136227011680614 1.0000000180025095e-35 0.07612119242548944 0.98769357800483715 0.99552416801452648 0.13002377748489383 0.99682992696762096 0.94121634960174572 0.019348342902958397 0.096616964787244811
decision_type=2 2 2 2 2 2 2 2 2 2 2 2 2
left_child=3 2 4 5 6 8 -2 9 -1 -8 11 12 -10
right_child=1 -3 -4 -5 -6 -7 7 -9 10 -11 -12 -13 -14
leaf_value=0.05506801356410429 -0.055846371349745051 0.014845847348711892 -0.029999826846825936 0.037081257565550883 -0.056548169845239339 0.056160196005888452 -0.054901961323378351 -0.055133711856706992 0.054941635146696838 -0.054941723111878865 0.054947083352732309 0.054936830781307226 0.054942694594221048
leaf_weight=1.6692599654197708 2.4613624140620249 2.3184111565351477 2.8635694459080687 1.8106350004672993 2.6124456673860541 1.8533568307757367 1.626036688685417 1.6803600862622259 1.6370708569884302 2.4556420296430588 1.638539560139179 1.7175505012273786 2.1285665929317474
leaf_count=20 27 11 22 16 26 21 20 20 20 30 20 21 26
internal_value=3.23584e-05 -0.0407989 -0.0502159 0.0525437 -0.0555583 0.0551739 -0.0552439 -0.0549865 0.054966 -0.0549259 0.054942 0.0549405 0.0549422
internal_weight=28.4728 16.0178 13.6994 12.455 10.8358 10.6443 8.2234 5.76204 8.79099 4.08168 7.12173 5.48319 3.76564
internal_count=300 156 145 144 123 128 97 70 107 50 87 67 46
is_linear=0
shrinkage=0.05


Tree=35
num_leaves=13
num_cat=0
split_feature=51 43 5 53 51 42 48 43 51 42 50 47
split_gain=23.0002 5.38967 0.645548 0.0582068 0.000412925 0.000356867 1.74873e-05 5.54935e-06 6.60838e-07 5.24304e-07 7.28109e-09 2.82446e-10
threshold=0.2460664436221123 0.072031870484352126 1.0000000180025095e-35 0.013290402013808491 0.98769357800483715 0.87284234166145336 0.99552416801452648 0.13002377748489383 0.042195281013846404 0.99682992696762096 0.016864912584424022 0.87737292051315319
decision_type=2 2 2 2 2 2 2 2 2 2 2 2
left_child=5 2 3 4 -2 7 9 -1 10 -6 -9 -12
right_child=1 -3 -4 -5 6 -7 -8 8 -10 -11 11 -13
leaf_value=0.054783286295000802 -0.055502094893542568 0.037038985334690765 -0.033846193346310754 -0.065475094387598201 -0.054640097168865503 0.055478171919430365 -0.054858648455916807 0.054681912160610718 0.054715304477075892 -0.054677540581868016 0.05467825499249819 0.054677434170024256
leaf_weight=1.8313096091151253 2.4316249862313288 2.0745017081499091 4.5742175430059424 1.5774316117167471 1.5539591386914255 1.7706851437687863 1.6062195748090742 1.5657894164323805 1.5744047984480856 2.3468794748187065 2.8948519378900528 1.6427848711609838
leaf_count=23 28 10 37 14 20 20 20 20 20 30 37 21
internal_value=3.14216e-05 -0.0382046 -0.0492826 -0.0567025 -0.0549594 0.0548264 -0.0547198 0.0547051 0.0546864 -0.0546626 0.054679 0.054678
internal_weight=27.4447 16.1648 14.0903 9.51611 7.93868 11.2798 5.50706 9.50914 7.67783 3.90084 6.10343 4.53764
internal_count=300 159 149 112 98 141 70 121 98 50 78 58
is_linear=0
shrinkage=0.05


Tree=36
num_leaves=14
num_cat=0
split_feature=51 42 53 44 51 43 5 52 43 49 51 42 43
split_gain=21.8212 3.94881 0.369917 0.17805 0.119431 0.0036794 0.00051959 4.9814e-05 3.47017e-06 1.24542e-06 8.72533e-08 3.17265e-08 1.6195e-09
threshold=0.87580054998397838 0.92548930644989025 0.0074831671081483373 0.027333465404808525 0.099710728973150267 0.011311354581266643 1.0000000180025095e-35 0.012176213786005976 0.12380253896117212 0.0025588341522961859 0.020359095185995105 0.99797546863555919 0.34650968015193945
decision_type=2 2 2 2 2 2 2 2 2 2 2 2 2
left_child=1 3 5 -1 8 6 7 9 -5 -2 12 -11 -10
right_child=2 -3 -4 4 -6 -7 -8 -9 10 11 -12 -13 -14
leaf_value=0.042266320876281759 -0.054479135160595188 -0.0082550841988802501 -0.030268625202798133 0.054509936517035354 0.069288650896006984 -0.057237048629932452 -0.055524488286434553 -0.054764579348082758 0.054427316898098543 -0.054418998999828543 0.054414577525747403 -0.054428776511901734 0.05442932782255995
leaf_weight=2.5725342258811024 1.5072940513491611 3.2837468162178984 1.7573089078068722 1.5158383250236491 1.6611646264791486 1.7730871289968479 1.6107078120112417 1.5787593200802801 1.5692604109644888 1.4921774640679362 1.4908932223916052 1.8686871230602262 2.7659451961517334
leaf_count=25 20 24 17 20 15 18 18 20 21 20 20 25 37
internal_value=3.16441e-05 0.0401388 -0.051398 0.053867 0.0571818 -0.055175 -0.0547212 -0.0545205 0.0544425 -0.0544414 0.054425 -0.0544244 0.0544286
internal_weight=26.4474 14.8594 11.588 11.5756 9.0031 9.83071 8.05763 6.44692 7.34194 4.86816 5.8261 3.36086 4.33521
internal_count=300 162 138 138 113 121 103 85 98 65 78 45 58
is_linear=0
shrinkage=0.05


Tree=37
num_leaves=14
num_cat=0
split_feature=51 43 53 43 42 5 52 43 49 44 42 11 50
split_gain=20.5651 4.77383 0.691458 0.00316156 0.00046173 0.000369961 0.00018305 2.66317e-06 1.14198e-06 5.40932e-07 5.42025e-08 5.39047e-08 9.07893e-09
threshold=0.2460664436221123 0.072031870484352126 0.0096950666047632712 0.011311354581266643 0.87284234166145336 1.0000000180025095e-35 0.012176213786005976 0.21447293460369113 0.0025588341522961859 0.058004286140203483 0.99797546863555919 1.0000000180025095e-35 0.035350991412997253
decision_type=2 2 2 2 2 2 2 2 2 2 2 2 2
left_child=4 2 3 5 7 6 8 -1 -2 -9 -10 12 -11
right_child=1 -3 -4 -5 -6 -7 -8 9 10 11 -12 -13 -14
leaf_value=0.054262665078594563 -0.054241697224061705 0.033674272745684568 -0.028817396811369484 -0.056851305568461456 0.055126899860580607 -0.055226189999308187 -0.05481869793644234 0.054225496796058419 -0.054181262088024908 0.054199168379927609 -0.054194166355065909 0.054184475166809465 0.054193661203446555
leaf_weight=2.532081604003908 1.4398998990654925 2.0631905496120444 3.420991323888301 1.8034341707825658 1.6719790548086155 1.5402188822627065 1.6332101151347158 1.7240199893712995 1.495513901114464 1.4294484406709673 1.785050645470619 1.4251830056309698 1.5706840455532072
leaf_count=35 20 10 25 19 20 18 21 24 21 20 25 20 22
internal_value=3.04026e-05 -0.0370251 -0.0481444 -0.0549625 0.054366 -0.054531 -0.0543624 0.0542195 -0.0542046 0.0542017 -0.0541883 0.0541925 0.0541963
internal_weight=25.5349 15.1815 13.1183 9.69733 10.3534 7.89389 6.35367 8.68142 4.72046 6.14934 3.28056 4.42532 3.00013
internal_count=300 159 149 124 141 105 87 121 66 86 46 62 42
is_linear=0
shrinkage=0.05


Tree=38
num_leaves=13
num_cat=0
split_feature=51 43 5 53 42 51 48 43 44 42 11 50
split_gain=19.3648 4.48474 0.725101 0.0516869 0.000392292 0.000280169 1.04255e-05 2.26416e-06 4.59894e-07 2.97404e-07 4.58073e-08 7.7209e-09
threshold=0.2460664436221123 0.072031870484352126 1.0000000180025095e-35 0.013290402013808491 0.87284234166145336 0.98769357800483715 0.99552416801452648 0.21447293460369113 0.058004286140203483 0.99682992696762096 1.0000000180025095e-35 0.035350991412997253
decision_type=2 2 2 2 2 2 2 2 2 2 2 2
left_child=4 2 3 5 7 -2 9 -1 -9 -7 11 -10
right_child=1 -3 -4 -5 -6 6 -8 8 10 -11 -12 -13
leaf_value=0.054037545666857457 -0.05469699519522863 0.031902052575032175 -0.030666656041891307 -0.064552026944156765 0.054852360553797046 -0.053942581125994593 -0.054122854664830182 0.05400247815746461 0.053977636712633593 -0.05397278494465884 0.053963775702537665 0.053972439908112339
leaf_weight=2.4183708578348178 2.1304448619484884 2.0687645673751822 4.2439404353499404 1.4665103927254675 1.5981943905353535 1.3547551780939104 1.4003296941518781 1.6465398296713827 1.3651728332042696 2.0456753224134445 1.361080154776573 1.5000499114394186
leaf_count=35 28 10 37 14 20 20 20 24 20 30 20 22
internal_value=3.00641e-05 -0.0363432 -0.0475114 -0.0560241 0.0541351 -0.0542198 -0.054008 0.0539968 0.0539801 -0.0539608 0.0539713 0.0539749
internal_weight=24.5998 14.7104 12.6417 8.39772 9.88941 6.93121 4.80076 8.29121 5.87284 3.40043 4.2263 2.86522
internal_count=300 159 149 112 141 98 70 121 86 50 62 42
is_linear=0
shrinkage=0.05


Tree=39
num_leaves=15
num_cat=0
split_feature=51 8 44 48 47 7 51 43 5 51 43 50 53 43
split_gain=18.3731 3.55581 1.05881 0.499821 0.428034 0.227876 0.0824331 0.013004 0.000393527 1.94537e-05 5.30577e-06 7.63264e-08 3.05556e-08 2.0006e-08
threshold=0.87580054998397838 1.0000000180025095e-35 0.011181834153831007 0.93328186869621288 0.30653861165046697 1.0000000180025095e-35 0.099710728973150267 0.01212050346657634 1.0000000180025095e-35 0.98769357800483715 0.26658149063587194 0.0013123881071805956 0.00052280197269283246 0.5175955891609193
decision_type=2 2 2 2 2 2 2 2 2 2 2 2 2 2
left_child=1 2 -1 5 7 6 10 8 9 -2 -4 -11 -13 -12
right_child=4 -3 3 -5 -6 -7 -8 -9 -10 11 13 12 -14 -15
leaf_value=0.01854690663969628 -0.053967838067119078 -0.018194634520638193 0.053880984374045052 0.084885125509360268 -0.027809616947802946 0.035701896474360305 0.067621589010887356 -0.059088844607287465 -0.054763148255361507 -0.053747417575757274 0.053762125482068018 -0.053766715978293023 -0.053756239938045236 0.053770187276936103
leaf_weight=2.1348949968814876 1.4868306070566157 2.2907884418964377 1.4644161686301211 1.4244970083236692 1.7577377781271923 1.5787170678377149 1.4107725396752355 1.5269062370061872 1.3489492163062093 1.3620609045028684 1.7571633979678156 1.4984122738242152 1.299849674105644 1.3691887184977529
leaf_count=18 22 20 22 17 20 22 15 15 17 21 27 23 20 21
internal_value=3.05681e-05 0.0385386 0.0502054 0.0577112 -0.0502751 0.0526046 0.0570509 -0.0549083 -0.0539959 -0.0538126 0.0538024 -0.0537571 -0.0537618 0.0537657
internal_weight=23.7112 13.4304 11.1396 9.00475 10.2807 7.58026 6.00154 8.52301 6.9961 5.64715 4.59077 4.16032 2.79826 3.12635
internal_count=300 162 142 124 138 107 85 118 103 86 70 64 43 48
is_linear=0
shrinkage=0.05


Tree=40
num_leaves=13
num_cat=0
split_feature=51 43 5 53 42 51 48 7 5 49 47 42
split_gain=17.3439 4.05705 0.764805 0.0496829 0.000354658 0.000265205 9.58893e-06 6.06364e-06 3.57217e-06 1.58981e-06 1.48756e-06 2.44484e-07
threshold=0.2460664436221123 0.072031870484352126 1.0000000180025095e-35 0.013290402013808491 0.87284234166145336 0.98769357800483715 0.99552416801452648 1.0000000180025095e-35 1.0000000180025095e-35 0.066485784947872176 0.72058475017547619 0.99682992696762096
decision_type=2 2 2 2 2 2 2 2 2 2 2 2
left_child=4 2 3 5 7 -2 11 8 10 -10 -1 -7
right_child=1 -3 -4 -5 -6 6 -8 -9 9 -11 -12 -13
leaf_value=0.053592353191546177 -0.054302045061323183 0.029731103256320515 -0.028913221723652384 -0.06427783812790977 0.054452291123347513 -0.053538339718190678 -0.05371822630949509 0.053696841210952265 0.053507133379591523 0.053577628826233625 0.053669157991210539 -0.053567027653865888
leaf_weight=1.2499361112713834 1.9670651629567126 2.0512065291404715 4.0706601440906525 1.3831177353858946 1.4883666783571241 1.2342363707721236 1.2811890728771684 1.5374098047614095 1.224528316408396 2.3055938482284546 1.2719837762415407 1.8646722920238969
leaf_count=20 28 10 37 14 20 20 20 24 20 37 20 30
internal_value=2.9818e-05 -0.0351727 -0.0464541 -0.0556909 0.0537466 -0.0538198 -0.0536032 0.0536082 0.0535856 0.0535532 0.0536311 -0.0535556
internal_weight=22.93 13.8521 11.8009 7.73028 9.07782 6.34716 4.3801 7.58945 6.05204 3.53012 2.52192 3.09891
internal_count=300 159 149 112 141 98 70 121 97 57 40 50
is_linear=0
shrinkage=0.05


Tree=41
num_leaves=15
num_cat=0
split_feature=51 8 44 48 47 7 51 43 5 51 43 49 50 53
split_gain=16.3646 3.31754 1.2337 0.528789 0.453907 0.225023 0.0774646 0.0126207 0.000372531 1.23757e-05 5.71124e-06 2.7218e-07 5.89305e-08 2.19265e-08
threshold=0.87580054998397838 1.0000000180025095e-35 0.0080592716112732905 0.96209901571273815 0.30653861165046697 1.0000000180025095e-35 0.10587134584784509 0.01212050346657634 1.0000000180025095e-35 0.98769357800483715 0.21447293460369113 0.086295358836650862 0.0013123881071805956 0.00052280197269283246
decision_type=2 2 2 2 2 2 2 2 2 2 2 2 2 2
left_child=1 2 -1 5 7 6 10 8 9 -2 -4 -12 -11 -14
right_child=4 -3 3 -5 -6 -7 -8 -9 -10 12 11 -13 13 -15
leaf_value=0.011476297889794066 -0.053550909042807716 -0.017836332508006664 0.053497640160394627 0.087260989248724052 -0.025788595836017648 0.034584477454550497 0.067347200078600108 -0.058793501622805146 -0.054380863044399187 -0.053365743342891715 0.053351873356223427 0.053381671407012256 -0.053383347556234841 -0.053374050657013228
leaf_weight=1.7857659161090875 1.3513727076351623 2.2380794994533053 1.2166093811392764 1.2466197237372396 1.6613040119409559 1.4753047637641428 1.2724731490015981 1.4379602223634718 1.2581734359264372 1.2408960163593294 1.1772860586643221 2.1954060420393944 1.3653075210750105 1.1843737326562402
leaf_count=14 22 20 20 15 20 22 14 15 17 21 20 37 23 20
internal_value=3.04341e-05 0.0373718 0.0492876 0.0571539 -0.0495289 0.0520385 0.0564314 -0.0545607 -0.0536097 -0.053421 0.0534048 0.0533713 -0.0533747 -0.053379
internal_weight=22.1069 12.6075 10.3695 8.5837 9.49939 7.33708 5.86177 7.83808 6.40012 5.14195 4.5893 3.37269 3.79058 2.54968
internal_count=300 162 142 128 138 113 91 118 103 86 77 57 64 43
is_linear=0
shrinkage=0.05


Tree=42
num_leaves=14
num_cat=0
split_feature=51 43 53 43 42 5 51 7 5 47 48 49 42
split_gain=15.5388 3.67043 0.809999 0.00228541 0.000289108 0.000269421 0.000183516 1.76248e-05 9.34068e-06 3.30434e-06 3.05096e-06 1.40477e-06 3.22128e-08
threshold=0.2460664436221123 0.072031870484352126 0.0096950666047632712 0.01212050346657634 0.87284234166145336 1.0000000180025095e-35 0.98769357800483715 1.0000000180025095e-35 1.0000000180025095e-35 0.72058475017547619 0.90371674299240123 0.0030228734249249105 0.99797546863555919
decision_type=2 2 2 2 2 2 2 2 2 2 2 2 2
left_child=4 2 3 5 7 6 -2 8 9 -1 -10 -8 -13
right_child=1 -3 -4 -5 -6 -7 11 -9 10 -11 -12 12 -14
leaf_value=0.05324283348127451 -0.053880466399112342 0.027778039506708291 -0.023955451663826503 -0.055809657848910281 0.054060718861114812 -0.054213943793405162 -0.053266651943743019 0.053423613177828524 0.053206958175828212 0.05336223359855722 0.053104128812470092 -0.053194169319209998 -0.053205342623864962
leaf_weight=1.1423676945269128 1.465514101088045 2.0296816080808631 3.1492097787559032 1.3749666810035703 1.3767159320414064 1.2865902781486509 1.1481500603258612 1.436705023050308 2.0956150442361836 1.1759103909134863 1.0999684892594812 1.1852502450346949 1.4153828136622904
leaf_count=20 23 10 25 17 20 18 20 24 37 20 20 21 25
internal_value=3.01072e-05 -0.0340124 -0.0453878 -0.0539576 0.0533988 -0.0535659 -0.0534061 0.0532676 0.053227 0.0533034 0.0531716 -0.0532206 -0.0532003
internal_weight=21.382 13.0547 11.0251 7.87585 8.32728 6.50089 5.2143 6.95057 5.51386 2.31828 3.19558 3.74878 2.60063
internal_count=300 159 149 124 141 107 89 121 97 40 57 66 46
is_linear=0
shrinkage=0.05


Tree=43
num_leaves=13
num_cat=0
split_feature=51 43 5 53 42 51 7 5 48 47 48 42
split_gain=14.6378 3.45138 0.841362 0.0458434 0.000246299 0.000214071 1.50199e-05 7.96815e-06 7.51075e-06 2.81881e-06 2.60011e-06 1.80573e-07
threshold=0.2460664436221123 0.072031870484352126 1.0000000180025095e-35 0.013290402013808491 0.87284234166145336 0.98769357800483715 1.0000000180025095e-35 1.0000000180025095e-35 0.99552416801452648 0.72058475017547619 0.90371674299240123 0.99682992696762096
decision_type=2 2 2 2 2 2 2 2 2 2 2 2
left_child=4 2 3 5 6 -2 7 9 11 -1 -9 -7
right_child=1 -3 -4 -5 -6 8 -8 10 -10 -11 -12 -13
leaf_value=0.053074722822835818 -0.053743865510685489 0.026360785105389029 -0.025908846538615332 -0.06376618165826449 0.053847310840812769 -0.053012696709073472 0.053245556616919834 0.053040786754672081 -0.053182795319261782 0.053187617083642204 0.052943600606605301 -0.053039150084861653
leaf_weight=1.0900086760520964 1.7350260838866214 2.0318067371845236 3.8020457178354263 1.2845768965780733 1.3146315664052961 1.0717600919306285 1.3710906691849229 1.9994980022311213 1.1179463043808935 1.1221399866044519 1.0494147315621374 1.6205042377114294
leaf_count=20 28 10 37 14 20 20 24 37 20 20 20 30
internal_value=2.98743e-05 -0.0333496 -0.0447606 -0.0552551 0.0532221 -0.0532835 0.0530982 0.0530597 -0.0530739 0.053132 0.0530073 -0.0530286
internal_weight=20.6104 12.6637 10.6319 6.82981 7.94678 5.54524 6.63215 5.26106 3.81021 2.21215 3.04891 2.69226
internal_count=300 159 149 112 141 98 121 97 70 40 57 50
is_linear=0
shrinkage=0.05


Tree=44
num_leaves=15
num_cat=0
split_feature=51 43 53 51 43 5 42 51 7 5 47 49 49 42
split_gain=13.8316 2.97226 0.627744 0.226379 0.00188974 0.000262438 0.000148072 0.000134827 1.09825e-05 6.70674e-06 2.40586e-06 2.10472e-06 1.01953e-06 2.34657e-08
threshold=0.34267456829547888 0.072031870484352126 0.0096950666047632712 0.15360204875469211 0.01212050346657634 1.0000000180025095e-35 0.86194080114364635 0.98769357800483715 1.0000000180025095e-35 1.0000000180025095e-35 0.72058475017547619 0.066485784947872176 0.0030228734249249105 0.99797546863555919
decision_type=2 2 2 2 2 2 2 2 2 2 2 2 2 2
left_child=3 2 4 6 5 7 8 -2 9 10 -1 -11 -9 -14
right_child=1 -3 -4 -5 -6 -7 -8 12 -10 11 -12 -13 13 -15
leaf_value=0.052915815270669402 -0.053488470518849619 0.022386702696884812 -0.024733650872627144 0.029011536298602661 -0.055350259833958332 -0.05388964934886379 0.05354375511255182 -0.052936994948443117 0.053073802510022618 0.052792994073924682 0.053022594210130752 0.052886021394316154 -0.052872263335383723 -0.052882259028540435
leaf_weight=1.0398833155632039 1.3354432284831981 1.8920127898454655 2.5464145466685295 1.1373873278498647 1.275815427303314 1.2018660157918928 1.2224930748343465 1.0451410599052908 1.1978709772229192 1.001403905451298 1.0706507414579389 1.5477386042475698 1.0788189582526686 1.2883178032934663
leaf_count=20 23 9 23 12 17 18 20 20 22 20 20 30 21 25
internal_value=3.05986e-05 -0.0349746 -0.0460808 0.049717 -0.0536041 -0.0532296 0.0530432 -0.0530626 0.0529388 0.0529041 0.05297 0.0528495 -0.0528959 -0.0528777
internal_weight=19.8813 11.6638 9.77182 8.21743 7.2254 5.94959 7.08004 4.74772 5.85755 4.65968 2.11053 2.54914 3.41228 2.36714
internal_count=300 156 147 144 124 107 132 89 112 90 40 50 66 46
is_linear=0
shrinkage=0.05


Tree=45
num_leaves=13
num_cat=0
split_feature=51 43 5 53 42 51 7 48 5 49 47 42
split_gain=13.0186 3.06978 0.891257 0.0492406 0.000185651 0.00017137 1.08785e-05 5.43712e-06 5.21995e-06 2.21651e-06 2.05431e-06 1.38455e-07
threshold=0.2460664436221123 0.072031870484352126 1.0000000180025095e-35 0.014127076137810947 0.87284234166145336 0.98769357800483715 1.0000000180025095e-35 0.99552416801452648 1.0000000180025095e-35 0.066485784947872176 0.72058475017547619 0.99682992696762096
decision_type=2 2 2 2 2 2 2 2 2 2 2 2
left_child=4 2 3 5 6 -2 8 11 10 -10 -1 -7
right_child=1 -3 -4 -5 -6 7 -8 -9 9 -11 -12 -13
leaf_value=0.052765559129334387 -0.053376772653241811 0.02387410576488232 -0.023879375823360725 -0.06465627555408486 0.053470139515954876 -0.052709408697402663 0.052921166343537662 -0.052861541141343796 0.052649378647237399 0.05274339611167559 0.052866583782660154 -0.052733693720290103
leaf_weight=0.99191320687532725 1.7038367316126803 2.033923625946044 3.635894313454628 1.0908308103680608 1.2020684406161306 0.97496813535690385 1.249191954731941 1.01736469194293 0.9550975933671001 1.82429913431406 1.0213639773428438 1.4745675064623354
leaf_count=20 30 10 37 12 20 20 24 20 20 37 20 30
internal_value=2.8963e-05 -0.0320724 -0.0435694 -0.0550027 0.0529027 -0.0529662 0.0527898 -0.0527644 0.0527555 0.0527111 0.0528168 -0.052724
internal_weight=19.1753 11.9314 9.89746 6.26157 7.24393 5.17074 6.04187 3.4669 4.79267 2.7794 2.01328 2.44954
internal_count=300 159 149 112 141 100 121 70 97 57 40 50
is_linear=0
shrinkage=0.05


Tree=46
num_leaves=15
num_cat=0
split_feature=51 8 44 48 47 7 51 43 5 51 43 49 43 49
split_gain=12.3845 2.99977 1.21415 0.562753 0.561474 0.212335 0.0699237 0.0192046 0.000300469 9.53011e-06 2.5288e-06 1.18391e-07 1.08028e-07 5.06322e-09
threshold=0.87580054998397838 1.0000000180025095e-35 0.0080592716112732905 0.96209901571273815 0.30653861165046697 1.0000000180025095e-35 0.11968503519892694 0.014754840172827246 1.0000000180025095e-35 0.98769357800483715 0.19051782041788104 0.086295358836650862 0.0020859509240835909 0.018283729441463951
decision_type=2 2 2 2 2 2 2 2 2 2 2 2 2 2
left_child=1 2 -1 5 7 6 10 8 9 -2 -4 -12 13 -11
right_child=4 -3 3 -5 -6 -7 -8 -9 -10 12 11 -13 -14 -15
leaf_value=0.0094221456864263531 -0.052756803601742341 -0.01954657556872369 0.052679841664423743 0.090576610634712618 -0.019117905800400483 0.032308280697791229 0.067473423938403249 -0.059990534248077258 -0.053553753049110121 -0.052588202703240064 0.052571142577293943 0.052593054610669591 -0.052570922968810899 -0.052593164766486039
leaf_weight=1.6616509966552273 1.0798082649707783 2.040890146046876 0.96122609823942218 1.0573274604976175 1.3975110277533529 1.2114264257252214 1.0051052011549471 1.1361055746674535 1.1131529472768305 0.98267073556780893 0.93008748069405589 1.8280383832752702 1.0230264477431772 1.0781249664723871
leaf_count=14 22 20 20 15 20 22 12 12 18 21 20 39 22 23
internal_value=2.97743e-05 0.0349826 0.047841 0.0569697 -0.0478355 0.0509835 0.0557721 -0.0540937 -0.0528241 -0.052629 0.05261 0.0525857 -0.0525842 -0.0525908
internal_weight=18.5062 10.6958 8.65486 6.99321 7.8104 5.93588 4.72446 6.41289 5.27678 4.16363 3.71935 2.75813 3.08382 2.0608
internal_count=300 162 142 128 138 113 91 118 106 88 79 59 66 44
is_linear=0
shrinkage=0.05


Tree=47
num_leaves=14
num_cat=0
split_feature=51 43 53 43 5 42 51 7 5 35 48 49 42
split_gain=11.6825 2.76907 0.928053 0.00151594 0.000213737 0.000154235 0.000112912 1.93602e-05 9.35588e-06 8.87508e-06 3.04321e-06 1.0175e-06 1.45644e-08
threshold=0.2460664436221123 0.072031870484352126 0.0096950666047632712 0.01212050346657634 1.0000000180025095e-35 0.87284234166145336 0.98769357800483715 1.0000000180025095e-35 1.0000000180025095e-35 1.0000000180025095e-35 0.90371674299240123 0.0030228734249249105 0.99797546863555919
decision_type=2 2 2 2 2 2 2 2 2 2 2 2 2
left_child=5 2 3 4 6 7 -2 8 9 -1 -10 -8 -13
right_child=1 -3 -4 -5 -6 -7 11 -9 10 -11 -12 12 -14
leaf_value=0.052683995290509156 -0.053055094516472792 0.022309225300836882 -0.019065783369354987 -0.054810816249227623 -0.05343140638123009 0.053181369846929595 -0.052520169038747844 0.052716519610814076 0.052464046348094262 0.052464916560651401 0.052347905064411664 -0.05245204969341534 -0.052460504855760516
leaf_weight=0.90979687869549042 1.1766012944281081 2.0063008964061728 2.9063476547598839 1.148052219301462 1.0769803561270235 1.1109849773347376 0.90989611297845874 1.1683971546590326 1.6560857333242895 0.93983905762434006 0.85533045604825009 0.93580267205834422 1.1175558902323244
leaf_count=19 23 10 25 17 18 20 20 24 37 21 20 21 25
internal_value=2.95585e-05 -0.0309507 -0.0424762 -0.0531659 -0.0528039 0.0526438 -0.0526407 0.0525358 0.0524873 0.0525727 0.0524245 -0.0524762 -0.0524567
internal_weight=17.918 11.2775 9.27124 6.36489 5.21684 6.64043 4.13986 5.52945 4.36105 1.84964 2.51142 2.96325 2.05336
internal_count=300 159 149 124 107 141 89 121 97 40 57 66 46
is_linear=0
shrinkage=0.05


Tree=48
num_leaves=13
num_cat=0
split_feature=51 43 5 53 51 42 7 5 35 48 49 42
split_gain=11.0075 2.60496 0.959859 0.0447853 0.000140823 0.000131711 1.65368e-05 7.99926e-06 7.5894e-06 4.41438e-06 2.60136e-06 9.06243e-08
threshold=0.2460664436221123 0.072031870484352126 1.0000000180025095e-35 0.014127076137810947 0.98769357800483715 0.87284234166145336 1.0000000180025095e-35 1.0000000180025095e-35 1.0000000180025095e-35 0.99552416801452648 0.066485784947872176 0.99682992696762096
decision_type=2 2 2 2 2 2 2 2 2 2 2 2
left_child=5 2 3 4 -2 6 7 8 -1 11 -9 -6
right_child=1 -3 -4 -5 9 -7 -8 10 -10 -11 -12 -13
leaf_value=0.052546397405013247 -0.05295779948398828 0.021191792776771867 -0.020994557102187367 -0.064157444545892006 -0.052313555574017484 0.053016839870795723 0.052577084494756121 0.052228147357094572 0.05233893301631324 -0.052459091904145487 0.052338120117922743 -0.052334656899914726
leaf_weight=0.86763451248407608 1.5044444166123847 2.0064816474914542 3.4148733988404274 1.0212199017405508 0.84514927864074785 1.0599983409047125 1.1142867691814897 0.8154375292360786 0.89610012620687485 0.88656701892614354 1.5790084078907964 1.2786020487546919
leaf_count=19 30 10 37 12 20 20 24 20 21 20 37 30
internal_value=2.93021e-05 -0.0302993 -0.0418419 -0.0547017 -0.0525628 0.0525083 0.052406 0.0523602 0.052441 -0.0523654 0.0523007 -0.0523263
internal_weight=17.2898 10.9573 8.95086 5.53598 4.51476 6.33247 5.27247 4.15818 1.76373 3.01032 2.39445 2.12375
internal_count=300 159 149 112 100 141 121 97 40 70 57 50
is_linear=0
shrinkage=0.05


Tree=49
num_leaves=16
num_cat=0
split_feature=51 47 8 45 47 42 43 51 5 43 51 48 46 43 49
split_gain=10.4375 2.91792 3.02736 1.00872 0.620122 0.415167 0.0219393 0.00197264 0.000252195 8.6813e-06 7.85117e-06 4.02424e-06 7.45605e-07 7.11186e-08 3.49164e-09
threshold=0.87580054998397838 0.031574923545122154 1.0000000180025095e-35 0.78447753190994274 0.30653861165046697 0.9325818419456483 0.018746541813015941 0.099710728973150267 1.0000000180025095e-35 0.12380253896117212 0.98769357800483715 0.89610290527343761 0.046902077272534377 0.0020859509240835909 0.018283729441463951
decision_type=2 2 2 2 2 2 2 2 2 2 2 2 2 2 2
left_child=1 -1 3 5 6 7 8 9 10 -3 -2 12 -11 14 -12
right_child=4 2 -4 -5 -6 -7 -8 -9 -10 11 13 -13 -14 -15 -16
leaf_value=-0.073896422707846979 -0.052375484094642655 0.052391964447172493 -0.017208714800172078 0.097876164471862107 -0.015279111563204544 0.018483865449803252 -0.060747426594627389 0.054865964371773317 -0.053115677941534892 0.052281588925916889 -0.052211109106263011 0.052118053859729757 0.052226222983131843 -0.052196101053818479 -0.052215535211140779
leaf_weight=0.5948201864957835 0.94299137592315618 0.90834696963429262 1.82622679695487 1.1439280919730661 1.2759759873151777 1.0725970827043054 0.95946038141846646 0.87229750305414189 1.1012493185698984 1.0005044192075736 0.85166859999299072 0.7783176153898238 1.5503530278801916 0.88645361363887776 0.93449460715055466
leaf_count=4 22 21 19 8 20 12 10 16 20 24 21 20 38 22 23
internal_value=3.01215e-05 0.0334139 0.0403879 0.0547449 -0.0467752 0.0467644 -0.0538552 0.0527007 -0.0524532 0.052255 -0.0522514 0.0522176 0.0522479 -0.0522077 -0.0522134
internal_weight=16.6997 9.74739 9.15257 7.32634 6.95229 6.18242 5.67632 5.10982 4.71686 4.23752 3.61561 3.32918 2.55086 2.67262 1.78616
internal_count=300 162 158 139 138 131 118 119 108 103 88 82 62 66 44
is_linear=0
shrinkage=0.05


Tree=50
num_leaves=13
num_cat=0
split_feature=51 52 8 44 5 42 43 7 5 35 49 52
split_gain=9.88754 2.34425 2.42979 0.0236369 0.000166312 0.000122369 1.9612e-05 1.62247e-05 1.00995e-05 1.02828e-05 1.84997e-06 2.57846e-07
threshold=0.2460664436221123 0.013772279489785435 1.0000000180025095e-35 0.013686002697795631 1.0000000180025095e-35 0.87284234166145336 0.0036895597586408262 1.0000000180025095e-35 1.0000000180025095e-35 1.0000000180025095e-35 0.066485784947872176 0.0014197313576005401
decision_type=2 2 2 2 2 2 2 2 2 2 2 2
left_child=5 3 -3 4 6 7 11 8 9 -1 -10 -2
right_child=1 2 -4 -5 -6 -7 -8 -9 10 -11 -12 -13
leaf_value=0.05235850617225242 -0.052133116683146824 0.01824179503389434 -0.05185932318214688 -0.061010236404206303 -0.052967500555422535 0.052795725367874094 -0.052390121511384884 0.052361320914998039 0.05200239722294623 0.052106418236718778 0.052099804054710701 -0.052097911226809804
leaf_weight=0.80394231528044036 0.86081615090370123 3.5038431882858276 1.9099059551954267 0.98848472535610188 0.89503268152475346 0.98815436661243428 0.89320259168744076 1.0253113247454164 0.73927003890275989 0.81422549858689308 1.4309641271829603 1.3139769397675989
leaf_count=19 22 36 20 9 17 20 21 24 20 21 37 34
internal_value=2.4772e-05 -0.0292296 -0.00648904 -0.0540931 -0.0523678 0.0522889 -0.0521929 0.0521849 0.0521371 0.0522317 0.0520666 -0.0521118
internal_weight=16.1671 10.3653 5.41375 4.95151 3.96303 5.80187 3.068 4.81371 3.7884 1.61817 2.17023 2.17479
internal_count=300 159 56 103 94 141 77 121 97 40 57 56
is_linear=0
shrinkage=0.05


Tree=51
num_leaves=14
num_cat=0
split_feature=51 43 5 52 43 42 51 7 5 35 49 48 42
split_gain=9.30705 2.30868 1.02549 0.043935 0.000457404 0.000104605 2.12716e-05 1.3877e-05 8.64618e-06 8.80429e-06 1.58196e-06 2.11419e-07 5.69299e-09
threshold=0.2460664436221123 0.072031870484352126 1.0000000180025095e-35 0.055733244866132743 0.0088186427019536513 0.87284234166145336 0.98769357800483715 1.0000000180025095e-35 1.0000000180025095e-35 1.0000000180025095e-35 0.066485784947872176 0.99338489770889293 0.99797546863555919
decision_type=2 2 2 2 2 2 2 2 2 2 2 2 2
left_child=5 2 3 4 6 7 -2 8 9 -1 -10 12 -8
right_child=1 -3 -4 -5 -6 -7 11 -9 10 -11 -12 -13 -14
leaf_value=0.052238388024744613 -0.052293635783663167 0.020242454419964192 -0.018290018672553501 -0.064707332390438507 -0.053385331411556963 0.05265216845878861 -0.051990164917943497 0.052240957064219419 0.05190094057009257 0.05199947440562417 0.051993206745528833 -0.052025661577422368 -0.051996172627052056
leaf_weight=0.76644762977957837 0.86828964203595971 1.9590622633695591 3.2261470183730125 0.87563971057534207 0.85319465026259411 0.94245957955718029 0.73627106472849868 0.97749666869640339 0.70455535501241717 0.77606792375445366 1.3638954274356363 0.745964866131544 0.84908875823020935
leaf_count=19 21 10 37 11 17 20 20 24 20 21 37 20 23
internal_value=2.29722e-05 -0.0284963 -0.0402053 -0.054551 -0.0523567 0.0521724 -0.0520824 0.0520738 0.0520286 0.0521182 0.0519618 -0.0520037 -0.0519934
internal_weight=15.6446 10.1137 8.1546 4.92845 4.05281 5.53092 3.19961 4.58846 3.61097 1.54252 2.06845 2.33132 1.58536
internal_count=300 159 149 112 101 141 84 121 97 40 57 63 43
is_linear=0
shrinkage=0.05


Tree=52
num_leaves=16
num_cat=0
split_feature=51 8 46 45 47 42 53 51 5 51 43 49 45 46 46
split_gain=8.83029 2.45644 1.32451 1.2692 0.640875 0.484102 0.0166914 0.00160378 0.00023164 1.08456e-05 5.64018e-06 1.73468e-06 2.70958e-07 1.79465e-07 3.14494e-08
threshold=0.87580054998397838 1.0000000180025095e-35 0.0074318740516901025 0.78447753190994274 0.30653861165046697 0.9325818419456483 0.018534993752837185 0.09246979653835298 1.0000000180025095e-35 0.99013674259185802 0.16567605733871463 0.064742676913738265 0.9849819839000703 0.11791215091943742 0.1326607093214989
decision_type=2 2 2 2 2 2 2 2 2 2 2 2 2 2 2
left_child=1 2 -1 5 6 7 8 10 9 -2 -4 -12 14 -13 -11
right_child=4 -3 3 -5 -6 -7 -8 -9 -10 12 11 13 -14 -15 -16
leaf_value=-0.0003380270810050279 -0.052110725908586446 -0.019131186381570891 0.052042615443797895 0.10586173628563056 -0.012988732340247472 0.01131452630011425 -0.059781136870763751 0.054481329952140292 -0.052811801019464866 -0.051892087929997478 0.051820167941349728 0.051934256465490415 -0.051922293296886461 0.051900569118599041 -0.0518777363267547
leaf_weight=1.2868270874023418 0.80742677301168564 1.8575619347393511 0.78614301979541856 1.0368720218539236 1.212474789470434 0.87997327372431744 0.87205780297517765 0.76896209642291058 1.0527385957539079 0.84317357838153861 0.67674808949232135 0.71666584163904168 0.74651052802801121 0.88180912286043167 0.69750232622027397
leaf_count=24 21 20 21 7 20 9 11 16 21 24 20 20 21 25 20
internal_value=2.36834e-05 0.0320091 0.0455145 0.0557811 -0.0456127 0.0447569 -0.0534933 0.0524399 -0.0521711 -0.0519532 0.0519272 0.0518873 -0.0518976 0.0519157 -0.0518856
internal_weight=15.1234 8.89156 7.034 5.74717 6.23188 4.7103 5.01941 3.83033 4.14735 3.09461 3.06137 2.27522 2.28719 1.59847 1.54068
internal_count=300 162 142 118 138 111 118 102 107 86 86 65 65 45 44
is_linear=0
shrinkage=0.05


Tree=53
num_leaves=13
num_cat=0
split_feature=51 52 43 44 5 42 43 7 5 35 49 52
split_gain=8.44483 2.19666 2.04056 0.0186235 0.000133777 9.82658e-05 1.67941e-05 1.565e-05 9.31622e-06 1.19061e-05 1.72381e-06 2.47584e-07
threshold=0.2460664436221123 0.013772279489785435 0.0095735918730497378 0.013686002697795631 1.0000000180025095e-35 0.87284234166145336 0.0047109434381127366 1.0000000180025095e-35 1.0000000180025095e-35 1.0000000180025095e-35 0.081118859350681319 0.0014197313576005401
decision_type=2 2 2 2 2 2 2 2 2 2 2 2
left_child=5 3 -3 4 6 7 11 8 9 -1 -10 -2
right_child=1 2 -4 -5 -6 -7 -8 -9 10 -11 -12 -13
leaf_value=0.052091583124973341 -0.051831249270023597 -0.044417472412133438 0.019585782430406443 -0.060075003068410175 -0.052621448404597919 0.052481134130520329 -0.052092323971852927 0.052085050192988591 0.051718457222829972 0.051801910894995064 0.051816414471764473 -0.051794603309833022
leaf_weight=0.71425590664148442 0.74674071371555228 2.0581518262624741 3.153324119746685 0.91505081951618183 0.8010348193347453 0.88460509106516827 0.71209177374839772 0.91045082360506047 0.73722132667899121 0.70472095161676407 1.1492041386663912 1.2041026912629602
leaf_count=19 22 32 24 9 17 20 19 24 23 21 34 36
internal_value=1.96202e-05 -0.0276259 -0.00569082 -0.0537308 -0.0520549 0.052002 -0.0518845 0.0519015 0.0518509 0.0519477 0.0517781 -0.0518086
internal_weight=14.691 9.5905 5.21148 4.37902 3.46397 5.10046 2.66294 4.21585 3.3054 1.41898 1.88643 1.95084
internal_count=300 159 56 103 94 141 77 121 97 40 57 58
is_linear=0
shrinkage=0.05


Tree=54
num_leaves=13
num_cat=0
split_feature=51 42 42 52 5 51 45 42 50 46 52 48
split_gain=7.97464 2.13626 0.2768 0.00112696 0.000201516 0.000187214 2.5724e-05 2.19004e-05 8.58576e-06 2.27269e-06 1.565e-07 3.69602e-09
threshold=0.34267456829547888 0.98028013110160839 0.95522212982177745 0.042187312617897994 1.0000000180025095e-35 0.09246979653835298 0.44945707917213445 0.80049648880958568 0.56872132420539867 0.057590965181589134 0.0037435137201100592 0.98889893293380748
decision_type=2 2 2 2 2 2 2 2 2 2 2 2
left_child=2 -2 5 4 6 7 -3 8 9 -1 11 -8
right_child=1 3 -4 -5 -6 -7 10 -9 -10 -11 -12 -13
leaf_value=0.051785210637849646 -0.002792096005554719 -0.052043096727198507 0.019722039664967227 -0.054109235912225197 -0.052624118942519532 0.052699711950619968 -0.051708031620091167 0.052089285193657076 0.051906983377717535 0.051681764270099864 -0.051733646545728124 -0.05170271369872137
leaf_weight=1.0259768031537553 4.0226110704243165 0.84369901195168573 0.7745266705751418 0.77269865944981564 1.0271310433745382 0.7699359394609927 0.63882158696651481 0.75284717977046955 1.0400419402867553 1.1004068609327076 0.77682787925004948 0.66878979280591011
leaf_count=31 32 23 8 14 22 20 20 20 30 35 24 21
internal_value=1.77239e-05 -0.0295753 0.0474131 -0.0523627 -0.0520215 0.0519869 -0.0518102 0.0518469 0.0517893 0.0517317 -0.0517159 -0.0517053
internal_weight=14.2143 8.75058 5.46374 4.72797 3.95527 4.68921 2.92814 3.91927 3.16643 2.12638 2.08444 1.30761
internal_count=300 156 144 124 110 136 88 116 96 66 65 41
is_linear=0
shrinkage=0.05


Tree=55
num_leaves=13
num_cat=0
split_feature=51 52 43 44 5 42 43 7 5 35 49 52
split_gain=7.51048 2.13908 1.86026 0.0159894 9.90877e-05 8.16163e-05 1.62536e-05 1.15026e-05 6.87353e-06 8.75845e-06 1.25947e-06 1.84053e-07
threshold=0.2460664436221123 0.013772279489785435 0.0095735918730497378 0.013686002697795631 1.0000000180025095e-35 0.87284234166145336 0.0047109434381127366 1.0000000180025095e-35 1.0000000180025095e-35 1.0000000180025095e-35 0.081118859350681319 0.0014197313576005401
decision_type=2 2 2 2 2 2 2 2 2 2 2 2
left_child=5 3 -3 4 6 7 11 8 9 -1 -10 -2
right_child=1 2 -4 -5 -6 -7 -8 -9 10 -11 -12 -13
leaf_value=0.051885268093278647 -0.051651145262500753 -0.043207575148243284 0.018990823768580814 -0.059496230072777351 -0.052373568896528069 0.052265923107275042 -0.051922268736637682 0.051879200926274328 0.051549399944009068 0.051624546423441636 0.051637290908226968 -0.051617984363577653
leaf_weight=0.64880714751780189 0.67798469960689445 1.9455026779323814 3.1461812369525433 0.87662614881992329 0.73065010458230961 0.81225383095443238 0.65453221276402462 0.82701721042394627 0.66905154660344113 0.63972344808280468 1.0430742204189298 1.0930408407002685
leaf_count=19 22 32 24 9 17 20 19 24 23 21 34 36
internal_value=1.7382e-05 -0.0263201 -0.00477482 -0.0535224 -0.0518631 0.0518107 -0.0517094 0.0517141 0.0516686 0.0517558 0.0516029 -0.0516307
internal_weight=13.7644 9.12452 5.09168 4.03283 3.15621 4.63993 2.42556 3.82767 3.00066 1.28853 1.71213 1.77103
internal_count=300 159 56 103 94 141 77 121 97 40 57 58
is_linear=0
shrinkage=0.05


Tree=56
num_leaves=13
num_cat=0
split_feature=51 42 42 52 51 5 52 42 50 44 48 42
split_gain=7.09283 2.05496 0.283349 0.000983674 0.000158942 0.000154469 2.27283e-05 1.86563e-05 6.32618e-06 1.67009e-06 1.38633e-06 2.58437e-08
threshold=0.34267456829547888 0.98028013110160839 0.96063104271888744 0.042187312617897994 0.09246979653835298 1.0000000180025095e-35 0.01120433956384659 0.80049648880958568 0.56872132420539867 0.17874871939420703 0.99552416801452648 0.99615472555160534
decision_type=2 2 2 2 2 2 2 2 2 2 2 2
left_child=2 -2 4 5 7 6 10 8 9 -1 11 -3
right_child=1 3 -4 -5 -6 -7 -8 -9 -10 -11 -12 -13
leaf_value=0.051520567631498294 -0.0024007514944315439 -0.051526955297750782 0.017854088570543779 -0.053858165583449302 0.052492496300439007 -0.052387537317128169 -0.051907417153022974 0.051897522642139385 0.05171947486392503 0.05161433317877015 -0.051625430403460786 -0.051540617137437163
leaf_weight=1.0864769350737349 3.9807790368795377 0.57493250258267037 0.71700491756200779 0.72191364318132389 0.70309353992342938 0.93955891951918591 0.61940196715295304 0.72335002943873394 0.94445164501667012 0.84364045225083817 0.60314390622079361 0.86993495561182499
leaf_count=38 32 20 7 14 20 22 18 21 30 28 20 30
internal_value=1.5416e-05 -0.0283296 0.0469538 -0.0521734 0.0518049 -0.0518362 -0.051642 0.0516706 0.0516134 0.0515616 -0.0515618 -0.0515352
internal_weight=13.3277 8.30966 5.01802 4.32889 4.30101 3.60697 2.66741 3.59792 2.87457 1.93012 2.04801 1.44487
internal_count=300 156 144 124 137 110 88 117 96 66 70 50
is_linear=0
shrinkage=0.05


Tree=57
num_leaves=13
num_cat=0
split_feature=51 52 43 44 5 42 43 7 5 35 49 52
split_gain=6.67918 2.07822 1.69223 0.0137232 7.35888e-05 6.73741e-05 1.56546e-05 8.46216e-06 5.07424e-06 6.4469e-06 9.1982e-07 1.35743e-07
threshold=0.2460664436221123 0.013772279489785435 0.0095735918730497378 0.013686002697795631 1.0000000180025095e-35 0.87284234166145336 0.0047109434381127366 1.0000000180025095e-35 1.0000000180025095e-35 1.0000000180025095e-35 0.081118859350681319 0.0014197313576005401
decision_type=2 2 2 2 2 2 2 2 2 2 2 2
left_child=5 3 -3 4 6 7 11 8 9 -1 -10 -2
right_child=1 2 -4 -5 -6 -7 -8 -9 10 -11 -12 -13
leaf_value=0.051699934983852981 -0.051489260322852851 -0.04196426767294275 0.018402788212400843 -0.058957109043437719 -0.052151757010871685 0.052069747557253854 -0.051769782461594208 0.051694330855229689 0.051397483877754682 0.051465156899243747 0.051476338255130927 -0.051459367293526528
leaf_weight=0.58912580460310138 0.61534427665173941 1.8421528488397596 3.1392302662134171 0.83960073441267002 0.66626489534974087 0.74492466822266568 0.60177690349519242 0.75094283372163761 0.60701500065624692 0.58053290098905563 0.94642436131834984 0.99197253957390785
leaf_count=19 22 32 24 9 17 20 19 24 23 21 34 36
internal_value=1.5093e-05 -0.0250295 -0.0039214 -0.0533333 -0.0516912 0.0516383 -0.0515523 0.0515457 0.0515048 0.0515834 0.0514455 -0.0514708
internal_weight=12.9153 8.69634 4.98138 3.71496 2.87536 4.21897 2.20909 3.47404 2.7231 1.16966 1.55344 1.60732
internal_count=300 159 56 103 94 141 77 121 97 40 57 58
is_linear=0
shrinkage=0.05


Tree=58
num_leaves=13
num_cat=0
split_feature=51 42 42 52 51 5 47 42 50 46 51 42
split_gain=6.31082 1.97269 0.270169 0.00086349 0.000158404 0.000119202 2.5444e-05 1.21378e-05 6.11151e-06 1.34925e-06 2.01087e-07 2.16905e-09
threshold=0.34267456829547888 0.98028013110160839 0.96063104271888744 0.042187312617897994 0.099710728973150267 1.0000000180025095e-35 0.10150831565260889 0.80049648880958568 0.56872132420539867 0.057590965181589134 0.99066573381423961 0.9982089400291444
decision_type=2 2 2 2 2 2 2 2 2 2 2 2
left_child=2 -2 4 5 7 6 10 8 9 -1 -3 -12
right_child=1 3 -4 -5 -6 -7 -8 -9 -10 -11 11 -13
leaf_value=0.051451931063531187 -0.0020493846643163645 -0.051423902661358135 0.017964664962681957 -0.053633657320237386 0.052418144722588093 -0.052176464169056483 -0.05177244882649306 0.051696287326300265 0.051566564214661985 0.051364641264144355 -0.051385024665581348 -0.051389201648210869
leaf_weight=0.84522671811282746 3.9406351670622826 0.53786410763859871 0.70280798152089108 0.67497763969004143 0.55766122229397286 0.85947987064719189 0.60471488162875164 0.68180580064654339 0.89328859001398075 0.92956122010946274 0.5245342608541248 0.7627618033438921
leaf_count=31 32 20 7 14 17 22 19 22 31 36 20 29
internal_value=1.30615e-05 -0.0271019 0.0465047 -0.0520046 0.0516379 -0.0516704 -0.0514914 0.051508 0.0514599 0.0514062 -0.0513982 -0.0513875
internal_weight=12.5153 7.90497 4.61035 3.96433 3.90754 3.28935 2.42988 3.34988 2.66808 1.77479 1.82516 1.2873
internal_count=300 156 144 124 137 110 88 120 98 67 69 49
is_linear=0
shrinkage=0.05


Tree=59
num_leaves=13
num_cat=0
split_feature=51 52 45 44 42 5 43 5 11 46 49 52
split_gain=5.94129 2.01361 1.27976 0.0117735 5.66118e-05 5.48201e-05 1.50017e-05 5.66194e-06 1.02886e-05 2.97984e-06 4.00335e-07 1.00151e-07
threshold=0.2460664436221123 0.013772279489785435 0.22660780698060992 0.013686002697795631 0.88962250947952282 1.0000000180025095e-35 0.0047109434381127366 1.0000000180025095e-35 1.0000000180025095e-35 0.021045500412583355 0.081118859350681319 0.0014197313576005401
decision_type=2 2 2 2 2 2 2 2 2 2 2 2
left_child=4 3 -3 5 7 6 11 8 -1 -9 -11 -2
right_child=1 2 -4 -5 -6 -7 -8 9 -10 10 -12 -13
leaf_value=0.051592947874582698 -0.051343638420838472 -0.038904420017700864 0.015191781753578954 -0.058454157836905773 0.051961826290593011 -0.051953104921663898 -0.051632765414050298 0.051441898768161187 0.0513347011116084 0.05126800706514352 0.051326023481879736 -0.051316681875492293
leaf_weight=0.847388736903669 0.55831884965300493 1.6536493618041275 3.2263339385390282 0.80394582077860821 0.53189194947481144 0.60741886869072903 0.55338131636381138 0.54005968943238247 0.70785271376371384 0.52903425320982911 0.67895500361919403 0.89996834099292755
leaf_count=29 22 21 35 9 15 17 19 20 28 22 27 36
internal_value=1.26178e-05 -0.0237617 -0.00313946 -0.0531614 0.0514831 -0.0515368 -0.0514111 0.051406 0.0514754 0.0513443 0.0513006 -0.051327
internal_weight=12.1382 8.30302 4.87998 3.42303 3.83518 2.61909 2.01167 3.30329 1.55524 1.74805 1.20799 1.45829
internal_count=300 159 56 103 141 94 77 126 57 69 49 58
is_linear=0
shrinkage=0.05


Tree=60
num_leaves=14
num_cat=0
split_feature=51 42 51 52 5 42 52 5 11 46 48 49 46
split_gain=5.61344 1.91615 0.304422 0.000896215 8.91966e-05 4.85113e-05 2.47146e-05 4.85617e-06 8.82411e-06 2.55546e-06 7.33565e-07 3.43138e-07 1.59981e-08
threshold=0.34267456829547888 0.98028013110160839 0.2460664436221123 0.04470889829099179 1.0000000180025095e-35 0.88962250947952282 0.012176213786005976 1.0000000180025095e-35 1.0000000180025095e-35 0.021045500412583355 0.99552416801452648 0.081118859350681319 0.018642934970557693
decision_type=2 2 2 2 2 2 2 2 2 2 2 2 2
left_child=2 -2 5 4 6 7 10 8 -1 -9 12 -11 -3
right_child=1 3 -4 -5 -6 -7 -8 9 -10 11 -12 -13 -14
leaf_value=0.051512965632012769 -0.0014211739626399115 -0.051255286091329046 0.012570388737369259 -0.053649456557081067 -0.051981311160068558 0.051862668717753073 -0.051657930930807117 0.051369641969522387 0.051267918674462065 0.051204647168661355 -0.051322747315791041 0.05125968535901898 -0.051243590064487622
leaf_weight=0.80728105083108015 3.8829865381121635 0.76445885747671238 0.58538358658552159 0.59047888778150071 0.7860252447426318 0.50689418613910664 0.54304698854684819 0.51442503929138172 0.67418527230620384 0.50383993238210656 0.49658044427633274 0.64665671065449715 0.47343700006604195
leaf_count=29 32 32 3 12 22 15 18 20 28 22 20 27 20
internal_value=1.11652e-05 -0.0258773 0.0460449 -0.0518658 -0.0515221 0.0514087 -0.0513636 0.0513356 0.0514014 0.051277 -0.0512714 0.0512356 -0.0512508
internal_weight=11.7757 7.53701 4.23867 3.65403 3.06355 3.65328 2.27752 3.14639 1.48147 1.66492 1.73448 1.1505 1.2379
internal_count=300 156 144 124 112 141 90 126 57 69 72 49 52
is_linear=0
shrinkage=0.05


Tree=61
num_leaves=13
num_cat=0
split_feature=42 52 42 51 52 5 47 5 11 52 49 43
split_gain=5.28884 3.05824 1.42664 0.0600856 0.0450287 9.74677e-05 3.38199e-05 4.21749e-06 5.63942e-06 1.01874e-06 6.68721e-07 9.12056e-09
threshold=0.80049648880958568 0.66159197688102733 0.98028013110160839 0.2460664436221123 0.098687794059515013 1.0000000180025095e-35 0.18925318121910098 1.0000000180025095e-35 1.0000000180025095e-35 0.0064926682971417913 0.086295358836650862 0.001740289095323533
decision_type=2 2 2 2 2 2 2 2 2 2 2 2
left_child=3 2 -2 7 5 6 9 8 -1 11 -9 -4
right_child=1 -3 4 -5 -6 -7 -8 10 -10 -11 -12 -13
leaf_value=0.05141383788110078 -0.0095991756868529805 0.061401592215682657 -0.051190788847921276 0.06838638173618658 -0.066121212381145864 -0.051955943767831615 -0.051672977235770447 0.051140501519594074 0.051207194102339738 -0.051270348937440952 0.051216969328702427 -0.051181888305045657
leaf_weight=0.70563672482967532 3.527392787858842 0.9875307586044072 0.79522201418876759 0.64057470113039006 0.63276569917798031 0.80255001969635476 0.51349026896059502 0.45676105655729748 0.62048720754683018 0.52957251854240883 0.76435654237866402 0.4510957021266222
leaf_count=27 36 27 35 4 8 23 17 21 27 22 33 20
internal_value=1.09395e-05 -0.0211468 -0.0323876 0.0546978 -0.0539688 -0.0514818 -0.0513156 0.0512554 0.0513172 -0.0512123 0.0511884 -0.0511876
internal_weight=11.4274 8.23962 7.25209 3.18782 3.7247 3.09193 2.28938 2.54724 1.32612 1.77589 1.22112 1.24632
internal_count=300 188 161 112 125 117 94 108 54 77 54 55
is_linear=0
shrinkage=0.05


Tree=62
num_leaves=15
num_cat=0
split_feature=51 52 51 44 42 43 42 43 5 11 46 44 51 49
split_gain=4.984 1.93127 1.43878 3.08267 0.0128709 0.000159836 3.64121e-05 6.59846e-06 3.64857e-06 6.73935e-06 1.82115e-06 1.53502e-06 3.68933e-07 2.4814e-07
threshold=0.2460664436221123 0.013772279489785435 0.69449517130851757 0.0064254861790686854 0.94222724437713634 0.011311354581266643 0.88962250947952282 0.0010525475954636934 1.0000000180025095e-35 1.0000000180025095e-35 0.021045500412583355 0.0016669202013872566 0.99726203083992015 0.081118859350681319
